#ifndef FOCAL_NET_WEIGHTS_H
#define FOCAL_NET_WEIGHTS_H

#include <stdint.h>

// Hardware alignment for SRAM4 TNN bank
#define TNN_DATA __attribute__((aligned(4), section(".sram4_tnn")))

const int16_t premix_alphas_q15[21] TNN_DATA = {
    16, 32767, 21, 20, 28, 97, 24, 34, 15, 15, 19, 67, 
    18, 13, 80, 32767, 17, 30, 32767, 32767, 17, 
};

const int8_t premix_sub_ln_weight_q7[21] TNN_DATA = {
    127, 92, 127, 127, 127, 99, 127, 127, 127, 127, 127, 127, 127, 127, 110, 115, 
    127, 127, 96, 99, 127, 
};

const int16_t premix_sub_ln_bias_q15[21] TNN_DATA = {
    -263, -583, 630, -579, -225, -937, -342, 455, 845, 483, 2, -99, 
    -1230, 245, -246, -34, 581, 174, -296, -1842, 836, 
};

const int16_t focal1_conv_alphas_q15[128] TNN_DATA = {
    12083, 32767, 32767, 7190, 17586, 23663, 32767, 32606, 942, 22172, 32767, 32767, 
    4067, 22831, 15109, 14961, 23997, 24702, 24118, 24855, 32767, 19094, 10318, 1632, 
    9808, 7507, 31587, 2837, 15791, 21477, 8350, 9123, 12731, 3780, 7168, 1089, 
    8586, 5366, 8382, 2325, 10151, 5995, 8143, 6512, 4244, 5920, 3003, 5931, 
    9035, 4061, 32767, 2376, 2482, 3815, 4510, 4700, 4387, 16579, 8379, 9066, 
    17049, 3128, 16210, 25015, 3343, 2235, 11618, 10626, 7473, 1413, 14902, 3543, 
    2999, 2304, 1379, 5248, 3412, 13969, 19664, 3315, 6989, 2260, 1242, 6999, 
    3091, 7857, 13238, 1891, 10264, 1818, 6641, 3629, 2490, 15422, 6802, 3370, 
    6245, 682, 4977, 21173, 1769, 32767, 2572, 6824, 5249, 9687, 17742, 4380, 
    4142, 11182, 3863, 1059, 23392, 32767, 10182, 3152, 8971, 10812, 1258, 4011, 
    2149, 4549, 5148, 4853, 4489, 16131, 5826, 16117, 
};

const int8_t focal1_conv_sub_ln_weight_q7[128] TNN_DATA = {
    127, 41, 127, 108, 127, 0, 127, -127, 119, 127, 90, 25, 127, 127, 127, 127, 
    127, 127, 127, 127, 127, 127, 127, 127, 77, 114, 0, 127, 127, 127, 127, 127, 
    127, 127, 127, 127, 127, 127, 127, 127, 127, 127, 127, 127, 127, 127, 127, 127, 
    127, 127, 97, 127, 127, 127, 127, 127, 127, 127, 127, 127, 127, 127, 127, 127, 
    127, 127, 127, 127, 127, 127, 127, 127, 127, 127, 127, 127, 127, 127, 89, 127, 
    127, 127, 127, 127, 127, 127, 127, 127, 127, 127, 46, 127, 127, 127, 127, 127, 
    127, 127, 127, 127, 127, -53, 127, 127, 127, 103, 127, 127, 127, 127, 127, 127, 
    34, 127, 127, 127, 127, 127, 127, 127, 127, 127, 127, 127, 127, 127, 127, 127, 
    
};

const int16_t focal1_conv_sub_ln_bias_q15[128] TNN_DATA = {
    15236, 19226, 7071, 7833, -1887, 4389, -3271, 7367, 2067, 10864, 1713, -6296, 
    19377, -12814, 11579, -1789, 4134, 4618, 458, -9306, 1974, -2341, 13372, 2353, 
    -22067, -4996, -3918, 32767, 8048, -16741, 9928, -2343, 3261, 1991, -5283, 15691, 
    22762, 4396, -15582, 4411, -21286, 4373, -18794, 4582, 9964, 15805, 15597, 5213, 
    -32767, -5559, -3015, -3657, 1452, 732, 525, 9, 883, 10818, 15221, 14852, 
    -8165, -12831, 31190, -24740, 2053, 7652, -4410, 27245, 2703, 6622, -9403, -19234, 
    11352, -11149, -5914, 15307, 10827, 8669, -5236, 8474, 15662, 3370, 4718, -10207, 
    -10524, 1715, 5852, 10407, -1090, 8616, 7437, 4178, 168, 7229, -2534, 21541, 
    -7960, 2698, 2696, 5444, 7172, 12072, 11022, -24945, -8822, 10507, 4134, 2125, 
    5707, -6142, 6952, 13947, -4324, 16598, 2625, 2856, -9207, -17495, 9640, 7297, 
    9684, 11997, 5518, 1224, 2025, 8795, 1156, -4269, 
};

const int8_t focal1_norm_weight_q7[128] TNN_DATA = {
    0, 127, 32, 127, 1, 127, 55, 0, 127, 0, 127, 127, 127, 44, 83, 47, 
    0, 0, 0, 1, 1, 18, 85, 127, 127, 127, 127, 127, 127, -8, 127, 127, 
    113, 127, 127, 127, 55, 127, 100, 127, 28, 127, 95, 127, 127, 114, 127, 127, 
    67, 127, 64, 127, 127, 127, 127, 127, 127, 127, 101, 71, 65, 127, 57, 69, 
    127, 127, 127, 76, 127, 127, 0, 127, 109, 127, 0, 110, 127, 25, 116, 127, 
    86, 127, 127, 78, 127, 49, 74, 127, 51, 127, 127, 127, 127, 43, 40, 127, 
    79, 127, 120, -1, 127, 2, 127, 80, 127, 127, 36, 127, 127, 83, 127, 127, 
    127, 127, 55, 127, 120, 0, 127, 127, 127, 127, 127, 127, 127, 0, 109, 0, 
    
};

const int16_t focal1_norm_bias_q15[128] TNN_DATA = {
    -5551, 1256, -30461, 11324, -17730, 2805, -32767, -14026, 9060, -6066, 12131, -11729, 
    -1473, 1454, -16103, -32767, -6353, -1489, -2761, -13783, -11292, 2555, 20757, 32767, 
    32767, 32767, 9816, 10302, 25505, -139, -4473, 22643, 17301, 2432, 13962, -1384, 
    21683, -2306, 13044, 14607, 18583, 24619, 10753, -2469, -3116, 2775, 32767, 19830, 
    26856, 32767, -90, 1578, 21230, 795, 3371, 26219, 32767, 935, 32767, 5356, 
    32767, 32767, 29819, 32767, 1615, 32151, 17089, 32767, 121, 24879, -8142, 15110, 
    25803, 24728, -2927, -7332, 15751, 16, 32767, -3480, -4993, 2456, 16463, 32767, 
    32767, 1023, 32767, -2640, 11115, -8586, 25869, 322, 32667, 27261, -17856, 3818, 
    32767, 32767, 32767, -24785, -3650, -32549, 19334, 32767, 22613, 28675, -32767, -69, 
    -4406, 3473, -3991, 18872, -15392, -14294, 32767, 694, 32457, -10523, -11098, -7173, 
    -7476, 31126, 32767, 634, 1163, -662, 32767, -464, 
};

const int16_t focal_mid_0_conv_alphas_q15[128] TNN_DATA = {
    32767, 19755, 32767, 32767, 7513, 32767, 32767, 11341, 32767, 10775, 32767, 9723, 
    15689, 32767, 30238, 32767, 32767, 32767, 7996, 1383, 22661, 12442, 12325, 12698, 
    32767, 9699, 11405, 32767, 32767, 6691, 19852, 32767, 32767, 32767, 1034, 24499, 
    32767, 32767, 14013, 23639, 3654, 10481, 15462, 14489, 22571, 2746, 32767, 32013, 
    5339, 32767, 5045, 11408, 13627, 32767, 32767, 32767, 7804, 32767, 32767, 14321, 
    1741, 27957, 32767, 14773, 12997, 25839, 32767, 813, 32767, 32767, 8571, 7844, 
    12013, 32767, 7998, 32767, 32767, 32767, 32767, 32767, 32164, 32767, 19999, 32767, 
    15816, 2419, 10417, 12481, 6805, 32392, 32767, 32767, 32767, 20048, 32767, 32767, 
    32767, 32767, 27607, 6726, 22494, 7349, 32767, 32187, 13468, 32767, 19889, 32767, 
    30963, 3741, 32767, 22379, 9889, 32767, 32767, 32767, 9765, 10143, 2648, 32767, 
    18015, 32767, 32767, 15229, 146, 8912, 12544, 7961, 
};

const int8_t focal_mid_0_conv_sub_ln_weight_q7[128] TNN_DATA = {
    87, 127, 8, -30, 127, 37, 50, 45, 127, 120, 127, 127, 126, 127, 127, 60, 
    127, 12, 127, 1, 127, 127, 127, 127, 74, 127, 127, 54, 127, 127, 127, 56, 
    127, 15, -56, 66, 127, 24, 110, -17, 127, 121, 127, 85, 88, 127, 127, 97, 
    127, 127, 123, 127, 101, 30, 127, 127, 127, 72, 127, 79, 55, 127, 24, 127, 
    113, 127, 127, 33, 75, 127, 127, 127, 127, 125, 127, 88, 2, 5, 127, -3, 
    127, 73, 51, 127, 103, 127, 127, 127, 127, 127, 127, 127, -7, 127, 26, 54, 
    127, 81, 38, 127, 127, 105, 127, 127, 127, 127, 93, 127, 127, 44, 127, 116, 
    127, -58, 127, 127, 127, 127, 29, 54, 127, 127, 78, 125, 127, 127, 127, 127, 
    
};

const int16_t focal_mid_0_conv_sub_ln_bias_q15[128] TNN_DATA = {
    -7954, 20756, 5532, 13777, -20783, 544, -18838, -16850, 32767, 10886, 1495, -10427, 
    551, 18827, 15216, 16926, 32767, -23294, -18038, 8230, -1869, -13126, -8862, 3397, 
    24386, 9311, 7840, 10750, 15774, -1731, 14764, 24226, 8007, 19922, -12872, -2545, 
    -10896, 10277, 542, -10527, 15611, -605, -25695, 7158, -7858, -3266, -446, -7164, 
    12975, -8083, 32767, 8435, 9112, -9304, -15266, -6638, -4802, -12840, -16702, -10660, 
    -6295, 4597, -318, 786, -5353, -7884, -32767, -16658, 4735, 4391, 8489, 14044, 
    -14028, -4528, 12176, -6284, -16601, 11299, 1624, -16856, 11492, -32767, 20680, 9111, 
    3671, 24687, 12986, 9503, -12693, 20988, -1551, 878, 366, 7754, -8422, -19456, 
    4808, -21908, -3844, 10573, 9157, 18400, -11119, 8921, -1128, -7928, -6183, -11592, 
    -8580, -13833, -1510, -8929, 9054, 5070, -32767, -4735, -4581, -6322, -5228, 5179, 
    17729, 8563, -18267, 6054, 8532, 4039, 13142, 7723, 
};

const int8_t focal_mid_0_norm_weight_q7[128] TNN_DATA = {
    127, 127, 127, 127, 127, 127, 127, 127, 2, 127, 64, 127, 127, 127, 127, 127, 
    -1, 127, 127, 127, 3, 127, 127, 127, 3, 1, 127, 2, 4, 127, 6, 114, 
    27, 127, 3, 0, 2, 127, 127, 6, 127, 127, 127, 127, 2, 127, 0, 0, 
    127, 2, 127, 127, 127, 2, 1, 127, 127, 127, 5, 1, 127, 69, 127, 127, 
    1, 17, 3, 127, 2, 1, 127, 127, 69, 11, 127, -3, 1, 127, -1, -1, 
    3, 51, 127, 1, 127, 127, 127, 119, 127, 19, 75, 1, -1, 127, 127, -1, 
    3, 12, 127, 127, 127, 127, 1, 9, 127, 0, 127, 0, 4, -2, 2, 127, 
    127, 2, 3, -1, 2, 127, 127, -2, 2, 0, 114, 127, 1, 127, 127, 127, 
    
};

const int16_t focal_mid_0_norm_bias_q15[128] TNN_DATA = {
    32767, -32767, -32767, -32767, 27564, 27152, 32767, 32767, -32767, -11996, -32767, 32767, 
    7081, -32767, -5999, -31529, -13326, 27340, 32767, -32767, -20914, 16923, 4337, 29525, 
    -15189, -5605, -4077, -18375, -32767, 13239, -32767, 13383, -32767, -32767, -22993, -23083, 
    -17764, -32767, 4131, -32767, -23665, 8338, -5153, -32767, -21214, -19828, -20249, -22591, 
    -15440, -26424, -32767, -31636, 920, -23918, -15592, -32767, -5858, -14838, -32767, -27952, 
    -1224, -17540, -12227, 16306, -23081, 1867, -25097, -6378, -21170, -10204, -9470, -32767, 
    -386, -32767, -32767, -21282, -15512, -8643, -7733, -26534, -31755, -32767, -32767, -14160, 
    -12389, -32767, -25258, -357, 32767, -32767, -32767, -7606, -31775, -3693, -300, -18794, 
    -32767, -32767, -4974, -32767, -24800, -32767, -10638, -32767, 698, -13258, -32767, -30748, 
    -32425, -22598, -32767, -32767, 1821, -15868, -32767, -15032, -18880, 32767, 22841, -23177, 
    -19768, -15444, -16108, -8417, -22015, 14506, -14236, -32767, 
};

const int16_t focal_last_conv_alphas_q15[128] TNN_DATA = {
    16383, 32767, 24782, 32767, 19872, 9961, 32767, 12634, 9462, 32767, 32767, 7241, 
    8061, 25220, 32767, 10267, 27428, 32767, 8850, 32767, 9882, 18090, 29151, 32767, 
    15474, 10772, 24946, 8176, 10990, 32767, 20210, 12198, 32767, 6530, 16069, 13868, 
    5434, 32767, 32767, 13356, 32767, 32767, 32767, 11096, 7805, 32767, 12236, 9391, 
    32767, 24867, 32767, 25443, 32767, 22223, 32767, 32767, 32767, 32767, 5851, 32767, 
    10607, 12808, 32767, 32767, 32767, 32767, 10694, 11246, 20875, 10640, 8295, 4689, 
    10221, 10783, 14296, 14037, 32767, 18415, 3647, 25834, 19778, 32767, 32767, 17974, 
    32767, 32767, 32767, 32767, 32767, 32767, 32767, 32767, 15753, 8843, 17089, 32767, 
    6493, 32767, 32767, 32767, 16831, 17311, 31433, 2669, 32054, 2346, 32767, 28680, 
    32767, 32767, 27290, 20494, 7679, 32767, 16617, 9307, 32767, 13086, 32767, 28611, 
    15863, 18328, 11209, 25340, 12323, 6002, 8169, 8366, 
};

const int8_t focal_last_conv_sub_ln_weight_q7[128] TNN_DATA = {
    127, 127, 98, 127, 124, 127, 106, 127, 33, 63, 56, 127, 127, 116, 73, 127, 
    127, 127, 127, 127, 127, 113, 127, 47, 127, 127, 127, 127, 127, 45, 127, 127, 
    127, 127, 25, 127, 127, 64, 58, 127, 22, 75, 127, 127, 127, 38, 127, 127, 
    14, 127, 13, 127, 127, 127, 127, 127, 45, 127, 127, 127, 127, 127, 127, 127, 
    127, 127, 127, 112, 127, 127, 127, 127, 127, 127, 127, 127, 61, 127, 127, 127, 
    127, 127, 127, 127, 127, 27, 87, 45, 127, 59, 127, 23, 127, 127, 127, 62, 
    127, 127, 115, 127, 112, 127, 127, 127, 75, 127, 127, 127, 41, 127, 127, 127, 
    127, 127, 127, 127, 127, 127, 7, 127, 127, 127, 127, 120, 127, 108, 117, 127, 
    
};

const int16_t focal_last_conv_sub_ln_bias_q15[128] TNN_DATA = {
    -11030, 32767, -11183, 19531, -13608, 9073, 32767, -4222, 3021, 32767, -2951, 13166, 
    3438, -9352, 32767, 14224, 11237, 25838, -4318, 32767, 1977, -1533, -49, -23980, 
    -3449, -6184, 12711, -8961, 1442, -11516, 3412, -4642, 32767, -5479, 15465, -5603, 
    -6035, 18222, 18275, -2859, 10798, 17955, -14474, -211, -1032, 6051, -3313, -4011, 
    5591, -12854, 13560, 3157, 9105, -3363, -3292, 12897, -21402, 2686, -6372, -1183, 
    -9846, -3124, -8017, 5501, 32767, 15920, 6836, 7550, 1379, 4484, -11171, -7837, 
    5469, 683, 6263, -12334, -306, -32106, 2029, 5308, 2372, -32767, 25388, 6074, 
    -13760, 25541, -7716, 6656, -6884, 8999, 32767, 5729, 18137, 20335, 6805, -32767, 
    -16688, 9229, -7298, 4777, 4665, -1220, 3978, -15227, -7822, 9008, -32767, 8088, 
    -7738, -28886, 1466, 11377, -9199, -32767, 24101, -8112, 4070, 4931, 28113, 32767, 
    8942, 9628, -844, -28684, 6013, -30910, -204, 1024, 
};

const int8_t focal_last_norm_weight_q7[128] TNN_DATA = {
    127, 36, 127, 69, 127, 9, 58, 3, 127, 8, -127, 9, 30, 127, 3, 2, 
    1, 4, 127, 6, 127, 127, 19, 127, 127, 127, 127, 127, 127, 127, 6, 127, 
    20, 127, 0, 127, 127, 8, 127, 127, 127, 4, 127, 127, 127, 127, 127, 127, 
    127, 127, 127, 127, 6, 127, 5, 3, 127, 2, 127, 5, 127, 127, 1, 3, 
    9, 3, 127, 127, 3, 127, 127, 127, 127, -1, 4, 127, 127, 127, 127, 22, 
    127, 70, 5, 127, 127, 127, 127, 127, 127, 127, 1, 127, 127, 127, 127, 127, 
    8, 6, 127, 10, 127, 127, -1, 5, 1, 127, 5, 10, 2, 0, 2, 4, 
    127, 8, 127, 127, 11, 127, 127, 13, 127, 127, 127, 127, 127, 127, 127, 127, 
    
};

const int16_t focal_last_norm_bias_q15[128] TNN_DATA = {
    32767, -32767, 32767, 32767, 32767, -26426, -32767, -20021, -32767, -30582, 32767, -32767, 
    -32767, 32767, -11346, -16715, -14639, -32767, 32767, -32767, 32767, 32767, -32767, 32767, 
    32767, 32767, -32767, 32767, 32767, 32767, -32767, 32767, -32767, 32767, -168, 32767, 
    32767, -32767, 7324, 32767, 32767, -23968, -32767, 32767, 32767, -32767, 32767, 32767, 
    32767, 32767, -25352, 32767, -32767, 32767, -26152, -18586, 32767, -31861, 32767, -22496, 
    32767, 15305, -15911, -29838, -32767, -31955, 20953, -32767, -27527, 32767, 32767, 32767, 
    23511, -26680, -23462, -32767, -32767, -32767, -32767, -32767, 32767, -32767, -32767, 32767, 
    -32767, 32767, 32767, 32767, -32767, 32767, -7248, 32767, 32767, 32767, 32767, 32767, 
    -32767, -30896, -32767, -32767, 30637, 32767, -22282, -23406, -20189, -26598, -32360, -32767, 
    -24650, -20224, -26306, -24730, 32767, -32631, 32767, 32767, -32767, 32767, -32767, -32767, 
    32767, 32767, 32767, 26921, 32767, -11490, 32767, 32767, 
};

const int16_t focal_last_shortcut_alphas_q15[128] TNN_DATA = {
    4399, 3062, 3651, 3220, 3215, 3962, 5628, 4222, 32767, 4762, 1926, 4170, 
    3257, 3405, 4415, 5538, 3631, 5479, 3235, 3737, 3874, 3600, 3735, 3942, 
    942, 3622, 3851, 4001, 3659, 2869, 5629, 4234, 3891, 1902, 4783, 3703, 
    32767, 6738, 1086, 2547, 32767, 4213, 4321, 2490, 4286, 3682, 32767, 4390, 
    5332, 32767, 7043, 9335, 4465, 32767, 4281, 4005, 3835, 3159, 4620, 6372, 
    3068, 32767, 5442, 3462, 4002, 5454, 2710, 5044, 7699, 5888, 3237, 3490, 
    6232, 3443, 4087, 4758, 32767, 5125, 3659, 5031, 6805, 5175, 2950, 4456, 
    3753, 4821, 4733, 4416, 32767, 3229, 4140, 13328, 5639, 2944, 3583, 3766, 
    3901, 3129, 2879, 3661, 4353, 3283, 3214, 5004, 3960, 5975, 2593, 6718, 
    4625, 2416, 4919, 2691, 4240, 3195, 3894, 3489, 6188, 4443, 4291, 3796, 
    3970, 2782, 2956, 3238, 3180, 3125, 4031, 4414, 
};

const int8_t focal_last_shortcut_sub_ln_weight_q7[128] TNN_DATA = {
    127, 127, 127, 127, 127, 127, 127, 127, -103, 127, 127, 127, 127, 127, 127, 127, 
    127, 127, 127, 127, 127, 127, 127, 127, 127, 127, 127, 127, 127, 127, 127, 127, 
    127, 127, 127, 127, 71, 127, 127, 127, 2, 127, 127, 127, 127, 127, -1, 127, 
    127, 13, 127, 127, 127, 23, 127, 127, 127, 127, 127, 127, 127, 127, 127, 127, 
    127, 127, 127, 127, 127, 127, 127, 127, 127, 127, 127, 127, 10, 127, 127, 127, 
    127, 127, 127, 127, 127, 127, 127, 127, 0, 127, 127, 127, 127, 127, 127, 127, 
    127, 127, 127, 127, 127, 127, 127, 127, 127, 127, 127, 127, 127, 127, 127, 127, 
    127, 127, 127, 127, 127, 127, 127, 127, 127, 127, 127, 127, 127, 127, 127, 127, 
    
};

const int16_t focal_last_shortcut_sub_ln_bias_q15[128] TNN_DATA = {
    -32767, -24102, -32767, -31681, -32767, 8023, -3446, -12113, -32767, 973, -32767, -28383, 
    1808, -31757, 29543, -28457, 17799, 3739, -32767, 32767, -32767, -32767, -8465, -32767, 
    -32767, -32767, -17186, -32767, -32767, -32767, -29763, -32767, -24564, -32767, -3059, -32767, 
    -32767, 14760, 533, -32767, -32767, -21452, -15521, -32767, -32767, -32767, -32767, -32767, 
    -32767, -7430, -32767, -32767, -19877, -32767, -18941, 23433, -32767, 2195, -32767, -32767, 
    -32767, -32767, 4168, 32767, -30820, -12341, -32767, -32767, -32767, -32767, -32767, -32767, 
    -32767, -20035, 8654, 19496, -32767, 2517, -32767, 26066, -32767, -24288, 17944, -32767, 
    2613, -32767, -27585, -18810, -2668, -234, 3421, -20375, -32767, -32767, -32767, -32767, 
    -1526, 5197, 12864, -15855, -32767, -32767, 15721, -32767, -14244, -32767, -5791, -7434, 
    -3029, 15202, -7455, 5748, -32767, -11132, -32767, -29477, -1312, -32767, -32767, -29186, 
    -32767, -32767, -32767, 3617, -32767, -18212, -32767, -32767, 
};

const int16_t dw_gate_alphas_q15[128] TNN_DATA = {
    32767, 32767, 32767, 32767, 32767, 32767, 28688, 2228, 31442, 4539, 32767, 14392, 
    32767, 32767, 32767, 32767, 32767, 13161, 32767, 16902, 32767, 26434, 15135, 9927, 
    29345, 32767, 32767, 32767, 32767, 5998, 32767, 22849, 32767, 25345, 32767, 2170, 
    8772, 4560, 32767, 32767, 32767, 32767, 10347, 32033, 32767, 32767, 11780, 30646, 
    6677, 32767, 32767, 32767, 32767, 32767, 32767, 32767, 32767, 3259, 32767, 32767, 
    32767, 32767, 32767, 15432, 7656, 32767, 32767, 13508, 19419, 26542, 25752, 2086, 
    30206, 32767, 32767, 14558, 25773, 4807, 32767, 32767, 6179, 32767, 32767, 3567, 
    32767, 32767, 32767, 8539, 14562, 32767, 12884, 10842, 23656, 32767, 17796, 32767, 
    16202, 13608, 32767, 3571, 32767, 32767, 10252, 32767, 8179, 25913, 32767, 29904, 
    18685, 32705, 1150, 9286, 32767, 32767, 32767, 32767, 32767, 32767, 32767, 32767, 
    4724, 24869, 32767, 32767, 10400, 32767, 32767, 32767, 
};

const int8_t dw_gate_sub_ln_weight_q7[128] TNN_DATA = {
    36, 23, 43, 127, 127, 24, 127, 127, 127, 127, 127, 127, 114, 127, 127, 8, 
    5, -58, 107, 127, 25, 127, 127, 127, 127, 33, 18, 127, 7, 127, 76, 127, 
    30, 127, 26, 127, 127, 127, 127, 41, 127, 43, 127, 108, 7, 33, 127, 127, 
    127, 18, 118, 23, 20, 127, 127, 31, 32, 127, 66, 6, 62, 82, 127, 127, 
    127, 77, 83, 127, 127, 127, 127, 127, 127, 48, 14, 127, 127, 127, 78, 17, 
    127, 65, 15, 127, 127, 127, 127, 127, 127, 34, 127, 127, 127, 74, 127, 127, 
    127, 127, 34, 127, 127, 114, 127, 92, 103, 127, 127, 18, 127, 111, 127, 127, 
    12, 37, 8, 127, 28, 37, 127, 39, 127, 127, -3, 127, 127, 127, 127, 127, 
    
};

const int16_t dw_gate_sub_ln_bias_q15[128] TNN_DATA = {
    15980, -3744, -499, -7408, -3360, -2833, 15898, -1609, -21204, 10970, 2552, -577, 
    -954, 5484, 10022, -621, 2491, -32767, 12637, 8499, -4420, -1786, -5941, -6063, 
    -2746, 5415, 8010, -1691, 1378, -2339, 2879, -5975, -1019, -2229, 2439, -2662, 
    -5032, -1730, -29999, -10119, 13638, 5302, 893, -10622, -20647, 12980, 2934, 4162, 
    -16354, -3922, -24555, -6027, -1167, -6597, 4668, 6163, 1595, -11823, 13506, -6798, 
    12311, 2865, -2828, 4705, 15481, 3305, 12890, -1068, 12131, 1162, 1482, -49, 
    30487, -1882, 7435, -21789, -3217, -3592, -3889, -2049, -6992, 575, 3928, -5356, 
    638, 3655, -5453, -1673, 4371, -27544, -1808, -2418, 9645, 3183, -2966, 18282, 
    -19956, -59, -8423, -344, 3685, 21454, 2825, 3103, -4372, 32767, 3968, -20567, 
    -32767, -32398, -15423, -3815, -836, 2562, 3471, -323, -3085, -986, -1868, 2854, 
    -8358, -13472, -7677, -1177, 757, -285, -9071, -17044, 
};

const int16_t bneck_v_bias_q15[32] TNN_DATA = {
    -5179, -3049, 32767, 22569, -9622, -6105, 2438, 8323, -3500, -32767, 16005, -23963, 
    -10699, -1248, 14244, 3612, -22392, 4546, 4625, 21810, -14366, -25714, 17448, 21232, 
    -8664, 13923, 13044, -860, -25002, 12048, 5294, 26218, 
};

const int16_t bneck_g_alphas_q15[32] TNN_DATA = {
    3734, 32767, 32767, 32767, 3697, 2549, 32767, 1968, 32767, 3580, 32767, 2700, 
    10523, 32767, 32767, 1656, 2832, 1881, 32767, 1661, 32767, 32767, 32767, 3649, 
    32767, 32767, 32767, 2241, 32767, 10015, 32767, 2577, 
};

const int16_t bneck_g_bias_q15[32] TNN_DATA = {
    -32767, -32767, -32767, -32767, -32767, -32767, -32767, -32767, -32767, -32767, -32767, -32767, 
    -32767, -32767, -32767, -32767, -32767, -32767, -32767, -32767, -32767, -32767, -32767, -32767, 
    -32767, -32767, -32767, -32767, -32767, -32767, -32767, -32767, 
};

const int8_t bneck_g_sub_ln_weight_q7[32] TNN_DATA = {
    104, 127, 127, 127, 127, 127, 127, 127, 127, 127, 79, 127, 52, 127, 6, 127, 
    111, 127, 84, 127, 127, 121, 127, 103, 127, 127, 127, 127, 127, 36, 8, 127, 
    
};

const int16_t bneck_g_sub_ln_bias_q15[32] TNN_DATA = {
    19362, 11216, 16770, 23286, 32767, 31236, 28151, 32767, -2645, 16624, 8918, 17085, 
    7268, 17912, 29606, 12950, 9255, 14490, 16706, 23135, 219, -9769, 25363, 15829, 
    15546, 935, 13299, 18053, 4729, 1217, 9524, 8201, 
};

const int16_t expand1_conv_alphas_q15[128] TNN_DATA = {
    32767, 32767, 9057, 32767, 32767, 32767, 32767, 32767, 15602, 32767, 11686, 32767, 
    31746, 30380, 24962, 27383, 4986, 32767, 32767, 32767, 32767, 32767, 16093, 23845, 
    10598, 32767, 32767, 19418, 5376, 32767, 32767, 32767, 32767, 16300, 32767, 7376, 
    31491, 32767, 32767, 20782, 32767, 7188, 32767, 7277, 32767, 32767, 19877, 32767, 
    32767, 32767, 32767, 32767, 32767, 693, 32767, 32767, 32767, 12630, 32767, 32767, 
    32767, 32767, 16763, 32767, 32767, 32767, 32767, 2736, 32767, 32767, 32767, 32767, 
    32767, 32767, 32767, 22444, 32767, 4412, 32767, 32767, 25914, 32767, 10858, 32767, 
    32767, 9814, 32767, 32767, 19608, 12012, 22129, 32767, 32767, 18392, 20237, 14326, 
    32767, 29039, 7004, 16656, 32767, 32767, 32767, 32767, 1075, 32767, 32767, 5274, 
    32636, 30404, 17440, 31733, 32767, 17773, 32767, 32767, 32767, 32767, 27755, 32767, 
    32767, 20632, 2240, 9603, 32767, 1030, 32767, 31640, 
};

const int8_t expand1_conv_sub_ln_weight_q7[128] TNN_DATA = {
    127, 127, -23, 28, 127, 8, 127, 29, 127, 127, 8, -18, 127, 112, -34, 127, 
    127, 127, 127, 30, 71, -17, 22, 127, -3, 3, 127, 127, -127, 8, 127, 2, 
    127, 127, 127, 112, 21, 127, 127, 127, -50, -127, 43, 73, 1, 77, 66, 127, 
    127, 127, 127, 127, -39, 127, 127, 127, -127, 61, -20, 127, 127, 29, -3, -127, 
    127, -108, 11, 127, 13, 127, 127, -80, 13, 41, 45, 95, 1, 30, 127, 22, 
    127, 127, 127, -127, 127, 127, 127, 127, 127, 106, 116, 127, 127, 127, 127, 123, 
    -126, 127, 127, 1, 11, 127, 127, -127, 127, -9, 80, 67, 51, 127, 127, 127, 
    127, 127, 81, 33, -20, 83, 127, 1, 3, 6, -107, 21, -18, 49, -30, -33, 
    
};

const int16_t expand1_conv_sub_ln_bias_q15[128] TNN_DATA = {
    -24237, -17626, 934, -2218, 1023, 23099, 32368, 422, -19486, 23145, 7854, 542, 
    -32767, -16519, 1456, -614, -15889, -838, -16082, -16637, -18009, 2221, 1119, 11520, 
    -1661, -311, -9235, -32767, -577, 32767, 4118, 90, 6971, -24371, -1952, 1558, 
    -17460, 7063, -32767, -26820, -6089, -12608, 3950, 28473, -9266, 2970, -7602, 32767, 
    17186, -32767, 4624, -11799, -13608, 15805, -5445, 19790, 5456, -10393, -15993, 32767, 
    -20630, -9059, -11323, -15842, 6369, -15786, 32767, -12592, 14808, -1318, -23466, -20413, 
    -14104, -3542, -7646, -9204, -20823, 32767, -4776, -13824, 6373, -6990, -12225, -10366, 
    1209, -14176, -3696, 4198, -8062, -12488, -16543, -10665, 32767, -14373, -2820, -15340, 
    -1579, -6846, 4632, -107, -9407, -32767, -32767, -7577, -1929, 1080, -32767, 6023, 
    1456, -32767, -32767, -32767, -32767, 5275, -2972, 2736, 1231, -32767, -30347, 7893, 
    2615, 1049, 5249, -4388, 2148, 21149, -4120, 1094, 
};

const int8_t expand1_norm_weight_q7[128] TNN_DATA = {
    127, 2, 14, 5, 1, 60, 0, 16, 21, 3, 127, 13, 3, 7, 16, 0, 
    93, 3, 4, 127, -1, 40, 13, 4, 7, 1, 1, 0, 4, 82, -1, 32, 
    8, 2, 3, 4, 127, 4, 0, 0, 11, 50, 127, 127, 22, 8, 5, 69, 
    127, 25, 4, 1, 13, 127, 5, 19, 5, 14, 17, 3, 1, 47, 6, 1, 
    5, 3, 83, 127, 48, 13, 13, 9, 5, 10, 20, 53, 127, 127, 3, 0, 
    127, -2, 4, 8, 5, 2, 1, 6, 9, 7, 7, 6, -1, 54, 7, 2, 
    16, 0, 14, 10, 5, 3, 7, 2, 64, -1, 8, 122, 14, 1, 27, 1, 
    1, 21, -2, 4, 16, 6, -1, 127, 75, 7, 5, 105, 18, 127, 3, 6, 
    
};

const int16_t expand1_norm_bias_q15[128] TNN_DATA = {
    31250, -10166, -32767, -26763, -7913, 32767, -5813, -8246, -29469, -16019, -7117, -32767, 
    -7034, -26069, -32767, -28355, 32767, -10668, -15122, 28015, -22626, -32767, -32767, -22942, 
    -32767, -980, -8485, -201, -19206, -28839, -6890, -19570, -24076, -16100, -22506, -24335, 
    31879, -17823, -6014, -21446, -32767, -12456, 9007, -26855, 21225, -20510, -26993, -6156, 
    1695, -10501, -25666, -15980, -32767, -4926, -29210, -32767, -29825, -32767, -9643, -18813, 
    -7855, -8305, -32764, -9731, -32767, -19883, -2694, -27135, -6508, -21456, -31059, -31240, 
    -17139, -32767, 6029, 13534, 22367, -15461, -15528, -19455, -32767, -15622, -25761, -32144, 
    -22570, -20657, -11477, -32767, -32767, -32767, -29408, -20160, -6330, -11691, -25309, -16444, 
    -15974, -16743, -14737, -27456, -29279, -18177, -26253, -12300, 2825, -9403, -32767, -17200, 
    -32767, -19440, -32767, -11048, -8230, -11411, -15748, -7789, -32767, -29056, -7905, -804, 
    -28293, -29266, -23111, 16311, -32767, -32767, -21273, -25624, 
};

const int16_t expand1_shortcut_alphas_q15[128] TNN_DATA = {
    13178, 4269, 6549, 6342, 12951, 32767, 32767, 12011, 13974, 13734, 15435, 32767, 
    12462, 6946, 7439, 17293, 17588, 22940, 14879, 32767, 9144, 8636, 10045, 6132, 
    15368, 7763, 10013, 26532, 8395, 9127, 11850, 17452, 32767, 11936, 7681, 32767, 
    14212, 18188, 32767, 9723, 9861, 11433, 32767, 20575, 32767, 11704, 6404, 13608, 
    32767, 32767, 10366, 12629, 23358, 13258, 6437, 5605, 32767, 8425, 9334, 10294, 
    13471, 11654, 16420, 32767, 17852, 21445, 20954, 5275, 32767, 32767, 13967, 9175, 
    13230, 9804, 8800, 32767, 4023, 8878, 32767, 32767, 32767, 32767, 5848, 8732, 
    8440, 5115, 16840, 9101, 8560, 16317, 8613, 7995, 17540, 32767, 7836, 6365, 
    7515, 14889, 9225, 6904, 4926, 20799, 10148, 6342, 9874, 12170, 6198, 6166, 
    4813, 14961, 8920, 27521, 12778, 11031, 5366, 32767, 13969, 32767, 8813, 32767, 
    32767, 6619, 4642, 7148, 6815, 23790, 6174, 32767, 
};

const int8_t expand1_shortcut_sub_ln_weight_q7[128] TNN_DATA = {
    89, 127, 127, 127, 127, 2, 28, 127, 127, 127, 59, 31, 127, 127, 127, 127, 
    127, 127, 127, 1, 127, 127, 127, 127, 91, -106, 127, 127, 127, 33, 108, 127, 
    6, 126, 127, 44, 127, 127, 13, 127, 127, 127, 11, 38, 3, 64, 127, 84, 
    6, 40, 127, 99, 127, 127, 127, 127, 23, 127, 127, 127, 127, 127, 127, 34, 
    127, 127, 86, 91, 13, 60, 127, 127, 127, 115, 127, 1, 127, 59, 18, 37, 
    88, 34, 127, 127, 127, 127, 127, 127, 127, 123, 127, 127, 127, 13, 127, 127, 
    127, 127, 127, 127, 127, 127, 102, 49, 127, 127, 127, 127, 127, 127, 127, 127, 
    104, 127, 127, 3, 119, 28, 127, -7, 127, 127, 127, 110, 127, 5, 127, 17, 
    
};

const int16_t expand1_shortcut_sub_ln_bias_q15[128] TNN_DATA = {
    -1529, 1300, 317, 3901, 5257, -32767, 32767, -5140, -2761, 9584, -15182, 305, 
    1757, -4230, -1769, -1576, 32767, 803, -11608, -13394, -885, -2592, 2621, -2498, 
    1702, -7999, -4577, 4530, 1258, -2090, 1406, -6786, 4954, 3422, 3753, -4029, 
    -12166, -484, -3671, -2766, -237, -209, -27687, -5809, -20150, -1387, -1287, -19489, 
    -29377, -22685, 127, -649, 4582, -14234, 16, -2731, -4776, 326, 3413, 10033, 
    -769, -2787, -5873, 13317, -6638, 1068, -21370, -4510, -18402, -4949, -2208, 3048, 
    -1304, -2372, -7344, -6319, -6714, -31158, 2045, 1597, -162, 5484, -2202, 2309, 
    1758, 1902, -14809, -1369, -3795, -393, -6127, 286, 8196, 14341, -4512, -1359, 
    -7686, 1418, -640, 87, 2851, -436, -4630, -6322, -13612, 7871, 4678, 1718, 
    724, -12430, -1152, 11943, 2038, 260, -2015, 6547, -1210, 26297, 1787, -21425, 
    135, -3562, 2215, -10102, -1719, -2445, -5080, -12396, 
};

const int16_t expand2_conv_alphas_q15[128] TNN_DATA = {
    1855, 295, 32767, 5638, 32767, 15801, 32767, 32767, 738, 32767, 4114, 635, 
    32767, 6237, 3261, 1372, 32767, 1287, 32767, 7131, 2445, 2199, 2305, 3208, 
    4587, 4775, 1044, 717, 2289, 7043, 756, 32767, 32767, 2590, 1584, 137, 
    32767, 804, 773, 1878, 92, 1185, 2511, 2425, 23365, 9597, 3186, 2615, 
    3142, 222, 2806, 2379, 1496, 1445, 2968, 2037, 537, 3536, 32767, 32767, 
    32767, 2030, 2024, 372, 1127, 1618, 1708, 4397, 32767, 35, 32767, 5036, 
    156, 3567, 118, 334, 7052, 1761, 668, 264, 687, 526, 1865, 3070, 
    32767, 5040, 32767, 654, 4645, 3598, 3204, 2578, 2449, 32767, 5696, 4567, 
    32767, 32767, 32767, 1187, 4956, 721, 3574, 6563, 1107, 32767, 4513, 3277, 
    8389, 32767, 648, 1070, 2071, 211, 3474, 4594, 2096, 1610, 799, 3114, 
    32767, 4189, 5636, 2019, 3764, 17530, 32767, 1157, 
};

const int8_t expand2_norm_weight_q7[128] TNN_DATA = {
    81, 127, 87, 61, 127, 41, 127, 114, 127, 127, 127, 64, 98, 127, 17, 82, 
    82, 40, 58, 54, 56, 48, 127, 127, 22, 79, 127, 127, 127, 44, 127, 127, 
    127, 127, 127, 127, 57, 69, 97, 127, 96, 127, 52, 84, 22, 80, 41, 127, 
    58, 53, 127, 127, 111, 102, 127, 65, 127, 127, 127, 127, 71, 104, 50, 127, 
    127, 48, 91, 110, 71, 123, 100, 127, 127, 127, 53, 127, 52, 127, 117, 127, 
    127, 11, 84, 71, 98, 127, 127, 9, 127, 127, 127, 127, 127, 69, 127, 98, 
    127, 127, 127, 18, 125, 53, 127, 19, 120, 55, 127, 36, 127, 89, 127, 127, 
    61, 127, 116, 33, 103, 24, 127, 19, 127, 127, 127, 127, 127, 103, 95, 127, 
    
};

const int16_t expand2_norm_bias_q15[128] TNN_DATA = {
    -2591, -11970, -19037, -431, -13951, -32767, -31970, -32767, -10038, 32767, -7420, 1085, 
    -12044, 13363, -32767, 13143, -2330, 4862, -318, -4800, -9030, 2736, -15244, -944, 
    -32767, -17653, -32767, -32767, -18090, 4604, -11243, -32767, -32767, -32767, -4033, -12092, 
    4635, 9506, 7050, -25523, 1528, 5093, -5443, -4560, 4044, -3400, -32767, -32767, 
    -804, 1030, -17826, -29014, -32767, -804, 25770, -1084, 3357, -32767, -32767, -8454, 
    2081, 2398, -4910, -32767, -14382, -8426, -2406, -5859, -4982, 814, -739, -12270, 
    -29148, -27092, -1718, -13386, 976, -32767, -2867, -20974, -27071, -32767, -1061, -1317, 
    -15813, 5585, -3033, -32767, -32767, 234, -32767, -20390, -4839, -765, 2736, -9847, 
    -15490, -32767, -15771, -32767, -9716, 4460, -3239, -32767, -1048, -1565, 840, -1036, 
    -13368, -3609, -13064, -30405, -501, -32767, 11076, 1504, -9010, -32767, -24328, -5307, 
    3830, -32767, -705, -2623, -32767, 9475, -8583, 2084, 
};

const int16_t expand2_shortcut_alphas_q15[128] TNN_DATA = {
    1150, 8050, 5695, 3610, 2128, 32767, 773, 2493, 32767, 1437, 1447, 32767, 
    1145, 3032, 4912, 2505, 952, 32767, 2335, 32767, 3572, 5983, 4021, 7522, 
    32767, 2664, 5323, 32767, 5218, 2844, 4179, 2089, 721, 5619, 4213, 32767, 
    627, 32767, 32767, 5383, 4843, 3871, 1523, 1028, 32767, 32767, 6427, 518, 
    628, 32767, 3105, 4862, 32767, 3446, 4954, 7886, 32767, 5565, 2055, 1253, 
    1618, 2854, 32767, 32767, 32767, 32767, 1117, 754, 697, 32767, 550, 5558, 
    4989, 3968, 3316, 2449, 32767, 32767, 32767, 32767, 32767, 32767, 7196, 4490, 
    1982, 3003, 1952, 5146, 2968, 32767, 3423, 3879, 32767, 32767, 6067, 5326, 
    2661, 1291, 2096, 4487, 6031, 32767, 5161, 1126, 4072, 3304, 5721, 5595, 
    32767, 419, 5798, 32767, 2192, 4629, 4968, 32767, 4621, 32767, 3950, 2093, 
    32767, 4410, 4433, 3246, 5146, 4384, 6981, 32767, 
};

const int16_t expand3_conv_alphas_q15[128] TNN_DATA = {
    9824, 8259, 9590, 12663, 4515, 12321, 32767, 12471, 3957, 32767, 5617, 8731, 
    9764, 1285, 6866, 8120, 11501, 17289, 11454, 12115, 10823, 12400, 32767, 3447, 
    16151, 9465, 32767, 15484, 4174, 11606, 5830, 32767, 2064, 1055, 5664, 32767, 
    14063, 5833, 10095, 32767, 8256, 9760, 6962, 9004, 14876, 11291, 12175, 7756, 
    8683, 10974, 178, 32767, 12453, 32767, 32767, 9287, 5483, 8551, 8701, 32767, 
    7093, 7414, 32767, 5069, 15828, 32767, 8456, 8490, 12979, 7845, 8209, 14813, 
    6134, 6458, 13791, 8178, 9574, 15242, 14539, 9803, 11812, 14683, 12868, 18946, 
    32767, 6763, 4544, 16422, 32767, 9444, 5705, 10121, 7705, 15150, 32767, 13093, 
    10880, 8052, 8484, 11558, 4767, 10792, 5383, 32767, 5870, 5776, 4825, 12703, 
    8466, 8549, 5163, 32767, 32767, 547, 5114, 9571, 6841, 14379, 4890, 32767, 
    32767, 4071, 32767, 6926, 4931, 7109, 6557, 32767, 
};

const int8_t expand3_norm_weight_q7[128] TNN_DATA = {
    127, 127, 127, 127, 127, 127, 127, 127, 127, 77, 127, 127, 127, 127, 127, 127, 
    127, 127, -2, 127, 127, 127, 127, 127, 11, 127, 127, 3, 127, 127, 127, 127, 
    10, 127, 127, 127, 127, 127, 127, 127, 127, 127, 127, 127, 127, 127, 127, 127, 
    127, 127, 127, 127, 44, 127, 127, 127, 127, 127, 127, 19, 127, 127, 127, 127, 
    127, 127, 127, 127, 127, 127, 127, 127, 127, 127, 127, 127, 127, 127, 127, 127, 
    127, 127, 127, 127, 4, 127, 127, 127, 127, 127, 2, 127, 127, 127, 127, 127, 
    127, 5, 127, 127, 2, 127, 127, 127, 127, 127, 127, 127, 127, 127, 127, 127, 
    127, 127, 127, 127, 127, 127, 3, 127, 127, 127, 127, 127, 127, 127, 127, 127, 
    
};

const int16_t expand3_norm_bias_q15[128] TNN_DATA = {
    -32767, -19431, -32424, -32767, -14084, -32767, -30606, -24366, -28501, -32767, -25590, -29149, 
    -31864, 20948, -32767, -30941, -32767, -32767, -28570, -32767, -32767, -25628, -23462, -32767, 
    5933, -32767, -32767, -27494, -32767, -27878, -32767, -31212, -31213, -32767, -25802, -16688, 
    -32767, -17421, -32767, -32767, -32767, -32767, -32767, -27154, -32767, -32767, -32767, -32767, 
    -32767, -32767, -32767, -29232, -32767, -32767, -32767, -27959, -32767, -12745, -32767, -2667, 
    -32767, -32767, -32767, -32767, -32767, -32767, -32767, 515, -21932, -32767, -32767, -31316, 
    -32767, -32767, -30295, -32767, -32767, -32767, -12708, -22697, -26492, -32767, -32767, -32767, 
    -31208, -32767, -32767, -32767, -32767, -32767, -25400, -32767, -16802, -32767, -32767, -32767, 
    -31957, -32767, -13228, -22937, -28531, -21897, -32767, -5462, -32767, -29983, -2209, -25812, 
    -31696, -32767, -32767, -30782, -8496, -4741, -15281, -15286, 17485, -19472, -26800, -19603, 
    -19487, -20750, -8216, -32767, -12230, -32767, -32767, -25259, 
};

const int16_t expand3_shortcut_alphas_q15[128] TNN_DATA = {
    4749, 1335, 32767, 6068, 4550, 32767, 32767, 1524, 4051, 32767, 32767, 1240, 
    3411, 380, 32767, 2312, 4968, 2894, 32767, 4104, 1948, 2662, 32767, 5115, 
    32767, 2672, 287, 32767, 3017, 453, 5648, 32767, 2882, 4179, 32767, 32767, 
    2768, 32767, 3695, 32767, 3345, 32767, 2271, 1715, 3655, 4947, 32767, 32767, 
    1129, 3809, 32767, 64, 32767, 1294, 32767, 4984, 32767, 186, 1253, 32767, 
    32767, 4175, 32767, 32767, 32767, 32767, 32767, 2710, 476, 32767, 266, 32767, 
    203, 1463, 1752, 530, 3456, 32767, 2400, 4193, 32767, 32767, 4373, 2623, 
    32767, 2156, 32767, 1435, 4443, 1061, 6890, 150, 32767, 3983, 538, 3142, 
    1048, 32767, 32767, 4795, 32767, 32767, 5001, 32767, 567, 32767, 371, 673, 
    32767, 4431, 370, 177, 32767, 3414, 32767, 19671, 4281, 32767, 32767, 32767, 
    32767, 3188, 32767, 32767, 32767, 4017, 2318, 32767, 
};

const int16_t output_bias_q15[21] TNN_DATA = {
    -14222, -14623, -32767, -16360, -1593, -23351, 16975, 2401, 5890, 24740, -32767, 11339, 
    -20256, 9056, -13514, 21657, -23395, 8894, 17459, -5892, -4570, 
};

const uint8_t premix_weights[111] TNN_DATA = {
    0x6A, 0xA6, 0x6A, 0x25, 0x1A, 0x01, 0x00, 0x00, 0x00, 0x00, 0x50, 0x89, 
    0xAA, 0x55, 0xA0, 0x56, 0x66, 0x96, 0x69, 0x0A, 0xA4, 0x55, 0xA5, 0x2A, 
    0xA2, 0x95, 0x16, 0x55, 0x95, 0x55, 0x51, 0x55, 0x89, 0xAA, 0xA9, 0x9A, 
    0x96, 0x62, 0x96, 0x96, 0x68, 0x65, 0xAA, 0x92, 0xA5, 0x59, 0x5A, 0xA1, 
    0x92, 0xA9, 0xAA, 0x58, 0x49, 0x26, 0x66, 0x66, 0x16, 0x5A, 0x55, 0x55, 
    0x55, 0x55, 0x55, 0x5A, 0x95, 0x5A, 0x99, 0x95, 0xAA, 0x90, 0x66, 0x52, 
    0x64, 0x59, 0x22, 0x55, 0xA5, 0x85, 0x29, 0x00, 0x00, 0x00, 0x00, 0x00, 
    0xA1, 0x58, 0x65, 0x59, 0x4A, 0x69, 0x46, 0x95, 0x5A, 0x59, 0x06, 0x00, 
    0x00, 0x00, 0x00, 0x00, 0x00, 0x00, 0x00, 0x00, 0x00, 0x24, 0x98, 0x69, 
    0x9A, 0xA2, 0x02, 
};

const uint8_t focal1_conv_weights[2016] TNN_DATA = {
    0x96, 0x69, 0x6A, 0x6A, 0x51, 0x56, 0x69, 0x65, 0x9A, 0xA9, 0x65, 0x55, 
    0x59, 0x65, 0xAA, 0x68, 0x54, 0x25, 0x46, 0x88, 0x95, 0x45, 0x6A, 0x56, 
    0x01, 0x91, 0x16, 0x6A, 0x95, 0x2A, 0x15, 0x05, 0x00, 0x00, 0x00, 0x00, 
    0x00, 0x00, 0x00, 0x00, 0x00, 0x00, 0x00, 0x00, 0x00, 0x00, 0x00, 0x94, 
    0x96, 0xA9, 0x55, 0x65, 0xA6, 0x96, 0x55, 0xA1, 0xA4, 0x59, 0x56, 0x99, 
    0x99, 0x59, 0xA9, 0x5A, 0xA9, 0xA0, 0x99, 0xAA, 0xA6, 0x65, 0x95, 0x6A, 
    0x6A, 0xA6, 0x65, 0x95, 0x56, 0x66, 0x65, 0x94, 0x55, 0x29, 0xA8, 0x21, 
    0x69, 0x95, 0x95, 0x4A, 0x69, 0x96, 0x64, 0x85, 0x01, 0x06, 0x46, 0x11, 
    0x64, 0x02, 0x98, 0x59, 0x54, 0x51, 0x90, 0x69, 0x55, 0x46, 0x55, 0x12, 
    0x19, 0x18, 0xA5, 0x95, 0xA5, 0x95, 0x6A, 0xAA, 0x99, 0xAA, 0xA0, 0xAA, 
    0x6A, 0x19, 0xA2, 0x46, 0x69, 0x69, 0x95, 0x6A, 0x55, 0x69, 0x99, 0xA9, 
    0x99, 0x99, 0x59, 0x66, 0xA6, 0x95, 0x66, 0x6A, 0x59, 0x69, 0xA9, 0x5A, 
    0x96, 0x52, 0x96, 0xA6, 0x65, 0xA6, 0x56, 0x4A, 0x96, 0x56, 0x55, 0x99, 
    0x96, 0x06, 0x00, 0x00, 0x00, 0x00, 0x00, 0x00, 0x00, 0x00, 0x00, 0x00, 
    0x00, 0x00, 0x00, 0x00, 0x00, 0x00, 0x00, 0x00, 0x00, 0x00, 0x00, 0x00, 
    0x00, 0x00, 0x00, 0x00, 0x00, 0x00, 0x00, 0x00, 0x00, 0xA6, 0x59, 0xAA, 
    0x95, 0xA9, 0x9A, 0x66, 0x6A, 0x26, 0x66, 0x46, 0x69, 0x6A, 0x69, 0x59, 
    0x69, 0x85, 0x66, 0x85, 0xA2, 0x95, 0xA9, 0x55, 0x19, 0x8A, 0x95, 0x66, 
    0x5A, 0x55, 0x56, 0x5A, 0x69, 0x65, 0x2A, 0x2A, 0x56, 0x55, 0x56, 0xAA, 
    0x48, 0x52, 0xA9, 0x96, 0x95, 0xAA, 0x96, 0xAA, 0x56, 0x19, 0x4A, 0xA9, 
    0x45, 0x96, 0x69, 0x18, 0x96, 0xA9, 0x55, 0x99, 0xA9, 0x95, 0xA6, 0x62, 
    0x6A, 0x56, 0x55, 0xA5, 0x95, 0x65, 0x56, 0x95, 0x69, 0x66, 0x66, 0xA6, 
    0x96, 0x9A, 0x95, 0xA9, 0x66, 0x95, 0xA5, 0x66, 0x1A, 0x58, 0x50, 0x5A, 
    0x66, 0x9A, 0x5A, 0x6A, 0x8A, 0x59, 0x59, 0x58, 0x56, 0x5A, 0x5A, 0x69, 
    0x59, 0x69, 0xAA, 0xA6, 0x56, 0xA9, 0x96, 0xAA, 0x95, 0x59, 0x55, 0x96, 
    0x14, 0x26, 0x59, 0xA6, 0x59, 0x99, 0x46, 0xA5, 0x66, 0x56, 0x66, 0x99, 
    0x49, 0x69, 0x65, 0x00, 0x00, 0x00, 0x00, 0x00, 0x00, 0x00, 0x00, 0x00, 
    0x00, 0x00, 0x00, 0x00, 0x00, 0x00, 0x80, 0x66, 0x94, 0x65, 0x95, 0x99, 
    0x68, 0x66, 0xA6, 0xAA, 0x65, 0x1A, 0x54, 0x9A, 0x66, 0x16, 0x69, 0xA9, 
    0xA6, 0x55, 0x69, 0x19, 0xAA, 0x65, 0x8A, 0x9A, 0xA6, 0x65, 0xA6, 0xA5, 
    0x55, 0x52, 0xAA, 0xA5, 0xAA, 0x65, 0x95, 0x96, 0x96, 0xA6, 0x26, 0x66, 
    0x66, 0x66, 0x65, 0x99, 0x59, 0xAA, 0x9A, 0xA9, 0x9A, 0xA2, 0x69, 0x66, 
    0x96, 0x56, 0xA5, 0x65, 0xA4, 0x45, 0x55, 0x9A, 0x19, 0x49, 0x59, 0x66, 
    0x66, 0x59, 0xA6, 0xA9, 0x56, 0x69, 0x99, 0xA9, 0x96, 0x96, 0x59, 0x64, 
    0x55, 0x56, 0x59, 0x96, 0x08, 0x0A, 0x9A, 0x29, 0x89, 0xA1, 0x66, 0x80, 
    0x25, 0x56, 0x1A, 0x5A, 0x59, 0xA4, 0x69, 0x9A, 0xA6, 0x96, 0x5A, 0x59, 
    0x55, 0x9A, 0x66, 0x56, 0x6A, 0xA9, 0x96, 0xA5, 0x96, 0x96, 0x56, 0xA6, 
    0xA8, 0x9A, 0x5A, 0x25, 0x06, 0xA9, 0x55, 0x96, 0x9A, 0xA5, 0x6A, 0xA9, 
    0x64, 0xA1, 0xA1, 0x55, 0xAA, 0x86, 0x46, 0x11, 0x85, 0xAA, 0x40, 0x49, 
    0x58, 0x4A, 0x59, 0x6A, 0x94, 0x94, 0x8A, 0x95, 0x65, 0x5A, 0x9A, 0x56, 
    0x26, 0x6A, 0xAA, 0x66, 0x99, 0x99, 0xA6, 0x69, 0x66, 0x9A, 0x95, 0x66, 
    0x51, 0x6A, 0x59, 0x66, 0x29, 0xA6, 0x66, 0x96, 0x96, 0xAA, 0x65, 0x59, 
    0x96, 0x5A, 0x89, 0x2A, 0x65, 0xA9, 0x19, 0x62, 0xA9, 0x6A, 0x25, 0xA4, 
    0x95, 0xAA, 0xAA, 0x44, 0x6A, 0x69, 0x1A, 0x11, 0x5A, 0xA6, 0x95, 0xA6, 
    0x61, 0x92, 0x86, 0xA5, 0x55, 0xA5, 0x99, 0x44, 0x9A, 0x26, 0x96, 0x95, 
    0xA5, 0x59, 0x59, 0x49, 0x86, 0x65, 0x66, 0x66, 0x66, 0x59, 0xA6, 0x5A, 
    0xA6, 0x65, 0x59, 0x6A, 0x9A, 0xA6, 0xA9, 0x65, 0x59, 0xA9, 0x65, 0x59, 
    0xA9, 0xA5, 0x65, 0x91, 0x54, 0x69, 0x69, 0xA5, 0x95, 0x6A, 0x56, 0xA1, 
    0x55, 0x99, 0x69, 0xA5, 0x56, 0x6A, 0xA9, 0xAA, 0x29, 0x65, 0xA5, 0x14, 
    0x0A, 0x51, 0x2A, 0x6A, 0x45, 0x55, 0xA5, 0xA6, 0x54, 0x5A, 0x61, 0x55, 
    0x65, 0x65, 0x55, 0x6A, 0x9A, 0x59, 0xA9, 0x99, 0x66, 0x59, 0x05, 0x59, 
    0x66, 0xA6, 0xA9, 0x95, 0x5A, 0x55, 0x6A, 0x5A, 0x59, 0x6A, 0x5A, 0x55, 
    0x29, 0x6A, 0xA6, 0xA1, 0xA5, 0xA9, 0x96, 0xAA, 0x68, 0x9A, 0x96, 0xA5, 
    0x69, 0x95, 0x16, 0xA9, 0x56, 0x9A, 0x9A, 0x59, 0x55, 0xA5, 0x9A, 0x91, 
    0x55, 0x5A, 0x65, 0xA9, 0xA8, 0x59, 0x65, 0x5A, 0x65, 0x9A, 0x96, 0x9A, 
    0x9A, 0x25, 0x69, 0x9A, 0x65, 0x49, 0x64, 0x59, 0x49, 0x25, 0x50, 0x5A, 
    0x56, 0x58, 0x8A, 0x58, 0x91, 0x9A, 0x85, 0x99, 0x66, 0x6A, 0x66, 0x0A, 
    0x99, 0x69, 0x66, 0x48, 0x92, 0x1A, 0x46, 0x66, 0x26, 0x99, 0x9A, 0x59, 
    0x66, 0x24, 0x66, 0x89, 0x99, 0x65, 0xA6, 0x61, 0x59, 0x59, 0x62, 0x65, 
    0x66, 0x51, 0x16, 0xAA, 0x82, 0x2A, 0x45, 0xA8, 0x15, 0x95, 0x62, 0xAA, 
    0x5A, 0x51, 0x28, 0xA5, 0xA2, 0xA5, 0x56, 0xA9, 0xAA, 0xA5, 0x69, 0x69, 
    0x85, 0x56, 0x6A, 0xA9, 0x66, 0xA9, 0xA5, 0xAA, 0x9A, 0x55, 0x95, 0x99, 
    0x66, 0x69, 0x5A, 0x6A, 0x46, 0x66, 0x55, 0x66, 0x9A, 0x99, 0x96, 0x65, 
    0x99, 0xA9, 0x65, 0x22, 0x51, 0x96, 0x59, 0x55, 0x21, 0x99, 0x99, 0x65, 
    0x99, 0x98, 0x65, 0x92, 0x69, 0x6A, 0x59, 0x69, 0x65, 0x2A, 0x6A, 0x99, 
    0xA6, 0x69, 0x99, 0x55, 0x92, 0x65, 0x99, 0x21, 0x98, 0x6A, 0x2A, 0x85, 
    0x54, 0x60, 0x99, 0x15, 0x62, 0x66, 0x96, 0x65, 0x29, 0x56, 0x08, 0x49, 
    0x95, 0x16, 0x95, 0x55, 0x65, 0x6A, 0xAA, 0xA6, 0x69, 0x5A, 0x99, 0xA6, 
    0x95, 0x56, 0xAA, 0x59, 0x59, 0xAA, 0x5A, 0xA5, 0x6A, 0xA9, 0x65, 0x56, 
    0x55, 0x5A, 0x9A, 0x9A, 0x56, 0x69, 0x45, 0x95, 0x8A, 0xA6, 0x95, 0x89, 
    0xA6, 0xAA, 0x66, 0x55, 0x99, 0x55, 0x99, 0x69, 0x9A, 0x6A, 0x94, 0x65, 
    0x59, 0x61, 0x4A, 0x54, 0x56, 0x94, 0x96, 0x69, 0x5A, 0x99, 0x99, 0x99, 
    0xAA, 0x59, 0x59, 0x59, 0x96, 0x19, 0xA5, 0xA5, 0xA5, 0x64, 0x65, 0x58, 
    0x62, 0x95, 0x65, 0x52, 0x56, 0x28, 0x64, 0xA6, 0x56, 0x94, 0x62, 0x99, 
    0x55, 0xA6, 0x69, 0xAA, 0xA6, 0x65, 0xA5, 0xA9, 0x65, 0x5A, 0x19, 0x55, 
    0x55, 0x6A, 0x56, 0x51, 0x45, 0xA9, 0x6A, 0xA6, 0x9A, 0x40, 0x96, 0x55, 
    0x82, 0x50, 0x95, 0x61, 0x29, 0x69, 0x55, 0x99, 0x69, 0x65, 0xA9, 0x55, 
    0xA6, 0xA5, 0x95, 0x92, 0x58, 0x59, 0x69, 0x18, 0x4A, 0x56, 0x5A, 0x85, 
    0x94, 0xA5, 0x49, 0x96, 0x64, 0xA6, 0x60, 0x59, 0x86, 0x5A, 0x59, 0x95, 
    0x9A, 0x66, 0x5A, 0x6A, 0x26, 0x69, 0x56, 0x99, 0x5A, 0x66, 0x15, 0xA6, 
    0x66, 0xA6, 0x9A, 0x66, 0xAA, 0x69, 0x81, 0x16, 0x02, 0x69, 0x59, 0x99, 
    0xAA, 0x99, 0x99, 0x69, 0x56, 0x65, 0xA6, 0x6A, 0x59, 0x59, 0x96, 0x65, 
    0x65, 0x56, 0x55, 0x5A, 0x6A, 0xAA, 0x5A, 0x56, 0x9A, 0x65, 0xA5, 0xAA, 
    0x66, 0xA5, 0x55, 0xA6, 0x66, 0x9A, 0x95, 0x9A, 0xA6, 0x59, 0x99, 0x65, 
    0x96, 0x65, 0x85, 0x56, 0x4A, 0x42, 0xAA, 0x65, 0xA5, 0xA9, 0x9A, 0x4A, 
    0x69, 0x4A, 0x69, 0x69, 0x55, 0x56, 0x49, 0xA1, 0x66, 0x99, 0x45, 0x14, 
    0x8A, 0x56, 0x61, 0xA5, 0x56, 0xA5, 0x95, 0xA1, 0x56, 0xA6, 0xA9, 0x9A, 
    0x95, 0x96, 0xA9, 0xA6, 0x62, 0x92, 0x99, 0x59, 0x1A, 0x66, 0x66, 0x56, 
    0xA9, 0x9A, 0xAA, 0x65, 0x55, 0x95, 0xA9, 0x1A, 0xA5, 0x69, 0x65, 0x55, 
    0xA5, 0xAA, 0x56, 0x59, 0x96, 0x99, 0x99, 0x99, 0x01, 0x68, 0x96, 0x99, 
    0xA6, 0x89, 0x26, 0xA6, 0x99, 0x65, 0xA6, 0x99, 0x25, 0xA6, 0xA6, 0x99, 
    0x99, 0x99, 0x66, 0x66, 0xAA, 0x99, 0xA6, 0xA9, 0x99, 0x66, 0x59, 0x95, 
    0x5A, 0x99, 0xAA, 0x69, 0xAA, 0xA5, 0x69, 0x95, 0x98, 0x65, 0x55, 0xA9, 
    0x59, 0x66, 0x65, 0xA5, 0xA5, 0x9A, 0x59, 0xA6, 0x65, 0x55, 0x58, 0xA6, 
    0x65, 0x96, 0x65, 0x9A, 0xA6, 0x65, 0x66, 0x99, 0xAA, 0x99, 0x65, 0xA5, 
    0x66, 0xA6, 0x55, 0x95, 0x96, 0x5A, 0x59, 0x95, 0x95, 0x55, 0xA5, 0x66, 
    0x59, 0x94, 0x99, 0xA5, 0x55, 0x65, 0x45, 0x96, 0x99, 0x59, 0x96, 0x65, 
    0x66, 0xA6, 0x6A, 0x66, 0x69, 0x55, 0xA5, 0x59, 0x96, 0x5A, 0x59, 0x96, 
    0xA5, 0x56, 0x6A, 0xAA, 0xA5, 0x9A, 0xA6, 0x99, 0x99, 0x99, 0x49, 0x54, 
    0xA6, 0x99, 0x65, 0x19, 0x45, 0x64, 0x99, 0x69, 0x66, 0xAA, 0xA5, 0x59, 
    0x6A, 0x69, 0x6A, 0x55, 0xA9, 0x56, 0x95, 0x95, 0xAA, 0xA9, 0x95, 0x56, 
    0x65, 0x46, 0x4A, 0x51, 0x55, 0xA5, 0xA1, 0x65, 0xAA, 0x9A, 0x55, 0xA9, 
    0xA5, 0x95, 0x99, 0xA2, 0x55, 0x16, 0x25, 0x65, 0x91, 0x95, 0x60, 0xA6, 
    0xA5, 0x66, 0x5A, 0xA9, 0x66, 0x69, 0xA4, 0x9A, 0xA5, 0x29, 0x6A, 0xA5, 
    0x56, 0x06, 0x46, 0x69, 0x6A, 0x59, 0x96, 0x95, 0x5A, 0x96, 0x5A, 0x5A, 
    0x66, 0x94, 0xA9, 0x59, 0x94, 0x15, 0xA6, 0x98, 0x65, 0x80, 0x99, 0x55, 
    0x89, 0x69, 0x6A, 0x99, 0x95, 0xA4, 0x56, 0x9A, 0xA6, 0x94, 0x65, 0xA5, 
    0x69, 0x60, 0xA5, 0xA9, 0x44, 0x51, 0x69, 0xAA, 0xA6, 0xA9, 0x65, 0x59, 
    0x69, 0x66, 0x59, 0x5A, 0x66, 0x66, 0x69, 0xAA, 0xA6, 0xA6, 0x55, 0xA5, 
    0x15, 0x28, 0xAA, 0xAA, 0xA9, 0x98, 0x96, 0x0A, 0x6A, 0x5A, 0x56, 0xA5, 
    0xA6, 0x54, 0x95, 0x65, 0x9A, 0x66, 0x5A, 0xA6, 0x96, 0x66, 0x96, 0xA2, 
    0xA6, 0x99, 0x6A, 0x99, 0xA6, 0x69, 0x59, 0xA9, 0x96, 0x55, 0x99, 0xA5, 
    0x95, 0x55, 0x66, 0x65, 0xA6, 0x99, 0xAA, 0x6A, 0xAA, 0x99, 0x66, 0x94, 
    0x55, 0x54, 0x59, 0x9A, 0x65, 0xA6, 0x11, 0xAA, 0x9A, 0x66, 0x85, 0x65, 
    0x99, 0x9A, 0x56, 0x12, 0x56, 0x68, 0xAA, 0x5A, 0x15, 0xA5, 0xAA, 0xA9, 
    0x95, 0x96, 0x51, 0x45, 0xA5, 0x2A, 0x95, 0x99, 0x8A, 0x55, 0x69, 0x55, 
    0xA5, 0xA6, 0x49, 0x99, 0x65, 0xAA, 0x9A, 0xAA, 0x9A, 0x66, 0x5A, 0x48, 
    0xA9, 0x65, 0x59, 0x6A, 0x9A, 0x5A, 0x16, 0x95, 0x4A, 0x56, 0x9A, 0x6A, 
    0x96, 0xA4, 0x96, 0x52, 0x89, 0xA6, 0xA9, 0x95, 0x96, 0x65, 0x5A, 0xA6, 
    0x69, 0x59, 0x99, 0x92, 0x4A, 0x45, 0xA4, 0x99, 0x99, 0xA2, 0x28, 0x44, 
    0x91, 0x68, 0x02, 0x99, 0x29, 0x1A, 0x59, 0x55, 0x19, 0x9A, 0x65, 0x59, 
    0xA5, 0x69, 0x65, 0x99, 0x49, 0x55, 0x59, 0x66, 0x15, 0x66, 0x99, 0x9A, 
    0xA6, 0xA6, 0x95, 0x5A, 0x59, 0x96, 0x65, 0x56, 0x95, 0xA5, 0x56, 0x96, 
    0x69, 0xA9, 0x45, 0x5A, 0x69, 0x5A, 0x99, 0x99, 0x55, 0x59, 0x5A, 0xA9, 
    0x59, 0xA5, 0xA5, 0x99, 0x59, 0x69, 0x99, 0x1A, 0x69, 0x29, 0xA9, 0x56, 
    0x55, 0xA1, 0xAA, 0x69, 0x59, 0x9A, 0x69, 0x59, 0xA8, 0x9A, 0x9A, 0x15, 
    0x91, 0x99, 0x5A, 0x29, 0x9A, 0x55, 0x86, 0x49, 0x19, 0x99, 0x62, 0x69, 
    0x55, 0x99, 0x59, 0x89, 0xAA, 0xA5, 0x95, 0x56, 0x95, 0x95, 0xA9, 0x56, 
    0x96, 0x6A, 0x56, 0x66, 0x99, 0x65, 0x69, 0x99, 0x59, 0x65, 0x92, 0x52, 
    0xAA, 0xA6, 0x99, 0x98, 0x95, 0x66, 0x46, 0x99, 0x5A, 0x95, 0x65, 0x6A, 
    0x96, 0x96, 0x68, 0xAA, 0x99, 0x61, 0x55, 0x59, 0x69, 0x56, 0x98, 0x95, 
    0x21, 0x69, 0x6A, 0x55, 0x58, 0x69, 0x15, 0x4A, 0xA9, 0xA6, 0xAA, 0xAA, 
    0x54, 0xA5, 0x9A, 0x28, 0x5A, 0x96, 0x15, 0x00, 0x00, 0x00, 0x00, 0x00, 
    0x00, 0x00, 0x00, 0x00, 0x00, 0x00, 0x01, 0x00, 0x00, 0x00, 0x60, 0x65, 
    0x62, 0xA9, 0x66, 0x66, 0xA6, 0x66, 0x51, 0x26, 0x59, 0x59, 0x99, 0x65, 
    0x99, 0x69, 0xA6, 0xAA, 0xA8, 0x16, 0x65, 0xA9, 0x12, 0x55, 0xA9, 0x94, 
    0x9A, 0x9A, 0x56, 0x6A, 0x59, 0x0A, 0xA5, 0x65, 0x9A, 0x56, 0x65, 0x66, 
    0xA6, 0x66, 0xA9, 0x65, 0xAA, 0x5A, 0x66, 0x55, 0xA6, 0x9A, 0x54, 0x6A, 
    0x92, 0x66, 0x65, 0xAA, 0x66, 0x51, 0xA6, 0x96, 0x68, 0x65, 0x69, 0x99, 
    0x65, 0x6A, 0x6A, 0x66, 0x66, 0x66, 0x99, 0x99, 0x66, 0x59, 0x66, 0x9A, 
    0x91, 0x99, 0x69, 0x99, 0x6A, 0x96, 0x5A, 0x29, 0x94, 0x5A, 0x49, 0xA0, 
    0x91, 0xA6, 0x95, 0xA6, 0x06, 0x69, 0x9A, 0x90, 0x96, 0x68, 0xA6, 0xA6, 
    0x6A, 0x85, 0x8A, 0x58, 0x55, 0x55, 0x68, 0x5A, 0xA1, 0x56, 0x55, 0x68, 
    0x6A, 0x29, 0x06, 0x6A, 0x65, 0x46, 0x11, 0x25, 0xAA, 0x2A, 0x54, 0x9A, 
    0x91, 0x28, 0x02, 0x40, 0xA4, 0x95, 0x1A, 0xA8, 0x95, 0x9A, 0x52, 0x15, 
    0x65, 0xA9, 0x69, 0xA5, 0x50, 0x96, 0x61, 0xA5, 0x95, 0x95, 0x55, 0x66, 
    0xA6, 0x55, 0x55, 0x95, 0x59, 0x66, 0x95, 0x99, 0x69, 0x66, 0xAA, 0x65, 
    0x56, 0x8A, 0xAA, 0x15, 0x5A, 0x66, 0x29, 0x96, 0xA9, 0x61, 0x19, 0x2A, 
    0x5A, 0x29, 0x99, 0x15, 0x00, 0x00, 0x00, 0x00, 0x00, 0x00, 0x00, 0x00, 
    0x00, 0x00, 0x00, 0x00, 0x00, 0x00, 0x00, 0x60, 0x64, 0x96, 0x12, 0x18, 
    0xA6, 0x9A, 0x55, 0xA9, 0xA6, 0x65, 0x95, 0x15, 0x56, 0x95, 0x95, 0x61, 
    0x92, 0x19, 0x64, 0x24, 0xA0, 0x52, 0x66, 0x46, 0x9A, 0x26, 0x65, 0x66, 
    0x59, 0x66, 0x66, 0xA6, 0x96, 0x59, 0x96, 0x59, 0x55, 0x66, 0x69, 0x66, 
    0x9A, 0x56, 0x99, 0x96, 0x68, 0x95, 0x66, 0x66, 0x99, 0x95, 0x59, 0x69, 
    0xA6, 0x6A, 0x16, 0xAA, 0x59, 0x66, 0x59, 0x55, 0xA6, 0x6A, 0x65, 0x99, 
    0x5A, 0x59, 0x6A, 0x96, 0x56, 0xA9, 0x65, 0xA6, 0x9A, 0xA6, 0xAA, 0x5A, 
    0x95, 0x55, 0xA5, 0x84, 0x85, 0xA5, 0x96, 0x95, 0x00, 0x66, 0x6A, 0x59, 
    0x1A, 0x6A, 0x41, 0x69, 0x6A, 0xA5, 0x4A, 0x52, 0x95, 0x48, 0x51, 0xA9, 
    0x6A, 0xA5, 0x56, 0x55, 0xA5, 0x56, 0x54, 0x56, 0x55, 0x9A, 0xAA, 0x55, 
    0x9A, 0x56, 0xA5, 0x66, 0x95, 0x69, 0x65, 0x59, 0x6A, 0x96, 0xAA, 0x69, 
    0xA6, 0x9A, 0x96, 0x6A, 0x5A, 0xA1, 0x56, 0x96, 0x6A, 0x89, 0x5A, 0xA9, 
    0x95, 0x6A, 0x54, 0x59, 0xA5, 0x16, 0x94, 0xAA, 0x52, 0x2A, 0x59, 0x51, 
    0x41, 0xA5, 0xAA, 0x68, 0xA1, 0x26, 0x84, 0xA8, 0x94, 0x56, 0x96, 0x86, 
    0x56, 0x1A, 0x1A, 0x55, 0x62, 0xA5, 0x69, 0x68, 0xA5, 0xA2, 0x65, 0xA5, 
    0x96, 0x99, 0x65, 0xA5, 0xAA, 0x95, 0x62, 0x96, 0x90, 0x55, 0x55, 0xA9, 
    0x99, 0x69, 0x5A, 0x99, 0xA9, 0x99, 0x45, 0xA6, 0xAA, 0xA9, 0x54, 0x99, 
    0x62, 0x55, 0xA9, 0x65, 0x95, 0xA9, 0x66, 0x96, 0x69, 0x59, 0x69, 0x69, 
    0x9A, 0x66, 0x95, 0xA4, 0x56, 0x96, 0x99, 0xA9, 0x69, 0x9A, 0x62, 0x6A, 
    
};

const uint8_t focal_mid_0_conv_weights[20480] TNN_DATA = {
    0x00, 0x00, 0x00, 0x00, 0x00, 0x00, 0x00, 0x00, 0x00, 0x00, 0x00, 0x00, 
    0x00, 0x00, 0x00, 0x00, 0x00, 0x00, 0x00, 0x00, 0x00, 0x00, 0x00, 0x00, 
    0x00, 0x00, 0x00, 0x00, 0x00, 0x00, 0x00, 0x00, 0x00, 0x00, 0x00, 0x00, 
    0x00, 0x00, 0x00, 0x00, 0x00, 0x00, 0x00, 0x00, 0x00, 0x00, 0x00, 0x00, 
    0x00, 0x00, 0x00, 0x00, 0x00, 0x00, 0x00, 0x00, 0x00, 0x00, 0x00, 0x00, 
    0x00, 0x00, 0x00, 0x00, 0x00, 0x00, 0x00, 0x00, 0x00, 0x00, 0x00, 0x00, 
    0x00, 0x00, 0x00, 0x00, 0x00, 0x00, 0x00, 0x00, 0x00, 0x00, 0x00, 0x00, 
    0x00, 0x00, 0x00, 0x00, 0x00, 0x00, 0x00, 0x00, 0x00, 0x00, 0x00, 0x00, 
    0x00, 0x00, 0x00, 0x00, 0x00, 0x00, 0x00, 0x00, 0x00, 0x00, 0x00, 0x00, 
    0x00, 0x00, 0x00, 0x00, 0x00, 0x00, 0x00, 0x00, 0x00, 0x00, 0x00, 0x00, 
    0x00, 0x00, 0x00, 0x00, 0x00, 0x00, 0x00, 0x00, 0x00, 0x00, 0x00, 0x00, 
    0x00, 0x00, 0x00, 0x00, 0x00, 0x00, 0x00, 0x00, 0x00, 0x00, 0x00, 0x00, 
    0x00, 0x00, 0x00, 0x00, 0x00, 0x00, 0x00, 0x00, 0x00, 0x00, 0x00, 0x00, 
    0x00, 0x00, 0x00, 0x00, 0x9A, 0x91, 0x46, 0x56, 0x65, 0x59, 0x94, 0x2A, 
    0x69, 0x18, 0x96, 0x96, 0x9A, 0x64, 0x25, 0x99, 0x55, 0x65, 0x51, 0x64, 
    0x58, 0x81, 0x55, 0x9A, 0x85, 0x91, 0x9A, 0x95, 0x99, 0xAA, 0xAA, 0xAA, 
    0xAA, 0xAA, 0xAA, 0xAA, 0x96, 0xAA, 0x6A, 0x55, 0x61, 0x55, 0x95, 0x95, 
    0xAA, 0x69, 0x56, 0xA5, 0xAA, 0xAA, 0x69, 0x55, 0xA5, 0xAA, 0x26, 0x54, 
    0x94, 0xAA, 0xAA, 0x9A, 0x69, 0xA1, 0x52, 0x94, 0xAA, 0xAA, 0xAA, 0xA9, 
    0x6A, 0x55, 0x22, 0xAA, 0x5A, 0x55, 0x55, 0x1A, 0x56, 0x25, 0x5A, 0x55, 
    0x55, 0x59, 0x59, 0x95, 0xAA, 0x55, 0x59, 0xA9, 0x9A, 0xAA, 0xAA, 0xA6, 
    0x56, 0x51, 0x55, 0x55, 0xA9, 0x5A, 0x21, 0x96, 0x55, 0x56, 0x95, 0x95, 
    0x96, 0x59, 0xA9, 0xAA, 0x6A, 0x55, 0x58, 0x56, 0xA5, 0x6A, 0x96, 0xA5, 
    0x99, 0xAA, 0x2A, 0x55, 0xA9, 0x5A, 0x56, 0x96, 0x4A, 0x54, 0xA9, 0x9A, 
    0x68, 0x55, 0x65, 0x65, 0xA5, 0xAA, 0x55, 0x55, 0x95, 0x99, 0x95, 0x85, 
    0x5A, 0x55, 0x56, 0x59, 0x55, 0xAA, 0xAA, 0xA2, 0x6A, 0x55, 0x55, 0xA1, 
    0x6A, 0x65, 0x55, 0x55, 0xA9, 0x92, 0x1A, 0x28, 0x04, 0x51, 0x21, 0x22, 
    0x00, 0x20, 0x00, 0x80, 0x22, 0x00, 0x84, 0x10, 0x00, 0x08, 0x00, 0xA0, 
    0xA0, 0x08, 0x82, 0x28, 0xA0, 0x02, 0x21, 0x48, 0x06, 0x14, 0x00, 0x00, 
    0x00, 0x00, 0x00, 0x00, 0x00, 0x00, 0x00, 0x00, 0x00, 0x40, 0x01, 0x00, 
    0x00, 0x00, 0x00, 0x00, 0x00, 0x00, 0x00, 0x50, 0x14, 0x00, 0x00, 0x01, 
    0x50, 0x11, 0x00, 0x00, 0x00, 0x00, 0x00, 0x00, 0x40, 0x81, 0x00, 0x00, 
    0x80, 0x00, 0x80, 0x00, 0x00, 0x00, 0x00, 0x00, 0x00, 0x00, 0x00, 0x00, 
    0x00, 0x00, 0x00, 0x00, 0x00, 0x00, 0x10, 0x00, 0x00, 0x00, 0x00, 0x00, 
    0x00, 0x00, 0x00, 0x00, 0x00, 0x00, 0x00, 0x10, 0x00, 0x00, 0x00, 0x00, 
    0x00, 0xA8, 0x00, 0x00, 0x00, 0x00, 0x10, 0x05, 0x00, 0x40, 0x01, 0x00, 
    0x00, 0x00, 0x00, 0x00, 0x00, 0x00, 0x04, 0x00, 0x00, 0x00, 0x00, 0x00, 
    0x00, 0x00, 0x00, 0x00, 0x00, 0x00, 0x00, 0x00, 0xA0, 0x28, 0x00, 0x10, 
    0x00, 0x00, 0x00, 0x00, 0xA0, 0x00, 0x00, 0x00, 0x00, 0x00, 0x00, 0x40, 
    0x00, 0x00, 0x00, 0x00, 0x00, 0x80, 0x0A, 0x8A, 0x02, 0x00, 0x00, 0x00, 
    0x10, 0x54, 0x00, 0x80, 0x0A, 0x82, 0x02, 0xA8, 0x2A, 0x40, 0x00, 0x08, 
    0x0A, 0x00, 0x88, 0x00, 0x00, 0x58, 0x15, 0x88, 0x20, 0x55, 0xA5, 0x8A, 
    0x2A, 0x45, 0x01, 0x40, 0x00, 0x00, 0x00, 0x00, 0x00, 0x00, 0x00, 0x00, 
    0x20, 0x00, 0x00, 0x00, 0x00, 0x00, 0x00, 0x00, 0x00, 0x00, 0x00, 0x00, 
    0x01, 0x00, 0x00, 0x00, 0x10, 0x05, 0x01, 0x00, 0x00, 0x00, 0x00, 0x04, 
    0x00, 0x00, 0x00, 0x00, 0x00, 0x00, 0x00, 0x00, 0x00, 0x00, 0x00, 0x54, 
    0x20, 0x2A, 0x00, 0x00, 0x00, 0x00, 0x00, 0x04, 0x00, 0x00, 0x00, 0x00, 
    0x00, 0x00, 0x00, 0x00, 0x00, 0x00, 0x00, 0x00, 0x00, 0x00, 0x00, 0x00, 
    0x00, 0x40, 0x00, 0x00, 0x10, 0x20, 0xA0, 0x2A, 0x08, 0x00, 0x50, 0x00, 
    0x00, 0x00, 0x00, 0x00, 0x00, 0x00, 0x00, 0x00, 0x00, 0x00, 0x00, 0x00, 
    0x00, 0x00, 0x00, 0x00, 0x00, 0x00, 0x00, 0x00, 0x80, 0x08, 0x00, 0x80, 
    0xA0, 0x02, 0x00, 0x00, 0x00, 0x00, 0x00, 0x00, 0x00, 0x00, 0x00, 0x00, 
    0x00, 0x00, 0x00, 0x00, 0x01, 0x00, 0x00, 0x00, 0x00, 0x2A, 0x00, 0x00, 
    0x00, 0x00, 0x00, 0x00, 0xA9, 0xA5, 0x95, 0x59, 0x55, 0x6A, 0xA6, 0x95, 
    0x55, 0x6A, 0x56, 0xAA, 0x56, 0x56, 0x99, 0x69, 0x66, 0xA9, 0x55, 0x96, 
    0xA6, 0x6A, 0xAA, 0xA6, 0x65, 0x95, 0xAA, 0xAA, 0xAA, 0xAA, 0x99, 0xAA, 
    0x59, 0x95, 0xAA, 0xAA, 0xAA, 0xAA, 0x6A, 0xA5, 0xAA, 0x56, 0x55, 0x95, 
    0xAA, 0xAA, 0x55, 0x55, 0xAA, 0xAA, 0xA6, 0x66, 0xA5, 0xAA, 0x56, 0x95, 
    0xA9, 0x5A, 0x95, 0xAA, 0xAA, 0x6A, 0xA6, 0xAA, 0xAA, 0x9A, 0xA6, 0xA5, 
    0x6A, 0x55, 0xAA, 0x6A, 0xAA, 0x6A, 0x55, 0xA8, 0x64, 0x55, 0x99, 0xAA, 
    0x65, 0x5A, 0x65, 0x69, 0xA6, 0x99, 0xA9, 0x99, 0x95, 0x99, 0xAA, 0xA6, 
    0x85, 0x95, 0x96, 0x59, 0x99, 0x9A, 0xA9, 0x66, 0x66, 0x66, 0x65, 0x55, 
    0x9A, 0x9A, 0xAA, 0x6A, 0x6A, 0x55, 0x56, 0xA5, 0xA9, 0xA6, 0x66, 0xAA, 
    0x9A, 0xAA, 0x69, 0x5A, 0x69, 0x69, 0x56, 0x96, 0x9A, 0x95, 0xA9, 0x5A, 
    0x65, 0x5A, 0xAA, 0x96, 0xA6, 0x6A, 0x65, 0x55, 0xA5, 0x9A, 0x55, 0x55, 
    0x96, 0x66, 0x55, 0x55, 0x55, 0xA6, 0x56, 0x6A, 0x55, 0x55, 0x55, 0x55, 
    0x55, 0x66, 0x55, 0x95, 0x81, 0xA2, 0x29, 0x14, 0x04, 0x00, 0x00, 0x00, 
    0x60, 0x25, 0x81, 0x00, 0x00, 0x21, 0x80, 0x00, 0x20, 0x20, 0x08, 0x08, 
    0x20, 0x40, 0x10, 0x80, 0x80, 0x10, 0x84, 0xA6, 0x00, 0x08, 0x2A, 0xA0, 
    0x80, 0x0A, 0x00, 0x01, 0xA0, 0x0A, 0x00, 0x0A, 0x42, 0x88, 0x00, 0x00, 
    0x0A, 0x44, 0x91, 0x00, 0x00, 0x40, 0x00, 0x81, 0x00, 0x02, 0x00, 0x20, 
    0x88, 0x08, 0x86, 0x40, 0x00, 0x08, 0x40, 0x00, 0x8A, 0x42, 0xA0, 0x00, 
    0x82, 0x00, 0x00, 0x80, 0x00, 0x20, 0x08, 0x00, 0x81, 0x00, 0x02, 0x02, 
    0x20, 0x00, 0x00, 0x02, 0x00, 0x88, 0x80, 0x00, 0x04, 0x00, 0x00, 0x40, 
    0x00, 0x82, 0x20, 0x00, 0x00, 0x00, 0x00, 0x00, 0xA8, 0x8A, 0x00, 0x02, 
    0x00, 0x40, 0x00, 0x00, 0x04, 0x10, 0x20, 0x0A, 0x90, 0x02, 0x10, 0x20, 
    0x88, 0x00, 0x16, 0x08, 0x20, 0x80, 0x2A, 0x80, 0x00, 0x00, 0x02, 0x81, 
    0x00, 0x08, 0x00, 0x00, 0x00, 0x42, 0x08, 0x02, 0x80, 0x22, 0x02, 0x00, 
    0x04, 0x81, 0x80, 0x04, 0x11, 0x2A, 0x00, 0x40, 0x02, 0x00, 0x40, 0xA8, 
    0x00, 0x82, 0x11, 0x00, 0x06, 0x00, 0x04, 0x0A, 0x00, 0xA0, 0x28, 0x00, 
    0xA5, 0x24, 0x48, 0x0A, 0x21, 0xA6, 0x55, 0x82, 0x66, 0x60, 0x55, 0x94, 
    0x82, 0x10, 0x61, 0xA9, 0x52, 0x89, 0x64, 0x49, 0x8A, 0x14, 0x90, 0xAA, 
    0x96, 0x86, 0x41, 0x49, 0x06, 0x55, 0x40, 0x08, 0x01, 0x89, 0xAA, 0x2A, 
    0x5A, 0x81, 0x48, 0x64, 0x54, 0x56, 0x55, 0x00, 0xA1, 0xAA, 0x56, 0x05, 
    0x68, 0x50, 0x44, 0x56, 0x82, 0x44, 0x45, 0x55, 0x56, 0x85, 0x48, 0x84, 
    0x42, 0x90, 0x50, 0x95, 0x8A, 0x0A, 0x16, 0x44, 0x04, 0x08, 0x96, 0x56, 
    0x05, 0x6A, 0x55, 0x59, 0x52, 0x41, 0x00, 0x81, 0x55, 0x94, 0xAA, 0xA8, 
    0x99, 0x54, 0x21, 0xA8, 0x6A, 0x55, 0xAA, 0x82, 0x04, 0x40, 0x11, 0x12, 
    0x11, 0x0A, 0x68, 0x49, 0x15, 0x55, 0x55, 0x1A, 0xAA, 0x16, 0xA8, 0xAA, 
    0x6A, 0x55, 0x98, 0x55, 0xA5, 0x6A, 0x55, 0x54, 0x41, 0xA9, 0x55, 0x55, 
    0x40, 0xA8, 0x28, 0xA8, 0xAA, 0x15, 0x00, 0x50, 0x45, 0x55, 0x65, 0xA9, 
    0x1A, 0x4A, 0x55, 0x41, 0x55, 0x51, 0x95, 0xAA, 0xAA, 0x92, 0x04, 0x6A, 
    0x55, 0x46, 0x88, 0xAA, 0x6A, 0x55, 0x16, 0x44, 0x89, 0x54, 0x55, 0x55, 
    0x09, 0x52, 0x15, 0x00, 0xAA, 0x9A, 0xA9, 0xAA, 0x9A, 0x6A, 0x95, 0x65, 
    0x96, 0xA9, 0x59, 0x56, 0xA6, 0x6A, 0x59, 0xA5, 0xA5, 0x56, 0x99, 0xAA, 
    0x59, 0x55, 0x96, 0x95, 0xA9, 0xAA, 0xAA, 0xAA, 0xAA, 0xAA, 0xAA, 0xAA, 
    0xAA, 0xAA, 0xAA, 0x9A, 0xAA, 0xA9, 0xAA, 0xAA, 0xA9, 0x55, 0x55, 0x95, 
    0x69, 0x6A, 0x56, 0xA5, 0xAA, 0xAA, 0x55, 0x55, 0x95, 0x55, 0x55, 0x55, 
    0xA5, 0xA6, 0xAA, 0xAA, 0x9A, 0xA9, 0x5A, 0x95, 0xAA, 0x9A, 0x56, 0x95, 
    0x6A, 0x6A, 0xAA, 0x6A, 0x5A, 0x55, 0xA5, 0xA5, 0x59, 0xA9, 0x55, 0x59, 
    0x65, 0x55, 0x55, 0x95, 0xA6, 0x95, 0x56, 0x59, 0x96, 0xAA, 0xAA, 0x56, 
    0x15, 0x49, 0x59, 0x55, 0xA9, 0x59, 0x95, 0xAA, 0x99, 0x55, 0xA5, 0x6A, 
    0xA5, 0x55, 0xAA, 0xAA, 0x69, 0x55, 0x55, 0xA9, 0x55, 0x55, 0x55, 0xAA, 
    0x96, 0x95, 0xA9, 0xA9, 0x59, 0x56, 0x55, 0x55, 0x99, 0x99, 0x55, 0x65, 
    0x65, 0xA9, 0x55, 0x55, 0xA5, 0xAA, 0xAA, 0x9A, 0xA6, 0x99, 0x65, 0x66, 
    0x9A, 0x56, 0x95, 0x5A, 0x55, 0x55, 0xA9, 0xAA, 0x6A, 0x55, 0xAA, 0x96, 
    0xA6, 0xAA, 0xA5, 0x55, 0x15, 0xA1, 0x29, 0x80, 0x58, 0x25, 0x65, 0x69, 
    0x56, 0x50, 0xA9, 0x5A, 0xA9, 0x16, 0x69, 0x21, 0x5A, 0x55, 0x29, 0x50, 
    0x55, 0x25, 0x2A, 0x6A, 0xAA, 0x9A, 0xA2, 0x94, 0x96, 0xA5, 0x80, 0x14, 
    0x94, 0x41, 0x9A, 0xAA, 0xA4, 0xAA, 0xAA, 0xAA, 0x56, 0xA5, 0x6A, 0x55, 
    0xAA, 0x56, 0x55, 0x28, 0x55, 0xAA, 0x56, 0xA5, 0xAA, 0xAA, 0x59, 0x56, 
    0xA5, 0x6A, 0x55, 0x55, 0x55, 0x55, 0xAA, 0xAA, 0xAA, 0xAA, 0xAA, 0xA8, 
    0xAA, 0x55, 0x65, 0xA1, 0x6A, 0x55, 0xAA, 0xAA, 0x5A, 0x55, 0x55, 0xAA, 
    0x56, 0x21, 0x6A, 0x10, 0x55, 0xA8, 0xAA, 0x6A, 0x55, 0x55, 0xA9, 0x0A, 
    0x28, 0x21, 0xAA, 0xAA, 0x5A, 0x55, 0x55, 0x55, 0x15, 0xAA, 0x2A, 0x55, 
    0x55, 0x55, 0x51, 0x95, 0xAA, 0x95, 0xAA, 0xAA, 0xAA, 0xA5, 0xAA, 0x56, 
    0xA5, 0x2A, 0x98, 0x45, 0x85, 0xAA, 0x6A, 0x55, 0xAA, 0xA6, 0x5A, 0x55, 
    0x15, 0xA8, 0xAA, 0x1A, 0x45, 0x55, 0xAA, 0x56, 0x55, 0x69, 0xA5, 0x55, 
    0x59, 0x16, 0xA2, 0x95, 0xAA, 0x56, 0xA5, 0x6A, 0x95, 0x6A, 0x02, 0xAA, 
    0x6A, 0x55, 0x55, 0x15, 0xA5, 0xAA, 0x25, 0x55, 0x01, 0x50, 0x15, 0x00, 
    0x55, 0x55, 0x66, 0x95, 0x55, 0x61, 0x99, 0x92, 0x65, 0x96, 0x65, 0x9A, 
    0x85, 0x25, 0x19, 0x99, 0x5A, 0x95, 0x55, 0x55, 0x6A, 0x65, 0x65, 0xA5, 
    0xA6, 0x54, 0x5A, 0x95, 0xA6, 0xAA, 0xAA, 0xAA, 0xAA, 0xAA, 0xAA, 0xAA, 
    0x96, 0xAA, 0xAA, 0x95, 0xAA, 0x56, 0xA5, 0xA9, 0x9A, 0x6A, 0x56, 0xA5, 
    0xAA, 0x5A, 0x99, 0x16, 0xA9, 0xAA, 0x56, 0x55, 0xA9, 0x6A, 0x6A, 0x59, 
    0x99, 0x15, 0x56, 0x95, 0x5A, 0x99, 0x9A, 0x66, 0x52, 0x65, 0x9A, 0xAA, 
    0xAA, 0x55, 0x65, 0x65, 0x95, 0xA5, 0x6A, 0x69, 0x69, 0xA9, 0xAA, 0xAA, 
    0xAA, 0x55, 0x89, 0xAA, 0xAA, 0xA6, 0xAA, 0x66, 0x51, 0x56, 0x56, 0x55, 
    0xA9, 0x6A, 0x56, 0x99, 0x65, 0x56, 0x55, 0x55, 0x06, 0x55, 0x6A, 0x95, 
    0x59, 0x55, 0x56, 0x66, 0xA5, 0x6A, 0x65, 0xAA, 0xA6, 0xA9, 0xAA, 0x2A, 
    0x55, 0x55, 0x55, 0x95, 0xAA, 0x55, 0x55, 0x58, 0x55, 0x55, 0x96, 0x9A, 
    0xA5, 0xAA, 0x59, 0x59, 0x56, 0x95, 0x59, 0x55, 0xAA, 0x9A, 0x5A, 0x55, 
    0x56, 0xAA, 0xA8, 0x5A, 0x55, 0x55, 0x59, 0x69, 0xAA, 0x6A, 0x55, 0x55, 
    0x69, 0xA8, 0x2A, 0xA6, 0x58, 0x68, 0x01, 0x61, 0x56, 0x69, 0x45, 0x2A, 
    0xA8, 0xA2, 0x8A, 0x2A, 0x5A, 0x56, 0x54, 0x5A, 0x55, 0x04, 0x1A, 0x90, 
    0x85, 0x52, 0x90, 0x16, 0x52, 0x45, 0x29, 0x8A, 0x08, 0x48, 0x11, 0x51, 
    0x84, 0x6A, 0x84, 0xA0, 0x1A, 0x05, 0x54, 0x19, 0x96, 0x52, 0x60, 0x15, 
    0x40, 0x25, 0x51, 0x24, 0x28, 0x1A, 0x60, 0xA9, 0x8A, 0x28, 0x04, 0x00, 
    0x20, 0x00, 0x85, 0xAA, 0xA8, 0x41, 0x80, 0xA1, 0xAA, 0x02, 0x14, 0x05, 
    0x15, 0x64, 0x28, 0x44, 0xA8, 0x0A, 0x00, 0x1A, 0x88, 0x18, 0x85, 0x28, 
    0x00, 0x94, 0x95, 0x59, 0x28, 0x65, 0x91, 0x80, 0x4A, 0x58, 0x64, 0x95, 
    0x05, 0x88, 0x06, 0x08, 0x58, 0x41, 0x81, 0x20, 0x55, 0x92, 0x20, 0x26, 
    0x2A, 0xAA, 0x94, 0x51, 0x94, 0xA2, 0x48, 0xA2, 0x00, 0x01, 0x54, 0x92, 
    0x96, 0xA5, 0x01, 0x06, 0x42, 0x49, 0x18, 0x82, 0x20, 0x16, 0x00, 0x00, 
    0x80, 0x48, 0xAA, 0x56, 0x95, 0x55, 0x40, 0x10, 0x55, 0x05, 0x84, 0xAA, 
    0xA2, 0xA6, 0x05, 0x40, 0x55, 0x55, 0x21, 0x81, 0x00, 0x46, 0x00, 0x00, 
    0x60, 0x15, 0x05, 0xA4, 0x01, 0x00, 0x22, 0x00, 0x55, 0xA5, 0xA6, 0x61, 
    0x95, 0x9A, 0x62, 0x59, 0x65, 0x95, 0xAA, 0x5A, 0x59, 0x95, 0x5A, 0x6A, 
    0x5A, 0xA9, 0x6A, 0x65, 0x55, 0x55, 0xAA, 0xA6, 0x96, 0x99, 0x69, 0xA9, 
    0x95, 0xAA, 0x5A, 0xAA, 0xA6, 0xAA, 0x9A, 0xAA, 0xAA, 0xAA, 0xA9, 0x66, 
    0x96, 0x56, 0xA5, 0x6A, 0x59, 0xAA, 0x56, 0x96, 0xA6, 0x65, 0x5A, 0xA9, 
    0xAA, 0x6A, 0x55, 0x55, 0xA9, 0xAA, 0xAA, 0xAA, 0xAA, 0xAA, 0xA9, 0xAA, 
    0xAA, 0xAA, 0xAA, 0xAA, 0x6A, 0x55, 0x9A, 0x9A, 0xA6, 0x6A, 0x55, 0x5A, 
    0x55, 0xA5, 0xA5, 0x5A, 0xAA, 0xAA, 0xAA, 0x6A, 0x56, 0x55, 0xA9, 0xAA, 
    0x6A, 0x55, 0xAA, 0x56, 0x25, 0x6A, 0x55, 0x59, 0x6A, 0xAA, 0x66, 0x55, 
    0x99, 0x56, 0x95, 0x95, 0x55, 0xAA, 0xAA, 0xA6, 0x55, 0x55, 0x9A, 0x65, 
    0xA9, 0x6A, 0x66, 0x9A, 0x6A, 0xA6, 0x65, 0x55, 0x5A, 0xA9, 0xAA, 0xAA, 
    0x9A, 0x59, 0x98, 0x56, 0x55, 0x59, 0x99, 0xA9, 0xAA, 0x69, 0x55, 0x65, 
    0x55, 0xA5, 0x9A, 0xA9, 0xAA, 0x56, 0x55, 0x55, 0x55, 0x9A, 0x9A, 0xAA, 
    0x66, 0x55, 0x95, 0x55, 0xA5, 0x6A, 0x55, 0x55, 0x61, 0xA2, 0xAA, 0x1A, 
    0x05, 0x85, 0x66, 0x69, 0x64, 0x62, 0x59, 0x6A, 0xA5, 0x95, 0x26, 0x56, 
    0x9A, 0x55, 0x14, 0x65, 0x69, 0xA1, 0x96, 0x65, 0xA5, 0x41, 0x26, 0xA9, 
    0x5A, 0x58, 0x29, 0xAA, 0xAA, 0xAA, 0xAA, 0xAA, 0xAA, 0xAA, 0xAA, 0xAA, 
    0x4A, 0xA9, 0xAA, 0xAA, 0x45, 0x55, 0x65, 0x15, 0x8A, 0xA5, 0x55, 0xA5, 
    0xA8, 0x49, 0xA9, 0x95, 0x85, 0x9A, 0x55, 0x95, 0xA5, 0x96, 0x65, 0x99, 
    0x9A, 0xA6, 0x16, 0x96, 0xA6, 0x5A, 0x6A, 0x95, 0x26, 0x9A, 0xAA, 0x4A, 
    0xAA, 0x6A, 0x5A, 0xA5, 0x66, 0x99, 0xAA, 0xA9, 0xAA, 0x56, 0x45, 0xAA, 
    0x9A, 0x5A, 0xA8, 0xAA, 0x6A, 0x9A, 0x96, 0x9A, 0x59, 0x25, 0xA9, 0x69, 
    0xA9, 0x6A, 0x99, 0x6A, 0x9A, 0x96, 0x54, 0x56, 0x55, 0xAA, 0x56, 0x59, 
    0x54, 0x55, 0xA5, 0x59, 0x58, 0x95, 0xAA, 0xAA, 0x96, 0x96, 0xAA, 0x66, 
    0x55, 0xA9, 0x56, 0x96, 0xAA, 0x58, 0x54, 0x55, 0x69, 0x69, 0xA6, 0x95, 
    0xA5, 0x2A, 0x26, 0x95, 0xA9, 0x82, 0xA9, 0xA6, 0xA9, 0x65, 0x54, 0x5A, 
    0x55, 0xA9, 0xAA, 0x59, 0x55, 0x55, 0xA6, 0x56, 0x55, 0x55, 0x55, 0x95, 
    0xA1, 0x98, 0x2A, 0x0A, 0x15, 0x14, 0x55, 0x15, 0x08, 0x0A, 0x80, 0x04, 
    0xA0, 0xA2, 0xAA, 0x0A, 0x5A, 0x14, 0x50, 0x40, 0x84, 0x05, 0x15, 0x48, 
    0x05, 0xA0, 0xA4, 0xAA, 0x54, 0x55, 0xA9, 0x0A, 0x02, 0x04, 0x14, 0x05, 
    0x54, 0x55, 0x55, 0x45, 0x55, 0x55, 0x55, 0x44, 0x04, 0xA9, 0x1A, 0x85, 
    0xAA, 0x55, 0x81, 0x10, 0x00, 0x00, 0x00, 0xA8, 0x5A, 0x05, 0x02, 0xA2, 
    0x22, 0x40, 0x41, 0x55, 0x55, 0x80, 0xA0, 0x6A, 0x15, 0x00, 0x54, 0x25, 
    0x00, 0xA0, 0x00, 0x00, 0xA0, 0xAA, 0xAA, 0x20, 0xA8, 0x5A, 0x15, 0x08, 
    0xA0, 0x20, 0x00, 0x40, 0x55, 0x20, 0x54, 0x55, 0x15, 0x00, 0x55, 0x05, 
    0xA0, 0x8A, 0xAA, 0xA8, 0x82, 0x2A, 0x80, 0x0A, 0x00, 0xA8, 0xAA, 0x2A, 
    0x15, 0xAA, 0x56, 0x55, 0x85, 0xAA, 0x00, 0xA2, 0x40, 0x10, 0x20, 0x00, 
    0x00, 0x80, 0x12, 0x09, 0x00, 0x00, 0x80, 0x62, 0x55, 0x00, 0x56, 0x85, 
    0x82, 0xAA, 0x8A, 0xA2, 0x40, 0x95, 0x00, 0xA0, 0x54, 0x05, 0x00, 0x00, 
    0x55, 0x01, 0x00, 0x02, 0x8A, 0x00, 0x00, 0x00, 0x81, 0xAA, 0x08, 0x2A, 
    0xA2, 0xAA, 0xA8, 0xAA, 0x02, 0x00, 0x14, 0x00, 0x26, 0x58, 0x61, 0xA6, 
    0x26, 0x94, 0x54, 0x55, 0x95, 0x59, 0x05, 0x25, 0x66, 0x4A, 0x22, 0x86, 
    0x69, 0x2A, 0x4A, 0x14, 0xA2, 0x9A, 0x69, 0xA6, 0x99, 0x91, 0x62, 0x08, 
    0x44, 0x29, 0x45, 0x41, 0x55, 0x95, 0x98, 0x66, 0x69, 0x5A, 0x55, 0x58, 
    0x65, 0xA9, 0x96, 0x1A, 0x51, 0xA4, 0xA8, 0x5A, 0x95, 0x0A, 0x56, 0xA9, 
    0x4A, 0x95, 0xA6, 0x2A, 0x28, 0x42, 0x91, 0x09, 0x66, 0x62, 0xAA, 0x4A, 
    0x55, 0x9A, 0xAA, 0x86, 0x46, 0xA0, 0x64, 0x60, 0x15, 0x10, 0x1A, 0x84, 
    0x20, 0x50, 0x66, 0x60, 0xAA, 0x46, 0x94, 0x56, 0x55, 0xAA, 0x46, 0x5A, 
    0x05, 0xAA, 0xA2, 0x61, 0x82, 0xA4, 0xAA, 0xAA, 0x86, 0xA5, 0x86, 0x6A, 
    0x9A, 0xA4, 0x56, 0xAA, 0xA4, 0x08, 0x54, 0x55, 0x51, 0x66, 0xA1, 0x89, 
    0x25, 0xA6, 0xAA, 0x2A, 0x95, 0xA0, 0x96, 0x1A, 0xA6, 0xAA, 0x99, 0x6A, 
    0x55, 0xAA, 0x56, 0x81, 0x60, 0x6A, 0x2A, 0x11, 0x59, 0x95, 0x2A, 0xAA, 
    0xAA, 0xAA, 0x6A, 0x55, 0x56, 0x95, 0xA8, 0xAA, 0x2A, 0x56, 0x49, 0x51, 
    0x94, 0x56, 0xAA, 0x91, 0x50, 0x9A, 0xAA, 0x2A, 0x01, 0x80, 0x22, 0x08, 
    0x92, 0x99, 0xA2, 0x56, 0x24, 0x18, 0x66, 0x16, 0x9A, 0xAA, 0x55, 0x69, 
    0x10, 0x45, 0x24, 0xA2, 0x11, 0x15, 0x56, 0x18, 0x99, 0x48, 0x99, 0x58, 
    0x95, 0xAA, 0x55, 0x65, 0xA8, 0xAA, 0x80, 0x6A, 0xAA, 0xAA, 0xAA, 0xAA, 
    0x5A, 0xA2, 0x6A, 0x18, 0x66, 0x55, 0xA5, 0xAA, 0x29, 0xA8, 0x10, 0xA0, 
    0xAA, 0xAA, 0x1A, 0x56, 0x65, 0x6A, 0x55, 0x55, 0x15, 0x25, 0x2A, 0xA6, 
    0x5A, 0xAA, 0x52, 0x65, 0x05, 0x52, 0x55, 0xA6, 0x6A, 0x44, 0x42, 0xA0, 
    0x52, 0x55, 0x50, 0x55, 0xA9, 0x4A, 0x46, 0x55, 0x55, 0x55, 0x95, 0x96, 
    0xAA, 0xA6, 0xAA, 0x26, 0x41, 0x18, 0xAA, 0x68, 0x0A, 0x40, 0x55, 0x55, 
    0xA9, 0x54, 0x95, 0x2A, 0x01, 0x96, 0x55, 0x45, 0x55, 0x62, 0x29, 0xAA, 
    0x46, 0x55, 0x55, 0x69, 0x95, 0x55, 0x56, 0x9A, 0x56, 0xA5, 0xAA, 0xA6, 
    0x55, 0x55, 0x55, 0x95, 0xAA, 0x46, 0x55, 0x85, 0x42, 0x56, 0xAA, 0x55, 
    0xA5, 0x2A, 0x0A, 0x10, 0x54, 0x54, 0x61, 0x55, 0x8A, 0x56, 0x55, 0x55, 
    0x55, 0x65, 0xA9, 0x88, 0x56, 0x55, 0x90, 0x55, 0x15, 0x56, 0x59, 0x45, 
    0x01, 0xA0, 0x2A, 0x00, 0xA5, 0xAA, 0x6A, 0xAA, 0x62, 0xA2, 0xA5, 0x58, 
    0x66, 0x95, 0x59, 0x16, 0x54, 0x6A, 0xA0, 0xA2, 0x91, 0x65, 0xA9, 0x5A, 
    0x69, 0x99, 0xAA, 0x11, 0x55, 0xA1, 0xA8, 0xAA, 0xAA, 0xAA, 0xA9, 0xA9, 
    0x5A, 0x55, 0x48, 0xAA, 0xAA, 0x2A, 0x98, 0xAA, 0x25, 0x10, 0x54, 0x06, 
    0xA0, 0x55, 0x24, 0x56, 0x98, 0x46, 0x55, 0x89, 0xA4, 0x6A, 0xA9, 0x5A, 
    0x55, 0x51, 0x54, 0x54, 0xAA, 0xAA, 0xAA, 0x2A, 0x45, 0x19, 0x5A, 0x85, 
    0x0A, 0x20, 0x51, 0xA9, 0x5A, 0x55, 0xA2, 0x2A, 0x54, 0x15, 0x85, 0xA8, 
    0x04, 0x56, 0x11, 0x95, 0xA2, 0x55, 0x14, 0x10, 0x55, 0x55, 0x01, 0x14, 
    0xA4, 0x00, 0x19, 0x2A, 0x28, 0x1A, 0x02, 0x22, 0x15, 0x50, 0x15, 0x11, 
    0x02, 0xAA, 0xAA, 0x5A, 0x05, 0x56, 0x55, 0x26, 0x5A, 0x50, 0x41, 0x2A, 
    0x86, 0x5A, 0x29, 0x80, 0xA8, 0x66, 0x0A, 0xA1, 0x14, 0x5A, 0x09, 0x00, 
    0x55, 0x88, 0x55, 0x01, 0x52, 0x69, 0xA5, 0x0A, 0x86, 0x46, 0x52, 0x55, 
    0xAA, 0x56, 0x81, 0x48, 0x55, 0xA8, 0x00, 0x40, 0x55, 0x08, 0x2A, 0xA9, 
    0x9A, 0x0A, 0x52, 0x92, 0x02, 0xA0, 0x2A, 0x00, 0x80, 0x50, 0x00, 0x00, 
    0x22, 0x50, 0x00, 0x00, 0x02, 0x11, 0x45, 0x01, 0x00, 0x02, 0x00, 0x80, 
    0x00, 0x01, 0x02, 0x00, 0xA2, 0x80, 0x01, 0x00, 0x00, 0x00, 0x00, 0x04, 
    0x08, 0x00, 0x00, 0x80, 0x02, 0x00, 0x00, 0x00, 0x00, 0x00, 0x00, 0x02, 
    0x04, 0x00, 0x00, 0x00, 0x00, 0x00, 0x04, 0x01, 0x05, 0x00, 0x04, 0x10, 
    0x00, 0x04, 0x50, 0x00, 0x00, 0x00, 0x00, 0x00, 0x44, 0x80, 0x42, 0x08, 
    0x00, 0x02, 0x00, 0x00, 0x00, 0x02, 0x00, 0x00, 0x40, 0x00, 0x00, 0x00, 
    0x00, 0x00, 0x00, 0x00, 0x00, 0x10, 0x00, 0x00, 0x00, 0x0A, 0x80, 0x00, 
    0x02, 0x00, 0x00, 0x00, 0x00, 0x00, 0x00, 0x40, 0x10, 0x00, 0x00, 0x08, 
    0x50, 0x00, 0x01, 0x08, 0x00, 0x40, 0x00, 0x00, 0x00, 0x00, 0x00, 0x04, 
    0x00, 0x04, 0x00, 0x00, 0x80, 0x00, 0x05, 0x00, 0x00, 0x20, 0x00, 0x01, 
    0x00, 0x00, 0x00, 0x80, 0x00, 0x01, 0x40, 0x00, 0x10, 0x00, 0x00, 0x00, 
    0x00, 0x02, 0x00, 0x00, 0x00, 0xA0, 0x00, 0x00, 0x00, 0x00, 0x80, 0x42, 
    0x01, 0x00, 0x00, 0x00, 0x00, 0x05, 0x00, 0x00, 0x00, 0x00, 0x00, 0x00, 
    0xA9, 0x55, 0x5A, 0x95, 0xA6, 0x66, 0x66, 0x65, 0x96, 0xA9, 0x56, 0xA6, 
    0x5A, 0x96, 0xAA, 0xA9, 0x95, 0x55, 0x65, 0x55, 0x96, 0x59, 0x95, 0x5A, 
    0x96, 0x15, 0xAA, 0xAA, 0xAA, 0xAA, 0xAA, 0xAA, 0xAA, 0xA6, 0x99, 0xA6, 
    0xAA, 0xAA, 0xAA, 0xAA, 0xA6, 0xA6, 0xA5, 0xA5, 0x69, 0x5A, 0x9A, 0x55, 
    0x95, 0x9A, 0x55, 0x99, 0x56, 0x95, 0x95, 0x5A, 0x56, 0x95, 0x95, 0xA6, 
    0x55, 0xA9, 0x6A, 0xAA, 0x69, 0x5A, 0x6A, 0xA6, 0x59, 0x55, 0x96, 0x69, 
    0xAA, 0xAA, 0xA6, 0xAA, 0x6A, 0xA9, 0x9A, 0xAA, 0xA6, 0xA9, 0x5A, 0x9A, 
    0xAA, 0x55, 0x56, 0x65, 0xA5, 0xAA, 0xAA, 0x5A, 0x69, 0x94, 0xA6, 0x55, 
    0x99, 0xA6, 0xAA, 0xAA, 0x6A, 0x56, 0x59, 0xA5, 0xA5, 0x65, 0x55, 0x55, 
    0x95, 0xA5, 0xAA, 0x6A, 0x55, 0x95, 0x65, 0x55, 0xA9, 0x5A, 0x95, 0x6A, 
    0xAA, 0xAA, 0x6A, 0x65, 0x95, 0x96, 0x56, 0xA5, 0xAA, 0x56, 0x55, 0xA9, 
    0x5A, 0xA5, 0xA5, 0xAA, 0x56, 0x65, 0x95, 0x5A, 0x55, 0xA5, 0xA5, 0x6A, 
    0x56, 0xAA, 0x56, 0xA5, 0x6A, 0xA6, 0x9A, 0x6A, 0xAA, 0xAA, 0x95, 0x56, 
    0xA9, 0xAA, 0xA9, 0xAA, 0x96, 0xA6, 0x69, 0x65, 0xA5, 0x5A, 0x55, 0x99, 
    0x95, 0x99, 0xAA, 0x9A, 0xAA, 0x65, 0xA6, 0x56, 0x6A, 0x59, 0x96, 0x6A, 
    0x96, 0x9A, 0x96, 0xA5, 0x6A, 0x5A, 0xA9, 0xAA, 0xAA, 0xAA, 0xAA, 0xAA, 
    0x9A, 0x6A, 0xA6, 0xAA, 0xA9, 0xAA, 0x9A, 0xAA, 0x65, 0x95, 0xA5, 0xAA, 
    0xAA, 0x56, 0x95, 0x5A, 0x99, 0xA6, 0x65, 0xA9, 0x66, 0x55, 0x69, 0x99, 
    0xAA, 0x95, 0x56, 0x96, 0xA9, 0xAA, 0x5A, 0x69, 0x5A, 0xA5, 0x96, 0x5A, 
    0x6A, 0xA5, 0x6A, 0x95, 0x56, 0x5A, 0xAA, 0xAA, 0xAA, 0xAA, 0xAA, 0xAA, 
    0x55, 0x56, 0xA6, 0x96, 0xAA, 0xA6, 0x55, 0x95, 0x99, 0xAA, 0x55, 0x95, 
    0xA5, 0x66, 0x69, 0x59, 0xA5, 0xAA, 0x6A, 0x5A, 0x96, 0xA6, 0x95, 0x6A, 
    0xAA, 0x59, 0xA9, 0x96, 0x95, 0x96, 0xAA, 0x56, 0x5A, 0x55, 0x59, 0x65, 
    0xA9, 0x5A, 0xA5, 0xA6, 0xAA, 0xAA, 0x9A, 0x96, 0x5A, 0xA6, 0x55, 0x55, 
    0x56, 0x55, 0x55, 0xA5, 0xA5, 0xAA, 0x5A, 0x5A, 0x56, 0x65, 0x6A, 0x55, 
    0x55, 0x95, 0x9A, 0x6A, 0x59, 0xAA, 0x56, 0x95, 0x65, 0x65, 0x55, 0xA9, 
    0x5A, 0x96, 0x5A, 0x55, 0xA9, 0xAA, 0xAA, 0xAA, 0x56, 0x65, 0x65, 0xAA, 
    0x95, 0x55, 0xA5, 0x5A, 0x94, 0x56, 0x2A, 0x62, 0x9A, 0x59, 0xA6, 0xA5, 
    0x96, 0x95, 0xAA, 0xA9, 0xA6, 0xA9, 0xA5, 0x95, 0xA5, 0xA9, 0xA9, 0xAA, 
    0xAA, 0xAA, 0xAA, 0xAA, 0x9A, 0x56, 0x56, 0xAA, 0xAA, 0xAA, 0xAA, 0xAA, 
    0xAA, 0x56, 0x65, 0x95, 0x86, 0x19, 0x16, 0x55, 0x69, 0x55, 0x59, 0x69, 
    0x55, 0x59, 0x55, 0x55, 0x46, 0x51, 0x5A, 0x55, 0x55, 0xA9, 0xAA, 0x55, 
    0x95, 0xA8, 0x0A, 0x6A, 0x5A, 0xA9, 0x56, 0x85, 0x55, 0x55, 0xA8, 0xAA, 
    0x56, 0x05, 0x82, 0xAA, 0x55, 0x65, 0x65, 0x6A, 0xA5, 0x10, 0x56, 0x95, 
    0x95, 0xAA, 0x55, 0x28, 0xA5, 0x80, 0x59, 0x81, 0x69, 0x2A, 0x6A, 0x6A, 
    0x56, 0x54, 0x55, 0x45, 0x08, 0x1A, 0xA8, 0x5A, 0x55, 0x59, 0xA8, 0x56, 
    0x59, 0x55, 0x55, 0x66, 0xA1, 0x5A, 0xA5, 0x66, 0xAA, 0xAA, 0x9A, 0x6A, 
    0x96, 0x56, 0x21, 0x52, 0x65, 0x99, 0x55, 0x95, 0x58, 0x69, 0x65, 0x9A, 
    0x54, 0x55, 0x55, 0x55, 0x59, 0x55, 0xA2, 0x6A, 0x55, 0xAA, 0x2A, 0x58, 
    0x55, 0x99, 0x66, 0xA9, 0x8A, 0x8A, 0x5A, 0x5A, 0x02, 0xA0, 0x2A, 0x02, 
    0x69, 0xA4, 0x89, 0x69, 0x5A, 0x5A, 0xA2, 0x95, 0x99, 0x59, 0x86, 0x15, 
    0x92, 0x56, 0x16, 0xA5, 0x65, 0xA6, 0xA6, 0x6A, 0x98, 0x18, 0x59, 0xA5, 
    0xA5, 0x9A, 0x9A, 0xA5, 0xA6, 0x9A, 0xAA, 0x9A, 0x59, 0x55, 0xA9, 0x69, 
    0xA9, 0x6A, 0x96, 0x9A, 0x55, 0x55, 0x65, 0x95, 0x16, 0xA9, 0x99, 0xA5, 
    0x15, 0xA9, 0xA9, 0xAA, 0x9A, 0x2A, 0x14, 0x96, 0xA9, 0x65, 0x6A, 0x6A, 
    0x65, 0xAA, 0x65, 0x6A, 0x59, 0x69, 0x59, 0x55, 0x5A, 0x56, 0x56, 0x86, 
    0x6A, 0x96, 0x19, 0x58, 0x54, 0xA6, 0x96, 0x61, 0x99, 0x95, 0x95, 0x56, 
    0x56, 0x54, 0x69, 0xA6, 0x66, 0x65, 0xAA, 0x55, 0x16, 0x40, 0x68, 0x95, 
    0x95, 0xA6, 0x6A, 0x95, 0x56, 0x16, 0x59, 0x9A, 0x59, 0x56, 0x59, 0x9A, 
    0x96, 0x55, 0x9A, 0x6A, 0xA5, 0x69, 0x66, 0x69, 0xA9, 0x5A, 0x19, 0x2A, 
    0x66, 0xA2, 0x59, 0x56, 0x95, 0x9A, 0x55, 0x65, 0x59, 0x55, 0x2A, 0x91, 
    0x99, 0x9A, 0x65, 0x65, 0x51, 0x6A, 0x96, 0x51, 0x6A, 0xA5, 0x55, 0x9A, 
    0xA5, 0x6A, 0xA6, 0x96, 0x25, 0x66, 0x82, 0x96, 0x56, 0x56, 0x5A, 0x66, 
    0xA9, 0x5A, 0x19, 0x2A, 0x66, 0x98, 0x5A, 0x56, 0x65, 0x55, 0x54, 0x15, 
    0xA6, 0x56, 0xA5, 0x95, 0x55, 0x6A, 0x15, 0x59, 0x9A, 0xAA, 0x8A, 0xA6, 
    0x95, 0xA5, 0xAA, 0x6A, 0x6A, 0x56, 0x69, 0xA5, 0x9A, 0x6A, 0xA6, 0x9A, 
    0x5A, 0x66, 0x66, 0x56, 0xA9, 0x9A, 0x9A, 0x9A, 0x95, 0x5A, 0x55, 0x25, 
    0x25, 0x5A, 0x65, 0x59, 0x6A, 0xA5, 0xAA, 0x66, 0x56, 0x95, 0x15, 0xA9, 
    0x59, 0x95, 0xA9, 0xA5, 0x69, 0xA9, 0x56, 0x66, 0x6A, 0xAA, 0xAA, 0x99, 
    0x5A, 0x99, 0x56, 0x56, 0x55, 0x56, 0x16, 0x55, 0x66, 0x60, 0x55, 0xA5, 
    0x95, 0x59, 0x65, 0x6A, 0x5A, 0x6A, 0x96, 0x46, 0x95, 0xAA, 0x95, 0x55, 
    0x05, 0x90, 0x69, 0x9A, 0xAA, 0x66, 0xAA, 0x99, 0x59, 0x18, 0x51, 0x95, 
    0x6A, 0x65, 0x99, 0x96, 0x6A, 0x96, 0xA5, 0x56, 0x65, 0x96, 0x69, 0x59, 
    0x9A, 0x59, 0x69, 0x95, 0xA8, 0xA5, 0xA6, 0xAA, 0x88, 0x65, 0xA9, 0x26, 
    0x65, 0x65, 0x65, 0x65, 0x56, 0x65, 0x95, 0xA5, 0x55, 0x42, 0x4A, 0x1A, 
    0x59, 0x65, 0x5A, 0x55, 0xA5, 0xA5, 0x02, 0x5A, 0x95, 0xA6, 0x66, 0xA6, 
    0x5A, 0xAA, 0x6A, 0x55, 0xAA, 0x5A, 0x15, 0x20, 0x96, 0xA6, 0x99, 0x89, 
    0x96, 0xA6, 0x69, 0x56, 0xA5, 0x4A, 0xA9, 0x55, 0x96, 0x8A, 0x99, 0x59, 
    0x6A, 0x99, 0x18, 0x66, 0x4A, 0xA6, 0x6A, 0xA6, 0xA6, 0x48, 0xA9, 0xAA, 
    0xAA, 0xA9, 0xAA, 0xAA, 0x9A, 0x96, 0x65, 0x96, 0xA9, 0x9A, 0x96, 0x9A, 
    0x99, 0x9A, 0x96, 0x56, 0x55, 0x6A, 0x65, 0xA6, 0x65, 0x19, 0x5A, 0x5A, 
    0xA5, 0x96, 0x55, 0x9A, 0x6A, 0x56, 0x56, 0x19, 0x95, 0xA9, 0x6A, 0xAA, 
    0x6A, 0xA9, 0x6A, 0x56, 0x95, 0x96, 0x99, 0x95, 0x69, 0x69, 0x55, 0xAA, 
    0x6A, 0xA5, 0xA9, 0xAA, 0x65, 0x99, 0x65, 0x99, 0xAA, 0x5A, 0x69, 0x25, 
    0x95, 0x95, 0x6A, 0x69, 0x99, 0x80, 0x6A, 0x5A, 0x69, 0xA6, 0xAA, 0xA6, 
    0x66, 0x66, 0xA5, 0x95, 0xA2, 0x9A, 0xAA, 0xA5, 0x56, 0x6A, 0xAA, 0x56, 
    0xA9, 0x6A, 0x6A, 0x9A, 0xAA, 0x5A, 0x5A, 0x6A, 0xAA, 0xAA, 0xAA, 0x6A, 
    0x25, 0x59, 0x96, 0x94, 0xA5, 0x5A, 0x96, 0xAA, 0x55, 0x5A, 0x15, 0x95, 
    0x59, 0xA6, 0xA9, 0x6A, 0xAA, 0x6A, 0xAA, 0x66, 0x59, 0xAA, 0xA6, 0x66, 
    0x99, 0x65, 0xAA, 0xA9, 0xAA, 0xAA, 0x26, 0x16, 0xA9, 0x9A, 0x2A, 0x82, 
    0xA6, 0xAA, 0x24, 0x6A, 0xAA, 0x01, 0xAA, 0x9A, 0x54, 0x56, 0x15, 0x15, 
    0xA5, 0x6A, 0xAA, 0x55, 0x4A, 0x61, 0x11, 0xA4, 0xAA, 0x56, 0x15, 0x55, 
    0x1A, 0x5A, 0xAA, 0xAA, 0xAA, 0xAA, 0xAA, 0xAA, 0x59, 0x5A, 0x9A, 0xA5, 
    0xA9, 0x4A, 0x95, 0xAA, 0xA9, 0xA6, 0x55, 0x19, 0x68, 0x6A, 0x54, 0x96, 
    0x95, 0x68, 0xAA, 0x28, 0xA9, 0x6A, 0x29, 0x59, 0x85, 0x99, 0x5A, 0x5A, 
    0xAA, 0x89, 0xAA, 0x5A, 0x5A, 0x99, 0x05, 0x15, 0x45, 0x69, 0x66, 0x96, 
    0xA2, 0x9A, 0x66, 0xAA, 0xAA, 0xAA, 0xAA, 0xAA, 0xA9, 0x61, 0x9A, 0x49, 
    0xA6, 0x14, 0x66, 0x95, 0x96, 0xAA, 0x55, 0xA9, 0x06, 0x44, 0x95, 0x6A, 
    0x96, 0xAA, 0x5A, 0x8A, 0xAA, 0xA5, 0x98, 0x9A, 0xAA, 0x65, 0xA9, 0x59, 
    0x55, 0x66, 0xA8, 0x56, 0x54, 0x55, 0x95, 0x55, 0xA9, 0xAA, 0xAA, 0x99, 
    0xAA, 0x69, 0x55, 0xA9, 0x8A, 0x65, 0x52, 0x55, 0x56, 0x59, 0x59, 0x65, 
    0xAA, 0x68, 0x96, 0x55, 0x15, 0xA2, 0x5A, 0x55, 0x46, 0xA2, 0xA6, 0x0A, 
    0x04, 0xAA, 0x96, 0xA5, 0x16, 0x88, 0x55, 0xA9, 0x2A, 0x8A, 0x55, 0x25, 
    0x29, 0xA2, 0x24, 0x00, 0xA5, 0xA6, 0x6A, 0x99, 0xAA, 0xA6, 0x59, 0xAA, 
    0x65, 0x6A, 0x96, 0x96, 0x95, 0x6A, 0x65, 0x5A, 0x5A, 0x95, 0xAA, 0x55, 
    0xA6, 0x95, 0x6A, 0xAA, 0x95, 0xAA, 0xAA, 0xAA, 0xAA, 0xAA, 0xAA, 0xAA, 
    0x9A, 0xAA, 0x95, 0x95, 0xA9, 0xAA, 0xA9, 0xAA, 0x55, 0x55, 0x55, 0x96, 
    0x66, 0x6A, 0x59, 0xA5, 0x45, 0xA5, 0x5A, 0x69, 0xA9, 0x69, 0x55, 0xAA, 
    0xAA, 0xA5, 0x95, 0x69, 0xAA, 0xAA, 0xAA, 0xAA, 0x56, 0x99, 0xAA, 0xA5, 
    0x6A, 0x5A, 0x96, 0x56, 0xA5, 0xA5, 0x66, 0xAA, 0xAA, 0xAA, 0x95, 0xAA, 
    0x59, 0x55, 0x55, 0xA5, 0x55, 0x65, 0x59, 0x55, 0x95, 0x5A, 0x55, 0xA9, 
    0xA6, 0x60, 0x59, 0x59, 0x55, 0xA5, 0xAA, 0x56, 0xA5, 0x5A, 0xA5, 0x96, 
    0xA6, 0x99, 0xAA, 0x56, 0x95, 0xA9, 0xAA, 0x66, 0x55, 0x55, 0x56, 0x65, 
    0xA9, 0x5A, 0x95, 0xA6, 0xAA, 0xAA, 0x9A, 0x15, 0x56, 0x96, 0x69, 0xA5, 
    0x56, 0x55, 0x55, 0x69, 0x65, 0x95, 0x56, 0x9A, 0x5A, 0x55, 0x65, 0x55, 
    0x5A, 0x55, 0xA5, 0xAA, 0x49, 0xAA, 0x16, 0x95, 0x65, 0x95, 0x56, 0x6A, 
    0xA6, 0x59, 0xAA, 0x55, 0x69, 0xA0, 0xAA, 0xAA, 0xA6, 0xA9, 0x66, 0x54, 
    0x59, 0x5A, 0xA4, 0x9A, 0x56, 0x56, 0xA6, 0x59, 0x99, 0x99, 0xA6, 0x55, 
    0x55, 0xA6, 0x5A, 0x9A, 0x66, 0x5A, 0xA6, 0xA6, 0x9A, 0x6A, 0xAA, 0xAA, 
    0xAA, 0xAA, 0xAA, 0x9A, 0x5A, 0x96, 0x68, 0x2A, 0xA9, 0x6A, 0xA6, 0xAA, 
    0x55, 0x55, 0xA5, 0x65, 0x55, 0x55, 0x69, 0x55, 0x15, 0x55, 0x55, 0x55, 
    0x55, 0x55, 0x5A, 0x96, 0x59, 0x81, 0x95, 0x6A, 0x69, 0x6A, 0x6A, 0x6A, 
    0x6A, 0x9A, 0xA9, 0x69, 0x5A, 0x66, 0x66, 0x96, 0x99, 0xA5, 0x99, 0x55, 
    0x9A, 0xA9, 0x95, 0x95, 0x96, 0x56, 0xAA, 0x65, 0x56, 0x65, 0x5A, 0x26, 
    0x66, 0x69, 0x56, 0x95, 0x56, 0x91, 0xA6, 0x98, 0x55, 0xA9, 0x6A, 0x5A, 
    0xA6, 0x96, 0x5A, 0x55, 0x59, 0xA6, 0x58, 0x55, 0x45, 0x55, 0x69, 0x6A, 
    0x55, 0x19, 0x56, 0x59, 0x6A, 0x5A, 0x95, 0x62, 0xA6, 0x56, 0x96, 0x6A, 
    0x5A, 0x6A, 0xA2, 0xAA, 0x69, 0xA9, 0x56, 0x99, 0x55, 0x15, 0x9A, 0xA5, 
    0x59, 0x45, 0x99, 0x99, 0x6A, 0x66, 0x65, 0xAA, 0x69, 0xAA, 0x66, 0xA5, 
    0x95, 0x99, 0x66, 0x9A, 0x91, 0x6A, 0x66, 0x98, 0xA9, 0x69, 0x95, 0x89, 
    0xA9, 0xAA, 0x02, 0x28, 0x9A, 0x91, 0x05, 0x5A, 0x09, 0x65, 0x56, 0x55, 
    0xA5, 0xAA, 0x25, 0x66, 0x58, 0x05, 0x5A, 0x95, 0x11, 0x98, 0x95, 0x9A, 
    0xA4, 0x8A, 0xA8, 0xAA, 0xAA, 0xAA, 0xAA, 0xAA, 0x5A, 0xA9, 0x99, 0x15, 
    0xA9, 0x6A, 0x95, 0xAA, 0x55, 0x56, 0x55, 0x99, 0x26, 0x95, 0x69, 0x66, 
    0x69, 0x65, 0x16, 0xA4, 0x99, 0xA9, 0x22, 0x59, 0x5A, 0x59, 0x69, 0xA5, 
    0x9A, 0xAA, 0xAA, 0xAA, 0x55, 0x56, 0xA2, 0x16, 0x80, 0x55, 0xA9, 0x55, 
    0x95, 0x29, 0x66, 0xAA, 0x2A, 0xAA, 0xAA, 0x4A, 0x66, 0x19, 0xA5, 0x69, 
    0x55, 0xA9, 0x65, 0x40, 0x95, 0xAA, 0x96, 0x6A, 0x0A, 0x40, 0x46, 0x99, 
    0x99, 0xA5, 0xAA, 0x95, 0x51, 0x95, 0xA9, 0xAA, 0xAA, 0xA5, 0xAA, 0x55, 
    0x95, 0xA6, 0x1A, 0x68, 0x54, 0x95, 0x56, 0x59, 0x29, 0x5A, 0x95, 0xAA, 
    0xAA, 0x2A, 0x6A, 0x59, 0x54, 0x55, 0x45, 0x25, 0x4A, 0x55, 0x55, 0x69, 
    0x6A, 0x95, 0xAA, 0x96, 0x56, 0x55, 0x55, 0x55, 0x05, 0x55, 0xA1, 0xAA, 
    0xAA, 0x56, 0x82, 0x54, 0x99, 0xA6, 0x55, 0x99, 0xA9, 0x2A, 0xAA, 0x54, 
    0x09, 0x80, 0x24, 0x00, 0x98, 0xA2, 0x88, 0x41, 0x29, 0x45, 0x6A, 0xAA, 
    0x84, 0x16, 0x26, 0xA1, 0x09, 0x69, 0x85, 0x69, 0xA9, 0x46, 0x45, 0x08, 
    0xA1, 0x55, 0x54, 0x46, 0x02, 0x42, 0xAA, 0xAA, 0xAA, 0xAA, 0x9A, 0xAA, 
    0x42, 0x95, 0x06, 0x45, 0xA8, 0x4A, 0x88, 0x2A, 0x55, 0x60, 0x59, 0x89, 
    0x51, 0x15, 0xA0, 0x18, 0x81, 0x05, 0x56, 0x28, 0x61, 0x85, 0x8A, 0x86, 
    0x11, 0x45, 0x95, 0x84, 0x2A, 0x20, 0x08, 0x6A, 0x04, 0x82, 0x21, 0x45, 
    0x82, 0x18, 0x66, 0x42, 0x60, 0x91, 0x19, 0x22, 0x40, 0xA2, 0x20, 0x88, 
    0x10, 0x40, 0x42, 0x40, 0x11, 0xA5, 0x62, 0x51, 0x55, 0x52, 0xA4, 0x50, 
    0x08, 0x00, 0x80, 0x52, 0x54, 0xA5, 0x8A, 0x12, 0x06, 0x25, 0xA1, 0x92, 
    0x02, 0x89, 0x61, 0x19, 0x81, 0x29, 0x80, 0x10, 0x21, 0x45, 0x10, 0x21, 
    0x68, 0x5A, 0x55, 0xA0, 0x18, 0x62, 0x22, 0x64, 0x55, 0xA4, 0x00, 0x44, 
    0x06, 0x55, 0x40, 0x09, 0x65, 0x55, 0x82, 0x80, 0x69, 0x65, 0x50, 0x54, 
    0x11, 0x46, 0xA5, 0x22, 0x00, 0x8A, 0x46, 0x55, 0x15, 0x90, 0x45, 0xA9, 
    0x00, 0x05, 0xA8, 0x08, 0x00, 0xA0, 0x2A, 0x00, 0xA8, 0x56, 0x86, 0x65, 
    0x6A, 0xA6, 0x95, 0x96, 0x66, 0x59, 0x5A, 0x96, 0xAA, 0x19, 0xAA, 0x65, 
    0x69, 0x5A, 0x99, 0x55, 0x99, 0x6A, 0x5A, 0xA5, 0xA5, 0x46, 0xAA, 0xA5, 
    0xA6, 0xAA, 0x6A, 0x9A, 0x9A, 0x6A, 0x55, 0x55, 0xA9, 0x69, 0xA5, 0xAA, 
    0x6A, 0xA5, 0xAA, 0x69, 0xAA, 0x99, 0x99, 0xA5, 0xA6, 0x65, 0xAA, 0x66, 
    0xA6, 0x15, 0x6A, 0x66, 0xA6, 0xAA, 0x56, 0x5A, 0xA6, 0x99, 0x6A, 0x9A, 
    0x59, 0x5A, 0x55, 0x52, 0x65, 0x55, 0x69, 0x56, 0xA5, 0x66, 0x56, 0xAA, 
    0x55, 0xA5, 0xAA, 0x5A, 0x55, 0x59, 0x66, 0x55, 0x65, 0xA6, 0x94, 0xA9, 
    0x6A, 0x96, 0xA8, 0x55, 0x56, 0x51, 0x96, 0x95, 0x55, 0xA6, 0x66, 0x45, 
    0x5A, 0x55, 0x55, 0x56, 0x99, 0x6A, 0x99, 0x96, 0x95, 0x6A, 0xAA, 0x15, 
    0xA9, 0x2A, 0xA9, 0x96, 0x5A, 0x56, 0x69, 0x96, 0xAA, 0x6A, 0xAA, 0x59, 
    0x95, 0x66, 0x42, 0x69, 0xA5, 0x5A, 0xA5, 0xA5, 0x55, 0x2A, 0x5A, 0x99, 
    0x55, 0x65, 0x59, 0x65, 0x9A, 0x62, 0xA6, 0xA6, 0x59, 0xA6, 0xA9, 0x51, 
    0xA9, 0x56, 0x48, 0xA6, 0x55, 0x95, 0x65, 0xA6, 0xAA, 0x6A, 0x96, 0x12, 
    0x5A, 0x54, 0x61, 0xA5, 0xA6, 0x69, 0x5A, 0x56, 0x55, 0x96, 0xA5, 0x99, 
    0x59, 0xA5, 0x96, 0xA9, 0x9A, 0x9A, 0x96, 0x55, 0x66, 0x99, 0xA9, 0xAA, 
    0xA6, 0x65, 0xAA, 0xAA, 0xAA, 0xAA, 0xAA, 0xAA, 0x5A, 0x96, 0x56, 0x6A, 
    0xA9, 0xAA, 0xAA, 0xAA, 0x55, 0x55, 0x55, 0x12, 0x9A, 0x99, 0x56, 0x55, 
    0x65, 0x55, 0x54, 0x69, 0xAA, 0x69, 0x55, 0x95, 0x56, 0x55, 0x15, 0x15, 
    0x6A, 0xAA, 0x6A, 0x5A, 0x55, 0xAA, 0x1A, 0xAA, 0x6A, 0x19, 0x61, 0x45, 
    0x55, 0x55, 0x19, 0xAA, 0x42, 0xAA, 0x89, 0xAA, 0x55, 0x55, 0xA6, 0x25, 
    0xA5, 0x46, 0x51, 0x55, 0x95, 0xAA, 0x56, 0x52, 0xA2, 0x60, 0x19, 0x59, 
    0x55, 0xA6, 0x68, 0x06, 0x86, 0x54, 0x65, 0x45, 0x40, 0x1A, 0xA8, 0x5A, 
    0x51, 0x69, 0x1A, 0x56, 0x59, 0x55, 0x55, 0xA4, 0xA5, 0x58, 0xA5, 0xAA, 
    0xAA, 0xAA, 0x9A, 0x4A, 0x95, 0x61, 0xA0, 0x10, 0x66, 0x55, 0x55, 0xA9, 
    0x55, 0x69, 0xA6, 0x92, 0x56, 0x55, 0x55, 0x55, 0x5A, 0x56, 0xA9, 0x6A, 
    0x55, 0xAA, 0x6A, 0x45, 0x55, 0x91, 0x8A, 0xA8, 0x1A, 0x48, 0x59, 0x96, 
    0x20, 0xA0, 0x2A, 0x22, 0xA8, 0x14, 0x00, 0x09, 0xA2, 0xA0, 0x44, 0x22, 
    0xA4, 0x69, 0x50, 0x21, 0x05, 0x80, 0x01, 0x25, 0x18, 0x01, 0x02, 0x96, 
    0x88, 0x12, 0x20, 0x26, 0x10, 0xA2, 0x28, 0xAA, 0xAA, 0xAA, 0xA8, 0xA8, 
    0x5A, 0x4A, 0x42, 0x90, 0xA9, 0x4A, 0xA0, 0xAA, 0x04, 0x01, 0x1A, 0xA4, 
    0x81, 0x40, 0x81, 0x50, 0x10, 0x06, 0x45, 0xA1, 0x44, 0x0A, 0x05, 0x20, 
    0x50, 0x11, 0x54, 0x44, 0x24, 0xA8, 0x2A, 0x22, 0x05, 0x62, 0x10, 0x25, 
    0x42, 0x48, 0xA8, 0x25, 0x96, 0x2A, 0x8A, 0x8A, 0x0A, 0x82, 0xA0, 0x96, 
    0x45, 0x60, 0x90, 0x55, 0x42, 0x84, 0x04, 0x41, 0x15, 0x00, 0x45, 0x19, 
    0x0A, 0x80, 0x8A, 0x51, 0x41, 0x85, 0x01, 0x6A, 0x14, 0x00, 0x55, 0x55, 
    0x14, 0x54, 0x44, 0x25, 0x48, 0x65, 0x80, 0x50, 0x12, 0x19, 0x4A, 0x88, 
    0x21, 0xAA, 0x22, 0x80, 0x48, 0x92, 0x12, 0x16, 0x00, 0x80, 0x00, 0x10, 
    0x19, 0x44, 0x81, 0x05, 0xA1, 0x2A, 0x01, 0x02, 0x10, 0x85, 0x00, 0x6A, 
    0x20, 0xA2, 0x18, 0x82, 0x00, 0x88, 0x02, 0x02, 0x14, 0x16, 0x90, 0xA0, 
    0x52, 0x12, 0x48, 0x00, 0x00, 0xA0, 0x2A, 0x00, 0xA4, 0x54, 0x52, 0xA0, 
    0x84, 0x64, 0xA6, 0x89, 0x95, 0x41, 0x96, 0x59, 0x44, 0x64, 0x9A, 0x16, 
    0x41, 0x19, 0xA0, 0x65, 0x80, 0x44, 0x2A, 0x59, 0x90, 0x12, 0x58, 0x80, 
    0x94, 0x26, 0x4A, 0x68, 0x94, 0x56, 0x55, 0x59, 0x69, 0x59, 0x05, 0x1A, 
    0x49, 0x5A, 0x6A, 0xA5, 0x68, 0x9A, 0x56, 0x59, 0xA5, 0x25, 0x52, 0x20, 
    0x4A, 0xA5, 0x96, 0xAA, 0x49, 0x21, 0x11, 0x96, 0x5A, 0x0A, 0x28, 0xA9, 
    0x88, 0x0A, 0x4A, 0x25, 0x89, 0x12, 0x8A, 0x55, 0xA1, 0x8A, 0x25, 0x16, 
    0x29, 0x29, 0x25, 0x25, 0x6A, 0x14, 0xA0, 0x66, 0x55, 0x5A, 0x8A, 0x51, 
    0x96, 0x96, 0x2A, 0x6A, 0x09, 0x80, 0x94, 0xAA, 0x54, 0x8A, 0x15, 0x84, 
    0x5A, 0x68, 0x29, 0x99, 0x26, 0x51, 0x56, 0x69, 0x55, 0xA2, 0x1A, 0x5A, 
    0xA1, 0x95, 0x96, 0x98, 0x41, 0xA1, 0x02, 0xA5, 0x62, 0x4A, 0x64, 0x61, 
    0x48, 0x89, 0x56, 0xA1, 0x89, 0x94, 0x95, 0x6A, 0x64, 0x29, 0x96, 0x40, 
    0x68, 0x29, 0x89, 0x86, 0xAA, 0x5A, 0x69, 0x94, 0xA6, 0x5A, 0x61, 0x61, 
    0xA1, 0x95, 0x42, 0x29, 0xAA, 0x15, 0xA6, 0x5A, 0x00, 0xA0, 0x09, 0x00, 
    0x85, 0x08, 0x4A, 0x18, 0x61, 0x84, 0x02, 0x06, 0x80, 0x91, 0x04, 0x92, 
    0x0A, 0x02, 0x81, 0x00, 0x80, 0x4A, 0x20, 0x1A, 0x86, 0x84, 0x02, 0x09, 
    0x06, 0x10, 0x10, 0x02, 0x04, 0x08, 0x00, 0x10, 0x0A, 0x02, 0x00, 0x00, 
    0x80, 0x08, 0x22, 0x06, 0x84, 0xA0, 0x02, 0x48, 0x14, 0x80, 0x40, 0x01, 
    0x08, 0x16, 0x40, 0x02, 0x42, 0x26, 0x18, 0x80, 0x00, 0x4A, 0x04, 0x80, 
    0x51, 0x80, 0x01, 0x45, 0x41, 0x00, 0x98, 0x0A, 0x26, 0x80, 0x00, 0x20, 
    0x11, 0x91, 0x95, 0x04, 0x00, 0x02, 0x00, 0x00, 0x20, 0x00, 0x80, 0x04, 
    0x00, 0x04, 0x00, 0x09, 0x41, 0x55, 0x00, 0x92, 0x02, 0x00, 0x09, 0x00, 
    0x90, 0x02, 0x00, 0x00, 0x10, 0x01, 0x08, 0x21, 0xA0, 0x00, 0x62, 0x04, 
    0x00, 0x01, 0x84, 0x28, 0x02, 0x00, 0x00, 0x00, 0x02, 0x40, 0x05, 0x01, 
    0x04, 0x00, 0x01, 0x08, 0x00, 0x0A, 0x02, 0x40, 0x01, 0x09, 0x00, 0x90, 
    0x18, 0x86, 0x81, 0x24, 0x00, 0x90, 0x02, 0x02, 0xA5, 0x15, 0x00, 0x40, 
    0x00, 0x08, 0x00, 0x00, 0x00, 0x08, 0xA2, 0x00, 0x80, 0x02, 0x88, 0x22, 
    0x02, 0x00, 0x04, 0x00, 0x6A, 0xAA, 0x9A, 0x6A, 0x55, 0x59, 0x69, 0xAA, 
    0x55, 0x95, 0x55, 0xA5, 0xA6, 0xAA, 0xAA, 0xAA, 0x56, 0x55, 0x55, 0x55, 
    0xAA, 0xAA, 0x5A, 0x95, 0xAA, 0x55, 0xA9, 0xAA, 0xAA, 0xAA, 0xAA, 0x5A, 
    0x69, 0xAA, 0xA6, 0xA6, 0xAA, 0xAA, 0xAA, 0xAA, 0xAA, 0x56, 0xA5, 0x96, 
    0xAA, 0x55, 0x55, 0x55, 0x65, 0x55, 0xAA, 0x55, 0x55, 0x9A, 0xAA, 0xAA, 
    0xAA, 0x5A, 0x55, 0x55, 0xAA, 0x56, 0x6A, 0x9A, 0xAA, 0x55, 0x55, 0x55, 
    0x69, 0x55, 0xAA, 0xAA, 0x5A, 0x65, 0x55, 0x55, 0x95, 0xAA, 0xA9, 0xAA, 
    0xAA, 0xAA, 0xAA, 0xAA, 0xAA, 0x55, 0x65, 0x5A, 0x55, 0x55, 0x95, 0x56, 
    0x55, 0xA9, 0xAA, 0xA5, 0x56, 0xAA, 0x6A, 0x55, 0xAA, 0x69, 0x55, 0x99, 
    0x6A, 0xAA, 0x55, 0x65, 0xA9, 0x69, 0x9A, 0xAA, 0x5A, 0x69, 0x5A, 0x55, 
    0xA9, 0xA5, 0xAA, 0xAA, 0x5A, 0x56, 0xAA, 0x69, 0xA5, 0x55, 0x55, 0x55, 
    0x66, 0x55, 0x55, 0x96, 0xAA, 0x96, 0x5A, 0xA5, 0xAA, 0xAA, 0x6A, 0x55, 
    0xA9, 0x5A, 0xA5, 0x56, 0x55, 0xAA, 0x56, 0x55, 0x55, 0x55, 0x55, 0x5A, 
    0x99, 0xAA, 0x65, 0x56, 0x59, 0xAA, 0xAA, 0xAA, 0x59, 0x55, 0x55, 0x95, 
    0xAA, 0xAA, 0x96, 0xA6, 0x6A, 0x55, 0xAA, 0x56, 0x55, 0x55, 0x55, 0x55, 
    0xA9, 0xAA, 0xAA, 0xAA, 0x55, 0x55, 0xA5, 0x6A, 0x55, 0xAA, 0x56, 0x45, 
    0x45, 0x15, 0x45, 0x01, 0x55, 0x55, 0xA9, 0xA5, 0x16, 0xA0, 0x6A, 0x41, 
    0x55, 0xA9, 0x5A, 0x46, 0x55, 0xAA, 0xAA, 0xAA, 0xAA, 0xA2, 0xAA, 0xAA, 
    0xAA, 0x6A, 0x55, 0x55, 0x55, 0xA5, 0xAA, 0xAA, 0xAA, 0x52, 0x05, 0xA8, 
    0xAA, 0xA1, 0x06, 0xA0, 0x55, 0x2A, 0x55, 0x55, 0xA5, 0x6A, 0x55, 0x95, 
    0x54, 0x95, 0x6A, 0x55, 0x55, 0x55, 0xA5, 0xAA, 0x1A, 0x96, 0xAA, 0xAA, 
    0xAA, 0xAA, 0x54, 0xA9, 0x4A, 0x40, 0x55, 0x01, 0xA9, 0xAA, 0x2A, 0xA0, 
    0x29, 0x9A, 0x59, 0x65, 0x0A, 0x61, 0xA9, 0xAA, 0x6A, 0x29, 0x55, 0x45, 
    0xA4, 0xAA, 0xA5, 0xAA, 0x8A, 0xA8, 0x5A, 0x55, 0x25, 0xA9, 0xAA, 0xAA, 
    0xAA, 0x8A, 0x2A, 0x5A, 0x95, 0x60, 0xAA, 0xA2, 0xA6, 0x6A, 0x55, 0x55, 
    0x95, 0x95, 0xA8, 0xAA, 0xAA, 0x56, 0xA2, 0x6A, 0x95, 0x48, 0xA8, 0xAA, 
    0x2A, 0xA8, 0x55, 0x55, 0x65, 0x5A, 0x15, 0xA2, 0x52, 0xA5, 0x2A, 0x00, 
    0x6A, 0x59, 0x96, 0x26, 0x86, 0xA4, 0x64, 0x51, 0xA1, 0x94, 0xA6, 0x62, 
    0x25, 0x58, 0x06, 0x99, 0x92, 0x02, 0x9A, 0x26, 0x24, 0x26, 0x05, 0x55, 
    0x00, 0x65, 0x14, 0x18, 0x04, 0x44, 0x94, 0x46, 0x54, 0x95, 0xA5, 0x51, 
    0x81, 0x26, 0x0A, 0x00, 0x04, 0xA8, 0x98, 0x2A, 0x9A, 0x6A, 0x66, 0xA5, 
    0x12, 0x0A, 0x02, 0x22, 0x16, 0x49, 0x15, 0x15, 0x55, 0xA4, 0x22, 0x86, 
    0xA9, 0x86, 0xA4, 0x69, 0x59, 0xAA, 0x22, 0x02, 0x68, 0x02, 0x01, 0x54, 
    0x25, 0x60, 0x99, 0x85, 0x48, 0x2A, 0x22, 0x55, 0x81, 0x02, 0x91, 0x05, 
    0x84, 0x59, 0x1A, 0xAA, 0xA0, 0xA6, 0x15, 0x41, 0x0A, 0x40, 0x25, 0x40, 
    0xAA, 0x0A, 0x60, 0x18, 0xA8, 0xA1, 0x96, 0x26, 0x00, 0x11, 0x64, 0x55, 
    0x15, 0x85, 0x15, 0x85, 0x59, 0x55, 0x96, 0x0A, 0xA9, 0xA2, 0x95, 0x92, 
    0x02, 0x88, 0x00, 0x61, 0x01, 0xAA, 0x20, 0x01, 0xA9, 0x05, 0xA8, 0xA6, 
    0xA9, 0x6A, 0x81, 0x14, 0x05, 0x05, 0x99, 0x0A, 0x9A, 0x82, 0xA2, 0x66, 
    0x16, 0x81, 0x85, 0x60, 0x09, 0x98, 0x84, 0x44, 0x54, 0x64, 0x12, 0x99, 
    0x04, 0xA0, 0x2A, 0x00, 0x68, 0xA4, 0x04, 0x41, 0x44, 0xA8, 0x25, 0x44, 
    0x16, 0x68, 0x6A, 0x2A, 0x68, 0x29, 0x02, 0x26, 0x68, 0xA1, 0xA2, 0x82, 
    0x86, 0x22, 0x04, 0x65, 0x00, 0x14, 0x54, 0x00, 0x25, 0x18, 0x0A, 0x0A, 
    0xA0, 0xA8, 0x05, 0x08, 0xA0, 0x49, 0x45, 0x45, 0x10, 0x90, 0x45, 0x14, 
    0x04, 0x0A, 0x42, 0x28, 0x22, 0x00, 0x64, 0x02, 0x51, 0x94, 0xA1, 0x48, 
    0x80, 0x01, 0x41, 0x51, 0x40, 0x94, 0x50, 0x16, 0x92, 0x02, 0xA8, 0x59, 
    0x01, 0x02, 0x12, 0x50, 0x40, 0x01, 0xA2, 0x14, 0x20, 0x80, 0x02, 0x02, 
    0x08, 0xA0, 0x80, 0x25, 0x04, 0x18, 0x40, 0x01, 0x81, 0x85, 0x04, 0x98, 
    0x02, 0x40, 0x49, 0x19, 0xA8, 0x00, 0x00, 0x05, 0x28, 0x80, 0x01, 0x05, 
    0x04, 0x14, 0xA8, 0x89, 0x08, 0x25, 0x08, 0x49, 0x40, 0x05, 0x00, 0x0A, 
    0x42, 0xA5, 0xA8, 0x90, 0x09, 0x94, 0x80, 0x08, 0x00, 0x15, 0x00, 0x80, 
    0x42, 0x45, 0x2A, 0x80, 0x62, 0x06, 0x06, 0x88, 0x54, 0x45, 0x86, 0x20, 
    0xAA, 0x52, 0x60, 0x00, 0x11, 0x42, 0x00, 0x80, 0x05, 0x58, 0xA4, 0x52, 
    0xA0, 0x05, 0x0A, 0x88, 0x00, 0x10, 0x15, 0x00, 0x96, 0x6A, 0xA9, 0x64, 
    0x96, 0x59, 0x59, 0x9A, 0x6A, 0x64, 0xAA, 0x96, 0x55, 0x6A, 0x55, 0xA6, 
    0xA9, 0x8A, 0xAA, 0x16, 0x66, 0x65, 0x59, 0x95, 0x55, 0x69, 0x56, 0x55, 
    0x95, 0xA5, 0xA5, 0xA9, 0xA1, 0x66, 0x55, 0x15, 0xAA, 0x5A, 0x96, 0xA6, 
    0x65, 0x59, 0x5A, 0x85, 0xA6, 0x59, 0x99, 0x6A, 0xAA, 0xA6, 0xA9, 0x52, 
    0x69, 0x69, 0x5A, 0x56, 0x96, 0x5A, 0x99, 0xA6, 0xAA, 0x6A, 0xAA, 0xAA, 
    0x9A, 0xAA, 0x9A, 0x85, 0xAA, 0x29, 0xA8, 0x85, 0xA6, 0x4A, 0x55, 0x6A, 
    0xA9, 0x69, 0x5A, 0x69, 0x45, 0x55, 0x65, 0x65, 0xAA, 0x69, 0x95, 0x9A, 
    0x94, 0x65, 0x55, 0xA5, 0x06, 0xAA, 0x05, 0x69, 0x56, 0x55, 0xA1, 0xA9, 
    0xA9, 0x59, 0x5A, 0x96, 0xAA, 0xA8, 0x56, 0x5A, 0x92, 0x9A, 0x56, 0xA5, 
    0x65, 0xA9, 0x9A, 0x5A, 0x6A, 0xA9, 0x6A, 0x96, 0x9A, 0x99, 0xAA, 0x68, 
    0xA9, 0x66, 0x6A, 0x49, 0x95, 0x69, 0x65, 0x61, 0xA8, 0xA9, 0x96, 0x96, 
    0x95, 0x5A, 0x9A, 0x65, 0x9A, 0x92, 0xA5, 0x65, 0x94, 0x46, 0x95, 0xA9, 
    0x59, 0x59, 0x2A, 0x56, 0x66, 0x25, 0x69, 0x9A, 0x55, 0xA5, 0x6A, 0x49, 
    0x48, 0x55, 0x55, 0x95, 0xAA, 0xAA, 0x6A, 0xA5, 0xAA, 0x59, 0xAA, 0x56, 
    0x5A, 0x55, 0x59, 0x95, 0xA9, 0xAA, 0xAA, 0xAA, 0x55, 0x55, 0xA5, 0x6A, 
    0x55, 0x95, 0x56, 0x55, 0x55, 0x55, 0x55, 0x65, 0x55, 0x55, 0x55, 0x55, 
    0x55, 0x55, 0x55, 0x55, 0x55, 0xA9, 0x5A, 0x65, 0x55, 0xAA, 0xAA, 0x5A, 
    0x95, 0xA6, 0xAA, 0x86, 0x55, 0x55, 0x55, 0x55, 0x55, 0x65, 0x56, 0x51, 
    0xAA, 0x5A, 0x91, 0xA8, 0x55, 0xA9, 0xAA, 0x5A, 0x55, 0x66, 0x55, 0x55, 
    0xA5, 0x6A, 0x65, 0xAA, 0x5A, 0x59, 0x65, 0x55, 0x55, 0x55, 0x55, 0x95, 
    0x55, 0xAA, 0x56, 0xA5, 0x6A, 0x66, 0x55, 0x55, 0x05, 0x55, 0x55, 0x52, 
    0x55, 0xA5, 0xAA, 0xAA, 0xA9, 0xAA, 0xAA, 0x6A, 0x05, 0x89, 0x56, 0x55, 
    0x95, 0xAA, 0x55, 0xA9, 0x5A, 0x95, 0xAA, 0xAA, 0x96, 0x55, 0x56, 0x59, 
    0x21, 0x95, 0xA5, 0xA5, 0x5A, 0xAA, 0x46, 0x51, 0x99, 0xAA, 0xAA, 0x56, 
    0x95, 0x69, 0xA9, 0x65, 0xA9, 0xAA, 0x80, 0x56, 0x55, 0xA9, 0xAA, 0x9A, 
    0xAA, 0x55, 0xA9, 0x5A, 0x95, 0xAA, 0xAA, 0x56, 0xA5, 0xAA, 0xAA, 0xAA, 
    0x02, 0xA0, 0x2A, 0x04, 0x99, 0x6A, 0x99, 0x5A, 0xA9, 0xA5, 0xA9, 0x56, 
    0xA9, 0x69, 0x59, 0x9A, 0x55, 0xAA, 0x9A, 0xA5, 0xA5, 0x59, 0x59, 0x66, 
    0x5A, 0xA6, 0x55, 0xA9, 0xA9, 0x66, 0x55, 0x55, 0xA9, 0xAA, 0x55, 0x95, 
    0xA5, 0xA9, 0xAA, 0x5A, 0x55, 0x96, 0x95, 0xAA, 0x55, 0xAA, 0xAA, 0x95, 
    0xAA, 0x9A, 0xA9, 0x6A, 0x56, 0x56, 0xA9, 0xAA, 0xAA, 0xA6, 0x55, 0x55, 
    0x56, 0xA5, 0x65, 0x55, 0xAA, 0x6A, 0xA9, 0x6A, 0x95, 0x66, 0xAA, 0x55, 
    0x95, 0x56, 0x6A, 0x56, 0x45, 0x96, 0x55, 0xA9, 0x95, 0x55, 0x95, 0x6A, 
    0xAA, 0xA9, 0x66, 0x6A, 0x55, 0xA5, 0xAA, 0x66, 0x69, 0x55, 0x55, 0xA9, 
    0x29, 0xAA, 0x5A, 0xAA, 0xAA, 0x55, 0x55, 0xA5, 0x95, 0x56, 0x69, 0xA9, 
    0x5A, 0x95, 0xA9, 0xAA, 0x56, 0xA9, 0x55, 0x96, 0xA6, 0x55, 0x55, 0xAA, 
    0x6A, 0x69, 0xAA, 0x56, 0x96, 0xA9, 0x5A, 0x56, 0xAA, 0x96, 0xAA, 0x5A, 
    0x95, 0xAA, 0x59, 0x69, 0xAA, 0x6A, 0x95, 0xAA, 0x59, 0x95, 0x95, 0xAA, 
    0x95, 0xA9, 0x6A, 0xA9, 0x56, 0x55, 0x55, 0xA5, 0x95, 0x99, 0x55, 0xAA, 
    0x56, 0x95, 0x62, 0x9A, 0x56, 0xA5, 0x69, 0x55, 0x5A, 0x95, 0xA5, 0x66, 
    0x29, 0x59, 0x65, 0x65, 0x69, 0x59, 0xA9, 0x69, 0x96, 0x66, 0x5A, 0x25, 
    0x66, 0x65, 0x99, 0xA9, 0x56, 0xA5, 0x99, 0xA6, 0x69, 0x5A, 0x56, 0x9A, 
    0x69, 0x55, 0x99, 0x55, 0x55, 0x95, 0xAA, 0xA5, 0x56, 0x55, 0x95, 0x25, 
    0xAA, 0x6A, 0x69, 0xAA, 0x55, 0x65, 0x99, 0x6A, 0x55, 0x55, 0xA9, 0xAA, 
    0xA5, 0x4A, 0x95, 0x66, 0x55, 0x95, 0x96, 0x69, 0xAA, 0x5A, 0x96, 0x55, 
    0x55, 0x69, 0x69, 0xAA, 0x95, 0xA6, 0x5A, 0xAA, 0xA9, 0x96, 0xA6, 0xAA, 
    0x9A, 0x69, 0xA5, 0xA2, 0x96, 0xAA, 0xAA, 0x2A, 0x95, 0x55, 0x9A, 0x69, 
    0x69, 0xA6, 0x56, 0x95, 0x46, 0x94, 0xA6, 0x65, 0x51, 0x66, 0xAA, 0x95, 
    0x56, 0x56, 0x59, 0x95, 0x99, 0x96, 0xA9, 0x6A, 0x96, 0xAA, 0x9A, 0x96, 
    0xAA, 0x6A, 0x66, 0x59, 0x96, 0x5A, 0x99, 0xA5, 0xA5, 0xA8, 0x49, 0x96, 
    0xA9, 0xAA, 0xA9, 0x4A, 0x45, 0x65, 0x6A, 0x6A, 0x99, 0x5A, 0x66, 0x55, 
    0x66, 0x5A, 0x65, 0xA6, 0xAA, 0xAA, 0xAA, 0x96, 0xA8, 0xA9, 0x62, 0xAA, 
    0xAA, 0xA6, 0xAA, 0xAA, 0x5A, 0x95, 0x56, 0x95, 0xA9, 0x5A, 0x9A, 0x20, 
    0x16, 0x59, 0x59, 0x4A, 0x58, 0x69, 0x69, 0x95, 0x5A, 0x6A, 0x65, 0x64, 
    0x65, 0x66, 0x5A, 0xA9, 0x95, 0x95, 0x95, 0xAA, 0x65, 0x96, 0xA6, 0x9A, 
    0x69, 0xAA, 0x9A, 0xA6, 0x69, 0x56, 0x96, 0xA5, 0x99, 0x95, 0x5A, 0xAA, 
    0x56, 0xA9, 0xAA, 0x55, 0xA6, 0x69, 0xAA, 0xAA, 0x92, 0x56, 0xA5, 0x9A, 
    0xA9, 0xA6, 0xA6, 0xA6, 0x55, 0x6A, 0x59, 0x59, 0x5A, 0x55, 0xA6, 0xA5, 
    0xA6, 0x62, 0x59, 0xA6, 0x6A, 0x69, 0xA5, 0xA5, 0x68, 0x9A, 0x90, 0x59, 
    0x91, 0x56, 0x96, 0x65, 0x59, 0x56, 0x69, 0x55, 0x55, 0x55, 0x55, 0x56, 
    0x65, 0xAA, 0x56, 0x85, 0x59, 0x55, 0x96, 0x69, 0xAA, 0x68, 0x55, 0x5A, 
    0x54, 0x55, 0x5A, 0x9A, 0x55, 0x55, 0x95, 0x26, 0x59, 0x59, 0x59, 0x5A, 
    0xA6, 0x95, 0xA5, 0x55, 0xA9, 0xAA, 0x55, 0xA6, 0x59, 0x96, 0x6A, 0x55, 
    0x51, 0x69, 0x69, 0x96, 0x86, 0x9A, 0x86, 0x9A, 0x95, 0x55, 0x56, 0x6A, 
    0x6A, 0x2A, 0x66, 0x5A, 0x95, 0x55, 0x65, 0x59, 0xA9, 0x56, 0xA5, 0x65, 
    0x55, 0xA6, 0xAA, 0x5A, 0x55, 0x55, 0x65, 0xA9, 0x96, 0x96, 0x56, 0x55, 
    0x55, 0x64, 0x61, 0x54, 0xA9, 0xA5, 0x5A, 0x9A, 0x09, 0xA6, 0x50, 0x5A, 
    0x59, 0x26, 0x9A, 0x96, 0x25, 0x26, 0x56, 0x21, 0x66, 0x88, 0x51, 0x56, 
    0x69, 0x45, 0x95, 0x99, 0x85, 0xA1, 0x55, 0x55, 0x55, 0x65, 0x52, 0x95, 
    0xA5, 0xAA, 0xAA, 0xA1, 0x56, 0xA1, 0x6A, 0x55, 0x56, 0x54, 0x25, 0x6A, 
    0x55, 0x54, 0xA9, 0x8A, 0xAA, 0x98, 0x6A, 0x66, 0x21, 0xA9, 0xA6, 0xAA, 
    0x29, 0x0A, 0x54, 0x26, 0xAA, 0x52, 0x42, 0xAA, 0xAA, 0x82, 0x68, 0x26, 
    0x89, 0xA5, 0x92, 0x54, 0x55, 0x55, 0x56, 0x56, 0x89, 0xA1, 0xA2, 0x28, 
    0x5A, 0x46, 0x45, 0x59, 0x68, 0x26, 0x69, 0x8A, 0xA9, 0xAA, 0xAA, 0x88, 
    0x19, 0x56, 0x14, 0x41, 0xA6, 0x1A, 0x46, 0x61, 0xA9, 0x98, 0xA6, 0x26, 
    0x96, 0xA6, 0xA4, 0xA6, 0x29, 0x19, 0xA6, 0x69, 0x4A, 0xAA, 0x15, 0x5A, 
    0x5A, 0x66, 0x6A, 0x55, 0x65, 0x99, 0x9A, 0xAA, 0x82, 0x24, 0x42, 0xA0, 
    0x9A, 0x26, 0x51, 0xA1, 0x6A, 0x26, 0x9A, 0x5A, 0x5A, 0x65, 0x89, 0x55, 
    0x9A, 0x66, 0x85, 0x96, 0x15, 0xA2, 0x2A, 0xAA, 0x29, 0x85, 0x24, 0x40, 
    0x55, 0x08, 0x16, 0x94, 0x04, 0xA0, 0x21, 0x00, 0x59, 0x55, 0x55, 0x95, 
    0xA9, 0xAA, 0x96, 0xA2, 0x6A, 0x55, 0xAA, 0x56, 0x55, 0x55, 0x56, 0x55, 
    0xA9, 0xAA, 0xAA, 0xAA, 0x55, 0x55, 0xA5, 0x6A, 0x55, 0xA6, 0x56, 0x51, 
    0x55, 0x55, 0x55, 0x65, 0x54, 0x55, 0x55, 0x55, 0x55, 0x41, 0x55, 0x00, 
    0x55, 0xA9, 0x4A, 0x55, 0x55, 0xAA, 0xAA, 0xAA, 0x8A, 0xAA, 0xAA, 0xAA, 
    0x5A, 0x65, 0x55, 0x55, 0x55, 0xA5, 0xAA, 0xAA, 0xAA, 0x02, 0x01, 0xA6, 
    0x9A, 0xAA, 0xA2, 0x1A, 0x55, 0x98, 0x55, 0x55, 0xA5, 0x6A, 0x59, 0x10, 
    0x64, 0x96, 0x6A, 0x15, 0x55, 0x55, 0x25, 0xAA, 0x50, 0x05, 0xAA, 0xAA, 
    0x2A, 0xA8, 0x66, 0xA1, 0x05, 0x46, 0x55, 0x22, 0x99, 0x2A, 0xAA, 0xAA, 
    0x64, 0x59, 0xA6, 0x2A, 0x18, 0x66, 0x22, 0x68, 0x6A, 0x99, 0x15, 0x45, 
    0xA1, 0x6A, 0x82, 0xAA, 0x2A, 0xA2, 0x56, 0x55, 0x60, 0xA9, 0xAA, 0x96, 
    0x5A, 0xAA, 0x8A, 0x58, 0xA5, 0xAA, 0xAA, 0xAA, 0xA1, 0x6A, 0x65, 0x55, 
    0x69, 0x45, 0xA6, 0xAA, 0xAA, 0xA2, 0xA2, 0x82, 0x99, 0x16, 0xA8, 0xAA, 
    0x26, 0xAA, 0x41, 0x55, 0xA5, 0x69, 0xA5, 0xA2, 0x42, 0xA0, 0x2A, 0x00, 
    0x95, 0xAA, 0xA6, 0x65, 0x56, 0x6A, 0x5A, 0x65, 0x55, 0x95, 0x95, 0x99, 
    0x5A, 0x66, 0x54, 0xA5, 0x5A, 0xAA, 0x69, 0x65, 0x65, 0x59, 0x55, 0x99, 
    0xA6, 0xA9, 0x56, 0x55, 0x55, 0x55, 0xA5, 0x65, 0x55, 0x96, 0xAA, 0xAA, 
    0x56, 0xA5, 0x66, 0x95, 0x59, 0x6A, 0x55, 0x66, 0x59, 0x95, 0xA9, 0x6A, 
    0x69, 0x6A, 0x9A, 0x6A, 0xAA, 0xAA, 0xAA, 0xA6, 0x69, 0xA6, 0x9A, 0xA9, 
    0x55, 0x56, 0xA5, 0x96, 0xA9, 0x55, 0x55, 0xA9, 0x69, 0xA5, 0x69, 0xA5, 
    0x96, 0x55, 0xA9, 0xAA, 0x96, 0x95, 0x96, 0xA6, 0x55, 0xA9, 0x6A, 0x9A, 
    0xAA, 0xA6, 0xAA, 0x66, 0xA9, 0xAA, 0xA9, 0xAA, 0x9A, 0x96, 0x66, 0xA9, 
    0xAA, 0x9A, 0xAA, 0xAA, 0x55, 0x65, 0x95, 0xA5, 0xA9, 0xA6, 0x59, 0x6A, 
    0x59, 0x9A, 0x59, 0x9A, 0xAA, 0x69, 0x9A, 0x95, 0x66, 0xA9, 0x5A, 0x65, 
    0x95, 0xAA, 0x96, 0xA6, 0xAA, 0xA9, 0x69, 0x55, 0x95, 0xA6, 0x5A, 0x99, 
    0xAA, 0xAA, 0xA9, 0x96, 0xA9, 0x96, 0xA5, 0xA6, 0xAA, 0x5A, 0x55, 0x55, 
    0xA5, 0x9A, 0x66, 0x6A, 0xAA, 0x2A, 0x55, 0x59, 0x9A, 0x66, 0x59, 0x9A, 
    0x9A, 0x5A, 0x95, 0x2A, 0x65, 0x64, 0x05, 0x29, 0x2A, 0xA4, 0x66, 0x24, 
    0x18, 0x66, 0x61, 0xA1, 0x65, 0x62, 0xA5, 0xA9, 0x69, 0x55, 0x08, 0x42, 
    0x8A, 0x68, 0x6A, 0x4A, 0x05, 0x6A, 0x50, 0x54, 0x55, 0x55, 0x54, 0x81, 
    0x5A, 0x55, 0x55, 0x65, 0x55, 0x55, 0x59, 0x58, 0x05, 0x55, 0x99, 0x26, 
    0x01, 0x96, 0x6A, 0x99, 0x95, 0xA8, 0xA8, 0x09, 0x88, 0x49, 0x95, 0x15, 
    0x95, 0xA5, 0x22, 0x1A, 0x55, 0x02, 0xAA, 0xA2, 0xA8, 0xA8, 0x0A, 0x16, 
    0x09, 0x9A, 0x05, 0x55, 0xA5, 0x6A, 0x65, 0x54, 0xAA, 0x5A, 0x09, 0xA8, 
    0xA6, 0x55, 0x05, 0xA4, 0x60, 0x6A, 0x56, 0x45, 0xA2, 0xA9, 0xA9, 0xAA, 
    0x0A, 0x44, 0xA5, 0xAA, 0x55, 0xAA, 0xAA, 0xAA, 0x51, 0x99, 0xAA, 0xAA, 
    0x89, 0x21, 0x18, 0x56, 0x55, 0x85, 0x12, 0xA2, 0x58, 0x95, 0x95, 0x86, 
    0x16, 0x89, 0x54, 0x45, 0x84, 0x5A, 0xA4, 0x6A, 0x19, 0xA8, 0x16, 0x60, 
    0x56, 0x86, 0x96, 0x46, 0xA5, 0x95, 0x84, 0x56, 0x41, 0x66, 0x2A, 0x96, 
    0x56, 0x51, 0x01, 0x66, 0xA5, 0x66, 0x80, 0x55, 0x15, 0xA6, 0x92, 0x42, 
    0xA5, 0x6A, 0x9A, 0xA6, 0x01, 0xA0, 0x28, 0x04, 0x15, 0x55, 0x55, 0x95, 
    0xAA, 0x8A, 0x95, 0xA4, 0xAA, 0x60, 0x6A, 0x56, 0x55, 0x55, 0x55, 0x16, 
    0xA8, 0xAA, 0xAA, 0xAA, 0x55, 0x56, 0xA5, 0x6A, 0x54, 0xA2, 0x56, 0x51, 
    0x55, 0x55, 0x55, 0x51, 0x55, 0x55, 0x55, 0x55, 0x16, 0x54, 0x55, 0x04, 
    0x54, 0xA9, 0x5A, 0x44, 0x55, 0xAA, 0xAA, 0x5A, 0x95, 0xAA, 0xAA, 0xAA, 
    0x5A, 0x41, 0x55, 0x55, 0x55, 0xA5, 0xA2, 0xA5, 0xAA, 0x02, 0x16, 0xAA, 
    0x95, 0xA9, 0xA2, 0x4A, 0x95, 0x22, 0x55, 0x55, 0xA5, 0x6A, 0x46, 0x10, 
    0x18, 0x80, 0x68, 0x55, 0x55, 0x55, 0xA5, 0xAA, 0x46, 0x81, 0x84, 0xA5, 
    0x2A, 0xAA, 0x2A, 0x96, 0x02, 0x40, 0x15, 0x2A, 0xAA, 0xAA, 0xAA, 0xA8, 
    0x49, 0x16, 0xA9, 0x6A, 0xAA, 0xA8, 0x16, 0x56, 0x65, 0x56, 0x01, 0x55, 
    0xA6, 0x2A, 0x21, 0xAA, 0x96, 0x40, 0x56, 0x55, 0x80, 0xA1, 0x88, 0x86, 
    0x5A, 0xA6, 0x26, 0x5A, 0x95, 0xAA, 0xAA, 0x2A, 0xA6, 0x6A, 0x41, 0x55, 
    0x99, 0x91, 0xA1, 0xAA, 0xA6, 0x41, 0x8A, 0x40, 0xA9, 0x61, 0xA8, 0xAA, 
    0x8A, 0xAA, 0x84, 0x56, 0x65, 0x28, 0xAA, 0xAA, 0x02, 0x40, 0x2A, 0x01, 
    0x95, 0x59, 0x56, 0x95, 0x95, 0x9A, 0xA5, 0x66, 0x56, 0xA9, 0x56, 0xA6, 
    0x65, 0x69, 0x9A, 0xA9, 0x59, 0x59, 0xAA, 0x5A, 0x65, 0x55, 0x95, 0x56, 
    0x99, 0x66, 0x59, 0x55, 0x05, 0x56, 0xAA, 0xA5, 0x96, 0x56, 0x56, 0x56, 
    0x65, 0xA6, 0x65, 0x59, 0x66, 0x6A, 0xAA, 0x6A, 0x55, 0xAA, 0xAA, 0x56, 
    0xA5, 0xA5, 0x55, 0xA9, 0xAA, 0x69, 0x6A, 0x55, 0xA9, 0xAA, 0xAA, 0xA9, 
    0x9A, 0x56, 0xA9, 0x9A, 0xAA, 0x95, 0xA6, 0x96, 0xA5, 0x65, 0x6A, 0x56, 
    0x55, 0x9A, 0x9A, 0x9A, 0x95, 0x66, 0x95, 0x55, 0x55, 0xA9, 0x5A, 0x59, 
    0x69, 0xA6, 0xAA, 0xAA, 0x65, 0x6A, 0x5A, 0x96, 0x45, 0x52, 0x96, 0x59, 
    0x6A, 0x55, 0x65, 0x65, 0xA9, 0x59, 0xAA, 0xAA, 0xAA, 0xA6, 0xAA, 0x6A, 
    0x55, 0x6A, 0xA9, 0x96, 0xA5, 0xAA, 0x95, 0x9A, 0x56, 0xA5, 0x6A, 0x55, 
    0x5A, 0x99, 0x59, 0x55, 0x5A, 0xAA, 0xAA, 0x5A, 0x5A, 0x55, 0x56, 0x6A, 
    0x5A, 0x95, 0xA6, 0x59, 0x55, 0x55, 0x95, 0xA6, 0x55, 0xA9, 0x99, 0x86, 
    0x9A, 0x55, 0xA9, 0xAA, 0xAA, 0xA9, 0x55, 0x95, 0x55, 0x55, 0xAA, 0xAA, 
    0xA6, 0xA6, 0x6A, 0x56, 0xA2, 0xA9, 0x5A, 0x99, 0x96, 0x45, 0xA1, 0x6A, 
    0x61, 0xA6, 0xA6, 0x58, 0x69, 0x94, 0xA0, 0x60, 0x16, 0xAA, 0x69, 0x85, 
    0xA1, 0x45, 0x59, 0x55, 0x84, 0x41, 0x89, 0x51, 0x59, 0x51, 0x55, 0x55, 
    0xA1, 0xAA, 0xAA, 0xAA, 0x56, 0x52, 0x25, 0x50, 0x8A, 0x56, 0x55, 0x99, 
    0x69, 0xA2, 0xA2, 0xA6, 0x6A, 0x55, 0xA1, 0x14, 0xA5, 0xAA, 0xA9, 0x99, 
    0x56, 0x55, 0x95, 0xAA, 0x46, 0x9A, 0xA2, 0xAA, 0xAA, 0x66, 0x55, 0x69, 
    0x82, 0x95, 0xA6, 0xAA, 0x4A, 0x55, 0x59, 0xAA, 0x56, 0x46, 0x18, 0x94, 
    0x45, 0x42, 0x59, 0x05, 0x61, 0x65, 0x95, 0x56, 0x15, 0x69, 0x66, 0xA9, 
    0xAA, 0xAA, 0xA5, 0x92, 0x58, 0x6A, 0x0A, 0x65, 0x55, 0x05, 0x65, 0xAA, 
