/* Auto-generated by train_mamba_snn.py — Mamba SNN for LamQuant */
#ifndef MAMBA_SNN_WEIGHTS_H
#define MAMBA_SNN_WEIGHTS_H

#include <stdint.h>

#define MAMBA_SNN_IN_CHANNELS   21
#define MAMBA_SNN_D_MODEL       21
#define MAMBA_SNN_N_LAYERS      2
#define MAMBA_SNN_NUM_GROUPS    8
#define MAMBA_SNN_STRIDE        1

/* scale=2.40858644e-03 */
static const int8_t mamba_spatial_mix_w[840] = {
      26,   54,   58,   39,   43,   28,  -71,  -32,  -77,    4,  -31,   44,    0,   15,   44, -103,
      -1,    2,  -82,   15,  -66,  -37,   29,  -64,  -40,  -11,  -17,   77,  -80,  -52,   69,  -62,
      29,   17,   11,   40,   58,  -28,   58,   31,  -11,  -49,    0,  -33,  -49,   28,  -78,   18,
      40,  -35,   58,  -80,   48,  -29,  -30,   21,    4,   28,  -74,   47,   74,  -62,   77,  -29,
      25,   33,   18,   23,   32,   59,  -49,  -18,    4,   70,  -51,   38,   35,  -61,   66,  -15,
      23,   37,  -15,   86,    3,  -10,   14,   78,   48,  -14,   48,  -32,   53,  -23,  -70,  -41,
     -81,   59, -108,  127,  -63,   10,   61,  -53,   62,  -67,   27,    2,  -38,  -75,   81,   -7,
      47,   27,   17,  -39,   22,  -10,   48,  -87,   11,   43,  -20,   -9,  -56,  -13,  -58,   19,
      52,  -65,  -36,  -58,  -21,  -34,   30,  -40,   -8,    0,  -20,   55,   73,   -6,  -34,  -36,
     -11,  -30,   59,  -80,  -23,   25,   -1,  -83,   51,  -26,  -29,    1,   36,   -2,    4,  -54,
      67,  -26,   17,  -59,   16,  -51,   63, -103,  -41,  -95,  -33,  -57,   34,   32,   17,   32,
      11,  -29,   72,  -63,    1,   53,   87,   21,   68,  -57,  -77,   56,  -12,   39,  -34,  -62,
      28,  -59,  -60,  -44,   -2,  -11,  -78,   71,   23,  -22,  -70,  -48,  -37,  -10,  -26,  -73,
     -12,  -44,  -60,  -12,   -6,  -74,   13,  -27,   10,  -31,  -14,   77,  -56,   38,  -11,   27,
      60,   64,   74,   62,   57,  -48,  -71,  -38,  -55,   96,    5,   -8,   12,  -32,  -65,  -23,
      75,   33,   80,  -64,   47,    8,  -78,  -70,   33,   55,   82,   75,   -6,  -66,   11,  -52,
      37,  -98,   66,   -7,   56,  -20,   70,    4,   -2,  -27,  -34,   17,   40,   11,  -39,  -31,
     -94,  -51,  -38,  -31,   75,   47,  -43,   40,   39,  -21,  -21,  -10,  -65,  -47,   27,  -39,
     -93,  -18,   37,   92,  -82,  -68,   95,   61,  -28,  -78,  -12,  -10,   87,  -29,  -61,   52,
     -72,   46,  -64,   -4,  -42,  -65,  -15,  -14,  -54, -100,  -43,   74,   12,   54,   -3,   64,
     -14,  -98,    1,  -37,   44,    5,   31,  -18,  -35,  -29,   47,  -74,  -55,   -8,   93,   76,
     -59,  -62,  -23,  -40,   -6,   17,   98,  -55,  -54,  -36,  -16,   -8,    8,   -6,  -54,   42,
      63,    8,  -24,    8,  -27,   57,    9,   50,   50,   39,   13,   65,  -80,  -17,   44,   77,
     -42,  -69,   38,  -51,   -8,  -42,  -61,   -7,  -12,   52,  -43,   45,   73,   -6,   78,  -34,
      18,  -16,  -22,   -6,   86,    4,  -51,  -28,  -52,   -1,   57,  -36,   56,  -93,  -65,  -17,
       0,  -28,  -40,   28,  -43,   71,   -9,  -18,   76,  -40,   15,   41,    6,  -72,  -42,  -19,
     -55,    3,   22,   90,  -57,   12,  -69,  -20,   68,    9,   43,  -63,   68,   40,   18,   71,
      -8,  -61,  -19,   -1,   25,  -47,   -9,  -51,  109,    1,  -53,   23,  -37,   15,  -51,  -36,
      -6,  -73,  -38,   40,   72,  -16,   53,  -61,  -45,   56,  -56,   53,  -90,   76,   -7,  -81,
     -49,   45,  -34, -106,   35,    5,   34,  -45,   45,  -75,  -26,   39,   21,  -30,  -66,  -11,
     -62,   81,   54,  -52,    8,  -60,   58,  -14,   24,   56,    2,   -8,   -3,  -50,   29,   56,
      53,  -80,  -12,  -68,  -19,  -59, -102,   82,   11,  -26,   24,  -30,   90,   -9,  -41,  -23,
     -95,    6,   74,  -35,    5,  -71,   48,   -3,   42,  -28,   31,  -66,   70,   39,   59,  -12,
     -27,   78,   91,   14,  -43,  -39,   34,  -17,  -68,  -25,  -30,  -84,   38,  -40,  -26,  -22,
      51,    1,   -7,   70,  -81,   52,   67,   -6,   75,  -25,  -42,  -98,  -40,  -55,  -87,   81,
      -6,   24,   64,  -61,  -17,   46,   35,   74,   53,  -23,  -52,  -19,   83,  -28,   17,  -14,
      34,   -8,   25,  -62,   61,  -92,  116, -105,  -21,   28,   29,    5,  -76,  -20,   -7,  -11,
      56,  -39,   77,   96,  -74,  -33,  -21,    3,  -34,  -26,  -51,  -39,  -33,   29,   52,  -59,
     -41,  -52,  -72,   36,  -50,    0,   83,  -48,   26,  -31,   49,    9,  -32,   49,   47,   12,
      55,  -41,  -98,   50, -122,   35,  -50,  -10,   95,  -45,  -34,  -32,   -2,   48,  111,    1,
     -53,   48,    6,  -13,   46,   30,  -60,   11,  -39,   93,  102,   -6,  -45,   32,   72,   11,
     -26,   18,   51,   80,  -29,  -62,  -14,   41,   59,  -39,   39,   11,  -41,  -71,  118,  -38,
     -49,  103,  -13,   36,   48,   99,  -61,  -79,  -38,   65,  -12,   47,  -40,   82,  -41,    4,
     -58,   22,  -34,  108,  -36,   17,  -36,  -47,   12,  -46,   82,   61,   39,  -25,  -42,  -63,
     -31,   34,   81,   69,   26,  -24,  -27,   68,    2,  -45,  -25,   26,   -4,   -9,   55,  -85,
     -24,  -70,  -28,   15,   -4,    4,   51,   37,  -66,   40,   25,   54,   23,   29,    2,  -55,
     -48,  -39,  -68,   33,   27,  -56,  -41,  -26,   80,   22,  -33,    0,  -43,   36,   -8,  -59,
      41,   31,  -68,   54,   40,  -15,  -20,   78,   56,  -15,  -56,  -23,   15,   17,  -44,  -46,
     -68,  -60,   92,   11,  -53,   74,  -14,   13,   11,  -19,  -13,  -51,    5,  -23,  -46,   23,
       4,    5,   52,   -9,  -85,   57,   59,   12,   73,  -38,  -33,   42,  -11,   62,   55,  -74,
     -69,  -72,  -36,   54,  -34,   21,   70,   45,   49,  -40,   36,   81,   43,   36,   -3,  -24,
       8,  -31,  116,   32,   38,   56,   37,  -66,  -66,   82,  -71,   35,   20,   17,  -35,  -38,
      -8,  -61,  -17,  -31,   43,  -37,  -22,    1,
};
static const float mamba_spatial_mix_w_scale = 2.40858644e-03f;

/* scale=2.56292732e-03 */
static const int8_t mamba_spatial_mix_b[40] = {
      83,  -45,   12,  -34,  -80,   47,    2,   12,   27,   -2,   14,   76,   26,   -1,   36,   25,
      31,   54,  -76,  -13,  107,   74,  -67,   92,  -58,   87,   22,  -47,   22,  -31,  -67,   51,
    -127,   53,    7,  -13,  -24,   72,  -60,   50,
};
static const float mamba_spatial_mix_b_scale = 2.56292732e-03f;

static const int16_t mamba_l0_fwd_a_log_q15[1280] = {
    37, 22786, 32767, 32767, 32767, 32767, 32767, 32767,
    32767, 32767, 32767, 32767, 32767, 32767, 32767, 32767,
    -2225, 19974, 32767, 32767, 32767, 32767, 32767, 32767,
    32767, 32767, 32767, 32767, 32767, 32767, 32767, 32767,
    -7733, 15258, 29610, 32767, 32767, 32767, 32767, 32767,
    32767, 32767, 32767, 32767, 32767, 32767, 32767, 32767,
    381, 21563, 32767, 32767, 32767, 32767, 32767, 32767,
    32767, 32767, 32767, 32767, 32767, 32767, 32767, 32767,
    -398, 22677, 32767, 32767, 32767, 32767, 32767, 32767,
    32767, 32767, 32767, 32767, 32767, 32767, 32767, 32767,
    -1910, 20559, 32767, 32767, 32767, 32767, 32767, 32767,
    32767, 32767, 32767, 32767, 32767, 32767, 32767, 32767,
    -1792, 20348, 32767, 32767, 32767, 32767, 32767, 32767,
    32767, 32767, 32767, 32767, 32767, 32767, 32767, 32767,
    -383, 23764, 32767, 32767, 32767, 32767, 32767, 32767,
    32767, 32767, 32767, 32767, 32767, 32767, 32767, 32767,
    835, 23916, 32767, 32767, 32767, 32767, 32767, 32767,
    32767, 32767, 32767, 32767, 32767, 32767, 32767, 32767,
    -913, 22036, 32767, 32767, 32767, 32767, 32767, 32767,
    32767, 32767, 32767, 32767, 32767, 32767, 32767, 32767,
    414, 22035, 32767, 32767, 32767, 32767, 32767, 32767,
    32767, 32767, 32767, 32767, 32767, 32767, 32767, 32767,
    -6134, 18153, 32532, 32767, 32767, 32767, 32767, 32767,
    32767, 32767, 32767, 32767, 32767, 32767, 32767, 32767,
    867, 23073, 32767, 32767, 32767, 32767, 32767, 32767,
    32767, 32767, 32767, 32767, 32767, 32767, 32767, 32767,
    -2225, 19722, 32767, 32767, 32767, 32767, 32767, 32767,
    32767, 32767, 32767, 32767, 32767, 32767, 32767, 32767,
    -3214, 20255, 32767, 32767, 32767, 32767, 32767, 32767,
    32767, 32767, 32767, 32767, 32767, 32767, 32767, 32767,
    2529, 25268, 32767, 32767, 32767, 32767, 32767, 32767,
    32767, 32767, 32767, 32767, 32767, 32767, 32767, 32767,
    -4770, 17465, 32767, 32767, 32767, 32767, 32767, 32767,
    32767, 32767, 32767, 32767, 32767, 32767, 32767, 32767,
    -498, 21054, 32767, 32767, 32767, 32767, 32767, 32767,
    32767, 32767, 32767, 32767, 32767, 32767, 32767, 32767,
    -3982, 19406, 32294, 32767, 32767, 32767, 32767, 32767,
    32767, 32767, 32767, 32767, 32767, 32767, 32767, 32767,
    -3742, 20127, 32767, 32767, 32767, 32767, 32767, 32767,
    32767, 32767, 32767, 32767, 32767, 32767, 32767, 32767,
    -1449, 21464, 32767, 32767, 32767, 32767, 32767, 32767,
    32767, 32767, 32767, 32767, 32767, 32767, 32767, 32767,
    -4193, 18215, 31592, 32767, 32767, 32767, 32767, 32767,
    32767, 32767, 32767, 32767, 32767, 32767, 32767, 32767,
    -3590, 19727, 32767, 32767, 32767, 32767, 32767, 32767,
    32767, 32767, 32767, 32767, 32767, 32767, 32767, 32767,
    -90, 22231, 32767, 32767, 32767, 32767, 32767, 32767,
    32767, 32767, 32767, 32767, 32767, 32767, 32767, 32767,
    -5858, 17797, 31944, 32767, 32767, 32767, 32767, 32767,
    32767, 32767, 32767, 32767, 32767, 32767, 32767, 32767,
    -3071, 19647, 32767, 32767, 32767, 32767, 32767, 32767,
    32767, 32767, 32767, 32767, 32767, 32767, 32767, 32767,
    -2405, 21633, 32767, 32767, 32767, 32767, 32767, 32767,
    32767, 32767, 32767, 32767, 32767, 32767, 32767, 32767,
    2094, 23016, 32767, 32767, 32767, 32767, 32767, 32767,
    32767, 32767, 32767, 32767, 32767, 32767, 32767, 32767,
    -4000, 19253, 32767, 32767, 32767, 32767, 32767, 32767,
    32767, 32767, 32767, 32767, 32767, 32767, 32767, 32767,
    974, 23673, 32767, 32767, 32767, 32767, 32767, 32767,
    32767, 32767, 32767, 32767, 32767, 32767, 32767, 32767,
    -7023, 18621, 31174, 32767, 32767, 32767, 32767, 32767,
    32767, 32767, 32767, 32767, 32767, 32767, 32767, 32767,
    -1311, 21207, 32767, 32767, 32767, 32767, 32767, 32767,
    32767, 32767, 32767, 32767, 32767, 32767, 32767, 32767,
    -731, 21713, 32767, 32767, 32767, 32767, 32767, 32767,
    32767, 32767, 32767, 32767, 32767, 32767, 32767, 32767,
    -1941, 20227, 32767, 32767, 32767, 32767, 32767, 32767,
    32767, 32767, 32767, 32767, 32767, 32767, 32767, 32767,
    -1814, 21586, 32767, 32767, 32767, 32767, 32767, 32767,
    32767, 32767, 32767, 32767, 32767, 32767, 32767, 32767,
    -1857, 20908, 32767, 32767, 32767, 32767, 32767, 32767,
    32767, 32767, 32767, 32767, 32767, 32767, 32767, 32767,
    -3866, 18397, 31995, 32767, 32767, 32767, 32767, 32767,
    32767, 32767, 32767, 32767, 32767, 32767, 32767, 32767,
    -5462, 17719, 31435, 32767, 32767, 32767, 32767, 32767,
    32767, 32767, 32767, 32767, 32767, 32767, 32767, 32767,
    -1462, 20851, 32767, 32767, 32767, 32767, 32767, 32767,
    32767, 32767, 32767, 32767, 32767, 32767, 32767, 32767,
    -3985, 19539, 32767, 32767, 32767, 32767, 32767, 32767,
    32767, 32767, 32767, 32767, 32767, 32767, 32767, 32767,
    -2081, 20946, 32767, 32767, 32767, 32767, 32767, 32767,
    32767, 32767, 32767, 32767, 32767, 32767, 32767, 32767,
    -1147, 20616, 32767, 32767, 32767, 32767, 32767, 32767,
    32767, 32767, 32767, 32767, 32767, 32767, 32767, 32767,
    1002, 23943, 32767, 32767, 32767, 32767, 32767, 32767,
    32767, 32767, 32767, 32767, 32767, 32767, 32767, 32767,
    -4435, 20043, 32767, 32767, 32767, 32767, 32767, 32767,
    32767, 32767, 32767, 32767, 32767, 32767, 32767, 32767,
    88, 22505, 32767, 32767, 32767, 32767, 32767, 32767,
    32767, 32767, 32767, 32767, 32767, 32767, 32767, 32767,
    -753, 21266, 32767, 32767, 32767, 32767, 32767, 32767,
    32767, 32767, 32767, 32767, 32767, 32767, 32767, 32767,
    -2229, 20290, 32767, 32767, 32767, 32767, 32767, 32767,
    32767, 32767, 32767, 32767, 32767, 32767, 32767, 32767,
    -2499, 19863, 32767, 32767, 32767, 32767, 32767, 32767,
    32767, 32767, 32767, 32767, 32767, 32767, 32767, 32767,
    -2645, 21247, 32767, 32767, 32767, 32767, 32767, 32767,
    32767, 32767, 32767, 32767, 32767, 32767, 32767, 32767,
    -2936, 19732, 32723, 32767, 32767, 32767, 32767, 32767,
    32767, 32767, 32767, 32767, 32767, 32767, 32767, 32767,
    -5271, 16833, 29583, 32767, 32767, 32767, 32767, 32767,
    32767, 32767, 32767, 32767, 32767, 32767, 32767, 32767,
    -922, 23055, 32767, 32767, 32767, 32767, 32767, 32767,
    32767, 32767, 32767, 32767, 32767, 32767, 32767, 32767,
    20, 23664, 32767, 32767, 32767, 32767, 32767, 32767,
    32767, 32767, 32767, 32767, 32767, 32767, 32767, 32767,
    -911, 20415, 32767, 32767, 32767, 32767, 32767, 32767,
    32767, 32767, 32767, 32767, 32767, 32767, 32767, 32767,
    -5492, 16239, 30241, 32767, 32767, 32767, 32767, 32767,
    32767, 32767, 32767, 32767, 32767, 32767, 32767, 32767,
    -1210, 21619, 32767, 32767, 32767, 32767, 32767, 32767,
    32767, 32767, 32767, 32767, 32767, 32767, 32767, 32767,
    -94, 22317, 32767, 32767, 32767, 32767, 32767, 32767,
    32767, 32767, 32767, 32767, 32767, 32767, 32767, 32767,
    -1786, 20542, 32767, 32767, 32767, 32767, 32767, 32767,
    32767, 32767, 32767, 32767, 32767, 32767, 32767, 32767,
    -7807, 14922, 29733, 32767, 32767, 32767, 32767, 32767,
    32767, 32767, 32767, 32767, 32767, 32767, 32767, 32767,
    -2442, 19864, 32767, 32767, 32767, 32767, 32767, 32767,
    32767, 32767, 32767, 32767, 32767, 32767, 32767, 32767,
    1308, 22616, 32767, 32767, 32767, 32767, 32767, 32767,
    32767, 32767, 32767, 32767, 32767, 32767, 32767, 32767,
    -448, 21707, 32767, 32767, 32767, 32767, 32767, 32767,
    32767, 32767, 32767, 32767, 32767, 32767, 32767, 32767,
    -6602, 16660, 27801, 32767, 32767, 32767, 32767, 32767,
    32767, 32767, 32767, 32767, 32767, 32767, 32767, 32767,
    -2102, 20908, 32767, 32767, 32767, 32767, 32767, 32767,
    32767, 32767, 32767, 32767, 32767, 32767, 32767, 32767,
    -4446, 17172, 31645, 32767, 32767, 32767, 32767, 32767,
    32767, 32767, 32767, 32767, 32767, 32767, 32767, 32767,
    -2404, 19956, 32767, 32767, 32767, 32767, 32767, 32767,
    32767, 32767, 32767, 32767, 32767, 32767, 32767, 32767,
    1227, 23338, 32767, 32767, 32767, 32767, 32767, 32767,
    32767, 32767, 32767, 32767, 32767, 32767, 32767, 32767,
    -2817, 20044, 32767, 32767, 32767, 32767, 32767, 32767,
    32767, 32767, 32767, 32767, 32767, 32767, 32767, 32767,
    -3866, 19328, 32767, 32767, 32767, 32767, 32767, 32767,
    32767, 32767, 32767, 32767, 32767, 32767, 32767, 32767,
    1641, 26030, 32767, 32767, 32767, 32767, 32767, 32767,
    32767, 32767, 32767, 32767, 32767, 32767, 32767, 32767,
    1862, 24150, 32767, 32767, 32767, 32767, 32767, 32767,
    32767, 32767, 32767, 32767, 32767, 32767, 32767, 32767,
    -1221, 23466, 32767, 32767, 32767, 32767, 32767, 32767,
    32767, 32767, 32767, 32767, 32767, 32767, 32767, 32767,
    -2894, 20719, 32767, 32767, 32767, 32767, 32767, 32767,
    32767, 32767, 32767, 32767, 32767, 32767, 32767, 32767,
    291, 22977, 32767, 32767, 32767, 32767, 32767, 32767,
    32767, 32767, 32767, 32767, 32767, 32767, 32767, 32767,
    -2336, 20264, 32767, 32767, 32767, 32767, 32767, 32767,
    32767, 32767, 32767, 32767, 32767, 32767, 32767, 32767,
    -6491, 15745, 29868, 32767, 32767, 32767, 32767, 32767,
    32767, 32767, 32767, 32767, 32767, 32767, 32767, 32767,
    -3438, 20152, 32767, 32767, 32767, 32767, 32767, 32767,
    32767, 32767, 32767, 32767, 32767, 32767, 32767, 32767,
    -1118, 21187, 32767, 32767, 32767, 32767, 32767, 32767,
    32767, 32767, 32767, 32767, 32767, 32767, 32767, 32767,
    -2817, 21648, 32767, 32767, 32767, 32767, 32767, 32767,
    32767, 32767, 32767, 32767, 32767, 32767, 32767, 32767,
    -1594, 20626, 32767, 32767, 32767, 32767, 32767, 32767,
    32767, 32767, 32767, 32767, 32767, 32767, 32767, 32767,
};

/* scale=9.07524303e-03 */
static const int8_t mamba_l0_fwd_D[80] = {
     117,  107,  111,  119,  114,  116,  115,  124,  119,  102,  115,  114,  110,  119,  122,  105,
     115,  114,  114,  109,  112,  106,  106,  105,   98,  107,  107,  116,  127,  107,  120,  113,
     108,  111,  113,  108,  115,   93,  112,  120,  105,  107,  106,  109,  118,  120,  116,  111,
     119,  116,  115,  117,  118,  119,  114,  117,  114,  118,  108,  112,  108,  109,  116,  116,
      97,  112,  115,  117,  110,  104,  116,  103,  101,  119,  114,  105,  104,  117,  113,  102,
};
static const float mamba_l0_fwd_D_scale = 9.07524303e-03f;

/* scale=3.20042968e-02 */
static const int8_t mamba_l0_fwd_dt_bias[80] = {
    -127, -125, -125, -125, -125, -125, -125, -125, -125, -125, -125, -125, -125, -125, -125, -125,
    -125, -125, -125, -125, -125, -125, -125, -125, -125, -125, -125, -125, -125, -125, -125, -125,
    -125, -125, -125, -125, -125, -125, -125, -125, -125, -125, -125, -125, -125, -125, -125, -125,
    -125, -125, -125, -125, -125, -125, -125, -125, -125, -125, -125, -125, -125, -125, -125, -125,
    -125, -125, -125, -125, -125, -125, -125, -125, -125, -125, -125, -125, -125, -125, -125, -125,
};
static const float mamba_l0_fwd_dt_bias_scale = 3.20042968e-02f;

/* scale=3.21517186e-03 */
static const int8_t mamba_l0_fwd_in_proj_w[6400] = {
     -64,    7,   14,   -9,   35,   18,   46,  -29,  -14,  -50,  -29,   24,  -67,  -73,  -24,   54,
       9,   29,  -39,    9,    4,   59,  -12,    1,   21,   11,   16,    2,  -65,   -8,   -3,  -25,
      68,   15,   40,   23,  -21,  -40,   52,   18,    3,  -38,    4,  -70,   32,   15,   47,   39,
     -41,  -12,  -24,    3,   20,   36,  -13,    6,  -16,  -13,  -54,    0,  -20,   50,   -3,    7,
      14,   54,   41,  -36,   95,  -45,   56,   19,  -53,  -57,   -1,   56,  -17,   -9,  -42,  -46,
     -70,   18,   69,  -20,   -7,  -21,    1,   25,  -52,   36,  -69,  -56,  -39,  -93,   -7,   21,
     -58,  -44,  -14,   41,   47,    7,   -4,   62,  -68,  -53,  -21,   72, -108,   26,   56,   26,
      28,   -5,   33,  -21,  -79,   82,   59,   10,  -18,  -39,  -10,   11,  -18,  -10,  -44,  -25,
      43,   32,   42,  -19,   70,  -30,   -2,   33,    0,  -33,   61,   31,   32,   30,   -1,   25,
      31,    3,  -31,    4,  -24,   22,  -39,    5,  -25,  -28,    0,   48,  -16,    7,  -62,  -34,
     -10,   -8,  -91,  -22,   -4,   14,   49,   10,    0,   34,   44,  -16,   74,   64,    3,  -11,
       4,  -19,   95,   12,  -61,  -60,    7,  -71,   17,    3,  -29,  -30,   63,   46,  -48,   -9,
     -40,    1,   58,   -9,   39,  -65,   -1,   40,  -26,   32,  -15,   49,   30,  -55,  -24,   20,
      25,  -43,  -27,   56,   38,  -54,   40,    2,  -55,    2,  -34,   -6,    1,  -33,   11,   47,
      23,  -76,    7,   61,  -55,   13,   26,  -13,    7,  -69,   65,  -17,    2,   -3,  -24,   39,
      -6,  -44,  -71,    0,   49,  -44,  -10,  -36,  -18,   -4,   48,   43,   -6,    2,   26,  -62,
      47,  -12,   77,   37,  -59,  -20,   -4,  -22,   32,  -33,   47,   -1,   67,    8,  -10,   31,
      10,    8,  -45,  -26,   29,  -41,  -99,  -18,   33,   37,    7,   -4,   -4,   33,   -5,    6,
      65,   15,   13,  -46,  -37,  -45,   55,  -70,  -12,  -34,  -31,   45,  -45,  -17,   47,   36,
     -65,  -63,  -48,   45,   16,   47,  -14,   18,   49,   29,  -47,  -15,  -87,   -6,   26,  -16,
      32,   14,   -9,  -53,   14,   42,  -29,  -21,   64,   18,   70,  -55,   41,   27,   50,  -38,
      37,   -6,  -11,   37,  -54,   18,  -41,  -48,  -20,  -17,   26,  -32,   58,  -40,   38,   29,
     -55,   58,    1,  -73,  -50,   -7,  -51,  -30,   32,  -28,  -62,   21,  -26,   30,  -53,  -13,
      40,  -30,  -36,   77,   43,   -1,  -34,    3,   10,   21,   50,   -6,   -1,   28,  -41,  -21,
      63,    6,    8,   -8,   -7,   85,  -40,    3,   65,  -45,   14,    3,  -30,  -63,   17,   -7,
     -59,  -36,  -60,   50,   36,   39,  -35,  -35,    5,   19,    8,  -15,  -14,   39,   10,   32,
       1,  -36,  -44,   35,    4,   18,   34,    0,  -44,    0,  -52,  -16,  -35,  -23,  -28,   59,
     -11,   15,    4,   43,   27,   60,   -9,    9,  -39,   -2,    6,  -62,   50,   66,   83,   -4,
     -31,  -52,   16,  -25,  -72,   10,   48,   34,  -51,   20,  -20,  -90,   62,   27,    9,   58,
     -45,  -68,   60,   75,   30,   19,   59,   13,   -6,   21,  -34,    5,   17,  -34,   38,  -18,
      12,   54,  -45,  -53,   46,    5,  -25,  -13,    5,    5,  -42,    6,  -12,    0,   55,   -6,
      37,   15,  -16,   48,   -6,  -21,  -32,  -15,  -33,    5,    0,    7,   30,  -34,   20,   14,
     -19,    3,  -45,  -18,   -9,  -15,  -10,   20,  -36,   40,    6,  -23,   23,   -1,  -54,   41,
     -44,  -16,  -23,  -30,    4,    7,   30,    9,   -4,   19,   47,   46,  -40,   61,  -26,  -20,
      40,  -21,    6,   42,   75,   16,   -9,   17,  -26,  -60,   -6,   54,    1,   10,   11,  -16,
     -72,   59,   -3,   20,   -6,  -43,   21,   45,  -22,   10,    2,    4,  -15,    4,   24,   45,
      40,  -63,  -14,   -3,   52,  -14,  -31,   27,  -46,   26,   31,   17,    3,  -43,   38,  -57,
     -36,  -19,  -56,   41,  -54,   23,  -10,  -48,   25,    0,  -11,   44,   78,   47,   18,   20,
     -49,   16,  -35,  -13,   59,   60,   15,    9,   69,   -7,    9,  -47,    3,  -13,  -30,  -37,
     -26,    3,  -10,  -43,   16,   -1,  -32,   41,   15,  -10,   11,  -30,   53,  -60,   -9,   42,
      16,    5,   -1,   55,  -77,  -56,   58,  -18,   51,   30,   11,   15,   53,  -17,  -31,   40,
     -62,   46,  -27,  -13,   71,    6,   22,   16,   14,   17,  -26,  -17,  -79,   -2,    9,  -25,
      -3,    1,   44,  -19,    5,   39,   65,  -35,  -20,  -17,    2,   54,   21,   15,  -38,   -8,
      45,   11,  -10,  -10,   27,  -39,  -28,    3,  -22,   46,   14,   10,  -27,    3,   -5,  -23,
     -13,  -87,   51,  -31,  -46,   11,   36,   -8,   37,   -4,   -9,  -29,  -14,   16,   52,  -10,
      21,  -68,   17,   -6,   26,  -54,  -22,   -2,   54,  -10,   26,   46,  -73,  -11,  -57,   35,
       2,   -5,  -53,  -10,    8,  -23,   18,  -43,   53,   12,   27,  -21,   12,  -28,   54,  -27,
       7,   23,   27,   30,   55,   14,  -13,   39,   53,    7,  -83, -103,    5,  -43,  -10,   49,
       0,   57,   14,    9,   40,   92,   69,   27,   61,  -34,    5,   -5,  -52,   -7,   29,  -29,
       9,  -16,   12,  -69,   97,  -35,  -75,  -10,  -41,    6,  -36,   74,    4,    0,   -5,   25,
      23,   31,    2,    5,   -1,  -55,   45,    3,  -15,  -12,   16,  -37,  -31,   53,  -51,  -25,
      -2,  -14,   41,   32,  -22,  -37,  -26,   50,   25,  -59,  -27,  -33,  -48,    2,   20,   40,
      75,   27,  -16,   36,  -42,   -2,   35,   26,   27,  -12,  -44,    7,   50,  -42,    1,  -68,
     -68,  -40,  -31,  -39,   17,  -62,  100,    1,   20,   40,   -7,   56,  -68,  -38,   34,  -12,
     -12,   75,   10,   76,   10,   23,   -9,  -36,  -28,  -14,  -58,  -45,    6,   13,   46,   22,
      67,   -1,   48,  -84,    9,   -5,   92,   16,   35,   67,   10,   28,  -17,   27,   52,   46,
     -32,  -57,   15,    2,  -19,  -31,   44,  -30,  -39,  -64,   13,   11,  -39,  -28,   73,   21,
       6,  -27,  -43,   -7,   38,  -14,   -3,    8,   51,   22,   54,  -32,  -13,   81,   33,  -13,
      -8,  -38,  -13,   51,   69,  -39,   16,    9,    4,   24,   26,  -68,   89,   19,  -41,  -31,
     -29,  -24,  -58,   -8,   22,   22,   50,    6,  -52,   26,  -28,  -72,   14,   19,  -25,   53,
      48,   -8,  -21,   33,  -27,   39,  -40,  -26,  -31,  -27,  -34,   80,   10,   27,   25,  -11,
      20,   68,    3,   36,    1,  -21,  -13,  -43,    6,   39,  -67,   -9,   46,   50,  -45,   31,
      43,  -33,   77,   11,  -65,   47,  -78,   19,  -55,  -20,    9,    7,  -28,   24,   67,   57,
     -27,   44,   36,  -35,   45,  -54,   13,  -36,   32,  -41,  -55,  -23,   14,  -72,   11,  -42,
      43,   17,   27,   48,  -22,   48,   50,  -49,  -34,  -68,    8,    6,   42,  -49,  -36,   11,
      15,   54,  -34,   43,  -42,  -33,  -44,  -21,  -73,   28,    2,   28,   13,    4,   64,   31,
      24,    6,    3,   63,   18,   46,  -21,   39,   -1,   19,   30,  -13,   78,  -57,   -7,  -10,
      27,  -39,   24,   27,  -32,   17,  -33,   43,  -10,   54,   64,  -54,   52,  -23,   10,  -12,
     -17,   57,   40,  -79,   44,  -15,  -37,   -2,  -25,   -4,  -21,   40,  -59,   21,  -19,   46,
     -38,  -45,   18,   49,  -33,   15,  -53,  -39,   54,    5,  -65,  -31,   -9,  -41,   47,  -38,
      48,   45,   38,  -38,  -34,  -21,    4,   21,    4,  -78,  110,   80,    1,   70,  -84,  -66,
     -33,  -29,   43,  -44,   83,    3,  -28,  -49,   20,  -44,   15,   14,   45,  -16,   15,   -3,
      10,  -25,    1,   -1,   41,   -6,   30,  -48,   14,  -50,  -38,   67,  -29,   67,  -26,   15,
      14,  -30,   56,   -5,   45,   -1,   45,   -5,  -43,   58,   63,   26,  -31,  -23,   20,   43,
     -55,  -16,  -17,   39,  -53,  -15,  -36,   15,   13,   -1,   -5,  -91,    1,   45,  -22,   21,
     -18,   27,  -49,  -69,    1,   33,  -12,  -35,  -68,   -4,   67,  -16,   83,   83,   68,   23,
      24,  -36,   50,   30,   13,   42,  -54,  -10,  -13,  -79,  -51,  -24,   51,  -19,   26,  -44,
     -28,   47,  -30,   36,  -11,   41,  -49,   14,   -4,  -44,  -23,   75,  -49,  -10,   42,    4,
       3,   25,  -28,  -24,   -5,  -46,  -41,    8,   42,   -5,   32,   26,   69,   11,  -33,   -5,
     -15,   56,   32,  -32,   -8,   -3,  -55,   17,   21,    1,  -32,   33,  -64,   18,  -15,   -1,
     -48,  -11,  -54,    9,  -11,   42,  -28,  -43,   -8,    0,   44,    5,    5,   65,  -32,   14,
     -42,  -59,  -14,   -2,   20,  -32,   45,   64,   -6,    8,   -8,  -51,    5,   42,   58,   59,
      -7,   25,  -18,   32,   63,  -12,   62,   33,  -43,  -54,   13,  -17,   25,  -80,   29,  -30,
      17,   -5,    9,   71,   27,  -51,   43,    3,  -20,    7,   -4,   28,    7,   30,  -21,  -39,
     -12,   24,    3,  -14,  -39,   48,   21,    1,  -15,  -24,   54,  -21,  -66,   52,   19,   40,
      46,   -2,   68,   39,    3,   39,  -31,  -25,  -33,   16,   25,   56,   72,   11,   60,  -58,
      18,   42,   -2,   49,    2,  -11,   -7,   38,   12,  -16,   15,  -53,  -18,  -40,   -7,   -2,
      59,  -47,  -28,  -16,  -33,  -67,  -61,   47,   24,    2,   70,   -7,    5,  -59,   23,  -18,
     -45,  -32,  -18,   27,   -9,   18,   11,   24,   -8,   -4,  -61,   16,  -37,  -49,   35,   23,
     -50,  -11,   63,  -10,  -25,    0,    4,   19,  -64,   64,  -20,   -5,   51,  -43,    7,   65,
     -56,   87,   24,   48,   29,  -51,   -7,   -4,  -40,   -3,   -2,  -45,  -22,   30,    5,   50,
      20,  -42,   37,    9,  -20,  -51,  -13,  -34,   53,  -26,  -41,   61,   -2,   48,  -19,  -49,
      29,  -51,    2,   48,  -43,  -42,  -28,  -32,  -23,  -23,   17,   37,  -32,  -21,  -67,   30,
     -23,  -34,   28,   73,  -43,   59,   29,   12,  -11,   66,   80,   23,  -81,   -6,  -19,    9,
      64,  -53,    1,   31,   45,   21,  -82,  -91,   27,  -65,   66,  -12,  -52,  -38,   34,   17,
      -5,   18,  -42,  -20,   -1,   55,  -82,  -44,  -22,  -31,   54,   27,   32,  -12,  -38,   -1,
      -1,   25,   49,   14,   32,   56,   10,   59,   38,  -77,  -72,  -59,   53,   -1,    8,  -20,
      70,  -42,  -10,   33,  -35,   10,  -50,  -74,  -29,  -34,   45,    5,   69,    3,   12,   -5,
     -11,   39,   34,  -58,   -9,   36,  -13,  -24,  -34,   44,   42,   10,   -3,  -84,   -1,  -69,
      40,   13,   36,  -27,    0,  -20,   28,  -17,  -11,   26,   -2,   37,   67,  -36,   -4,  -20,
       9,   -9,  -66,  -31,  -34,   45,    1,   -4,  -44,   27,  -45,  -44,  -28,   18,   58,  -16,
     -25,    4,   -5,   70,   45,   36,   -1,   72,   27,   -9,   54,   17,  -20,  -10,    7,   27,
      -5,   37,   37,    5,  -22,   45,  -16,  -44,  -15,   24,  -21,   -9,   14,    8,  -12,   31,
     -34,  -16,  -30,   -2,   32,   26,   48,  -53,   17,  -59,   78,    6,  -10,   25,   22,  -58,
      15,  -10,   15,    6,   69,   -4,   -1,  -46,  -75,   39,   -6,  -15,   43,  -31,   -2,  -17,
      46,  -64,    4,   39,  -25,   11,   20,  -47,   55,  -36,    1,  -44,  -20,   33,  -46,   -7,
      14,   55,  -16,  -31,    9,   14,   13,   31,  -36,   37,  -48,   50,    5,   10,  -34,  -11,
      21,  -21,  -13,   21,   27,  -25,   27,   15,   -7,   32,   26,  -69,   32,   10,   27,   -1,
     -29,  -11,   25,   14,    1,   83,   10,  -93,  -18,   18,   76,  -32,  -60,   57,  -45,   -6,
     -19,   44,   14,  -18,   46,   35,  -82,  -39,  -51,   10,  -53,  -35,   -2,    1,  -90,  -17,
     -42,  -30,  -53,  -38,   61,  117,  -46,   -6,  -43,  -37,   21,  -93,   -1,   37,   41,  -12,
      39,  -23,   63,  -36,  -38,   29,  -10,   43,   33,  -26,   -7,  -33,   56,   34,  -40,  -11,
      -1,   62,  -28,   13,    0,  -32,  -71,   17,  -39,   18,  -17,   -5,   -1,   22,   15,   17,
      50,   15,   -5,  -48,  -28,  -57,  -17,   26,   26,   -6,  -61,    1,  -15,  -30,   42,   39,
     -26,   48,  -12,  -54,  -30,  -24,    7,   44,  -83,   15,   33,  -30,    9,    4,    7,   36,
     -50,  -50,   29,   19,  -25,   35,   59,   41,   27,   33,  -31,   21,   38,  -55,   35,  -24,
     -47,   39,   -6,    4,  -49,  -41,  -28,    0,   18,   31,   74,   19,  -38,   15,   47,  -41,
      25,  -38,  -65,   20,   37,  -11,   10,   11,    9,  -50,  -28,   15,   -5,   10,  -62,   19,
      24,  -19,    1,   25,  -15,   31,  -19,  -22,   -9,   11,  -53,   32,   45,   38,  -49,   80,
      24,   55,  -47,   17,  -28,   15,  -46,   53,  -25,   -7,    5,   42,  -83,  -17,   44,   -1,
     -27,  -33,   62,  -57,   23,  -69,   14,   19,  -75,   82,  -58,  -58,   32,  -24,   -7,  -41,
      27,    2,  -23,   38,    7,  -26,   96,  119,   24,  -53,   71,  -65,  -42,  -78,  -12,   60,
       7,   13,   -2,  -29,   45,  -29,  -70,  -14,   18,   -6,  -58,   25,  -26,  -15,   18,  -41,
      -2,  -48,  -24,  -33,   66,  -25,   32,    1,  -50,   40,   79,  -33,   10,   42,  -58,    2,
      67,   19,  -11,    7,   40,   87,  -69,   20,   64,  -49,  -31,  -12,  -48,  -38,   26,   10,
      18,    3,  -29,   -9,  -46,    2,   33,   27,  -24,    9,   21,    1,  -15,   26,   43,  -56,
      82,  -37,   10,   -9,  -61,   14,  -22,   20,   38,  -45,  -26,  -41,   85,    6,  -34,  -19,
      -5,   26,  -29,   70,   26,  -17,  -75,   15,  -23,  -42,   -6,   -3,   66,   26,  -15,    2,
      41,  -45,   22,    0,   11,   34,  -54,  -42,   85,  -68,    3,   58,  -59,   26,   15,  -30,
     -41,    3,   50,  -20,   25,   29,   43,   44,  -46,  -14,   13,   -1,   25,    0,   47,   32,
      83,  -34,   19,   18,  -19,    5,   52,   13,  -74,   68,  -64,   97,  -51,   22,   29,  -35,
     -26,  -17,   41,    3,    6,   82,   38,  -35,   47,  -24,    8,  -72,   30,  -13,  -45,    4,
      60,    4,  -45,  -55,  -45,  -84,  -26,   75,   82,  -94,   15,  -25,  -49,   13,   20,   22,
      14,  -21,   19,   96,   23,    9,    2,   32,   31,   56,  -19,    6,   81,   68,    4,   28,
     -67,   -2,   80,  -14,  -25,  -76,   -1,  -32,   26,   56,   11,  -41,    7,  -30,    2,   75,
     -12,  -57,    3,   58,   23,   -2,   -7,   30,   28,    9,  -66,   26,  -73,  -19,  -35,  -20,
      42,   57,  -51,  -10,  -17, -100,  -11,   21,  -58,  108,   50,   63,  -80,  -12,   -4,   50,
      64,   -6,   -9,   22,   23,  -18,  -57,  -36,   17,   -4,   93,  -37,  -61,  -16,  -28,  -48,
      -4,  -15,  -40,   21,   18,   10,  -61,   40,  -20,   34,   27,   10,  -36,    9,    5,   -2,
      43,  -34,  -57,    2,   21,   29,   23,  -27,    2,   50,   49,  -25,  -36,   -8,   57,  -69,
      19,  -38,    4,  -34,    4,  -62,   16,  -11,  -54,   25,    7,    8,   34,  -13,  -10,   25,
     -38,   63,   11,  -32,   19,   -4,   24,    3,   40,   -2,  -19,  -25,  -58,   -4,  -14,  -37,
       3,  -39,  -87,  -23,   70,  -10,   42,   54,    9,   -9,  -39,  -10,  -62,    3,   11,   33,
     -32,   29,  -63,   48,   -1,    2,  -23,   55,   42,  -45,   53,  -41,   40,    9,   -9,   -8,
      72,   36,   -2,  -82,   31,  -71,  -47,  -43,   40,  -61,   64,   72,   20,   -6,   -7,  -36,
      16,   31,    9,  -51,    4,   80,  -29,  -10,  -32,  -15,    3,   23,  -20,   18,   -3,  -22,
     -17,  -86,   70,  -12,  -29,   33,    6,  -12,   51,  -38,   60,   39,   68,    6,  -85,  -26,
       8,   56,   59,  -16,   15,  -19,  -78, -104,   29,   29,  -38,   67,  -18,  -74,   -4,  -19,
      48,  -32,  -32,   20,  -18,  -19,  -29,  -11,   24,   41,  -55,   18,   20,    7,    9,  -23,
       9,   20,    1,  -65,    6,  -44,   -5,  -32,  -20,   -4,    9,  -47,    6,   29,   50,   21,
     -52,   12,  -11,  -16,  -24,  -78,   38,    2,  -41,   -4,  -26,  -35,   43,   20,   15,    9,
      -9,   12,   10,  -10,  -27,  -35,   -2,   46,   -5,   31,  -16,  -40,   -4,   15,  -35,  -39,
      27,  -36,  -52,   69,   33,  -28,   -6,  -15,   -6,   15,  -15,   31,   14,  -12,  -60,  -93,
     -46,   13,  -33,   59,   13,  -19,   32,    6,   11,  -31,  -13,   55,   12,  -12,  -47,  -15,
      34,  -26,   -7,    4,   30,  -25,  -24,  -29,   65,  -46,   60,  -25,  -53,  -10,   34,    9,
      34,  -53,   23,   43,  -18,  -23,   82,  -65,   50,  -48,   55,   22,   37,   85,  -10,  -40,
     -46,  -21,  -26,  -37,  -26,  102,  -50,  -59,  101,   20,   -7,   -6,  -21,   67,   10,  -33,
     -65,  -33,  -21,   64,  -10,  -12,  -23,  -36,   -1,   25,   33,  -40,    7,   15,   62,   62,
      54,  -30,   -5,    6,   30,  -62,   -1,   -9,   51,  -27,   21,  -77,   32,   -2,   27,  -43,
      10,    9,  -21,  -47,   -6,   26,  -54,  -65,   35,  -17,   14,   20,  -42,    1,   -7,   -2,
     -28,   48,   41,   -8,   31,   77,  -49,   58,  -57,   30,  -47,  -26,  -61,   53,   50,  -12,
      13,  -55,   -9,   10,  -86,   57,  -13,   62,   15,   -3,   -5,  -39,   94,   24,   -5,  -33,
      44,  -10,  -48,  -32,   20,  -54,  -53,   24,   23,    9,   -1,   46,  -28,  -31,  -34,    0,
     -30,  -24,   15,   38,  -64,  -10,  -12,   32,   -9,   34,   24,  -45,   27,   25,  -41,   13,
      43,   65,   42,  -21,  -34,   -3,   55,   28,   39,   20,    2,   35,    8,   49,   -9,   37,
       2,   70,  -36,  -29,   46,  -20,  -20,  -13,  -29,  -26,   51,  -42,   13,   30,  -33,  -46,
       3,  -44,  -36,  -16,   36,   19,   25,   49,  -52,  -68,   49,  -69,  -26,   -5,  -20,   45,
       1,  -22,   29,  -54,   57,   28,  -59,   -5,  -13,   32,  -27,    3,   -7,    5,   37,   19,
     -48,   15,  -25,  -28,   -4,   72,    2,  -16,   61,   17,  -14,   -7,  -33,    4,    2,  -70,
      56,   -4,  -25,  -69,   36,  -55,  -21,   -5,   -2,    4,  -54,   57,   58,  -20,  -58,   39,
       2,   11,    9,   34,   -8,   -1,  -21,    9,  -57,  -26,   22,  -63,   29,  -39,   76,  -18,
     -32,   33,   43,  -14,  -63,   33,   40,   33,   56,  -41,   29,    6,    9,  -68,   14,  -42,
       4,  -54,   34,  -44,   11,   16,   -7,   81,    7,   45,    3,  -50,   46,   13,   -7,  -59,
     -36,   19,   -5, -101,   53,  -45,   46,   68,   41,  -37,   28,  -25,   33,  -45,  -19,  -59,
      61,   34,   11,  -20,   50,   -8,  -13,   30,  -66,  -25,   20,   39,   33,  -53,   25,  -24,
       1,    9,  -85,   18,   11,   20,   17,  -18,   -5,   33,   16,   41,   24,   56,  -19,   39,
     -41,   -5,  -28,   -5,  -29,  -10,  -40,  -50,  -34,   -7,  -37,  -33,   20,   -7,    2,  -27,
     -26,  -44,  -15,   26,   50,  -64,  -49,  -14,    4,   47,   34,   31,    6,  -24,  -43,    3,
       3,   17,   12,   30,  -19,   38,   27,   40,   26,  -13,   49,   -4,  -25,   -7,   -6,  -34,
      51,   -4,  -25,   41,   61,  -42,  -62,  -85,   17,  -61,   14,  -23,  -40,  -17,   -5,   44,
      32,  -25,  -52,  -19,   10,   44,  -15,   15,  -21,  -16,  -16,   35,  -21,   22,  -29,  -40,
     -15,  -38,   -3,   35,   -9,   31,  -45,    3,  -14,  -19,   20,   33,   17,   24,    7,  -25,
      38,   34,   51,   -2,  -30,  -22,  -10,  -11,  -10,   -4,   -4,   10, -104,   10,   44,   40,
       9,  -36,  -35,   55,  -38,   75,  -22,  -62,  -24,   29,   12,  -33,  -46,   48,  -15,   28,
      -4,  -43,   11,   -9,   17,   15,  -21,    6,   71,  -27,   73,   -3,  -86,    7,  -23,  -37,
     -28,  -41,  -15,  -75,   24,   17,  -33,    5,  -33,   55,   12,   43,   52,   10,   26,  -42,
     -26,   -7,  -36,   47,   15,  -33,   48,   26,   17,  -87,  -51,    5,   28,   17,   -8,   59,
      -7,  -19,  -71,  -19,  -25,   16,    5,  -42,    2,   23,   -1,  -50,   28,   67,  -54,   39,
      13,    8,  -35,   23,  -35,   60,   42,  -42,   58,  -36,   13,    4,  -53,  -41,   40,   52,
     -71,   62,  -51,    3,   53,  -43,  -46,  -35,  -28,   16,  -43,   19,  -18,  -74,  -81,   39,
       3,  -31,   19,   13,  -84,  -31,  -68,   27,  -34,  -18,  -21,   18,   25,   55,  -59,   35,
     -22,  -13,   -2,    8,   56,   62,  -51,   30,  -11,  -17,   -2,  -26,   60,   -6,   10,   19,
       0,  -16,   70,   38,  -41,  -36,    0,  -41,  -32,  -25,   59,   24,    6,  -11,   51,  -49,
     -45,  -48,  -18,   50,  -27,  -47,  -53,   44,   -3,   13,   33,   64,   69,   63,   45,   47,
      32,   -6,  -19,   25,  -70,  -21,   14,   -4,   -5,  -22,   39,   49,   -4,    2,   64,   11,
     -41,   22,  -24,    2,   40,   57,   17,  -17,   28,  -30,  -48,  -77,  -32,  -16,   26,  -20,
      32,  -86,    7,   42,  -19,  -40,  -28,    6,   48,  -11,   81,  -13,  -38,   30,   19,  -35,
     -27,   -9,  -55,   48,   24,   33,    6,  -98,  -15,    5,   -9,  -64,   22,   28,  -10,  -44,
       9,  -19,   46,  -48,  -11,  -39,  -34,    6,   -4,  -40,  -50,    1,   15,  -44,   21,  -69,
     -19,   -6,   46,   -9,    8,    8,   30,   10,  -76,    1,   16,    7,   41,   11,  -29,  -32,
      26,  -31,  -28,  -50,  -18,   54,   -7,   15,  -21,  -28,   12,  -10,   18,   72,   65,   -9,
      73,  -27,   34,   37,  -39,   49,   -1,  -28,   81,   61,   16,  -51,   61,  -22,  -57,  -34,
      15,    1,   43,   24,  -11,  -59,   13,    0,  -32,   33,   88,  -61,   -6,   10,   12,   23,
      47,  -45,  -10,   59,   36,   13,  -46,  -77,  -32,   12,  -17,    1,   35,   16,  -10,  -19,
     -17,  -33,  -51,  -30,   34,  -10,   25,  -33,  -25,   39,  -14,  -26,    0,   34,  -33,  -41,
      17,  -66,  -49,   74,  -71,   27,  -85,    4,  -27,    4,  -53,   -5,   55,    4,  -57,   85,
      67,   29,   48,   35,   61,   39,  -44,   -1,   50,  -32,  -67,  -26,   -4,   41,   21,  -52,
     -17,  -46,   77,   25,  -68,    5,  -31,  -17,   18,   22,   47,   29,  -26,  -57,   47,  -56,
      28,  -24,  -20,    8,   -4,   37,   17,  -34,   17,  -16,  -49,  -24,  -18,   -1,   50,  -43,
     -34,  -22,  -69,    2,  -60,   34,  -31,   -5,  -32,   -7,  -28,   18,  -16,   14,   45,  -40,
      -4,   36,  -16,  -19,   -2,   17,  -16,    2,  -10,  -15,  -17,  -76,   66,    5,   18,   13,
     -19,   41,   -6,    7,  -39,   -9,   28,  -13,  -31,    8,  -43,  -61,    1,   27,   -8,   31,
     -11,  -28,  -23,  -47,   15,   -7,   13,   19,  -10,  -32,   18,  -20,  -64,  -11,  -15,  -55,
      14,  -18,   21,   17,   51,   33,  -30,   26,  -57,  -21,   69,  -29,   40,  -36,   36,  -43,
     -28,  -47,   30,  -66,   32,  -25,   10,   -4,   21,  -33,   64,    4,   -5,   55,  -52,   26,
      42,  -29,  -67,  -28,   54,  -75,  -66,  -38,   -3,   31,   61,  -29,   28,   50,  -64,   35,
     -37,   47,  -11,  -43,   -9,   31,  -37,   48,  -34,  -57,  -40,   42,    2,   50,  -24,   15,
     -23,  -28,   60,   11,    3,   37,  -57,  -60,  -13,  -22,   12,  -73,    4,   18,  -11,    8,
       3,   40,  -14,    2,  -94,  -25,   18,   -7,   22,  -15,  -22,   64,   67,   31,  -23,   43,
     -39,  -22,  -21,  -19,   16,  -24,   12,    0,   28,   26,  -35,  -34,   -3,    0,   58,  -33,
     -52,  -49,   10,  -20,  -41,   -3,  -14,  -19,   31,   16,   38,    5,   45,  -34,   69,  -26,
      39,  -29,  -39,   23,    9,   26,  -20,   66,   59,   -1,   11,   10,   28,   21,   31,  -29,
     -53,    8,   30,  -40,  -24,  -18,  -32,   25,   -6,   23,    0,   -4,   13,   32,  -35,   18,
      -1,  -38,   26,   22,   14,   18,   27,  -48,   16,   -4,    5,  -23,  -22,   41,  -41,  -47,
     -32,   16,  -62,   21,  -39,   52,   -6,  -58,   25,  -21,   55,   50,   -5,  -32,   -2,    3,
     -52,   62,   17,   -3,   40,  -29,  -10,    8,  -43,    0,    7,  -44,  -11,  -31,    3,  -51,
     -17,  -43,  -58,   37,  -49,  -73,  -16,   41,   -2,   -6,   19,   22,  -46,  -14,   15,  -33,
     -31,   25,   16,  -45,   -5,   34,   -8,   30,   -7,   -2,    7,    5,   -7,  -59,    7,  -54,
      36,   40, -127,  -10,  -31,  -12,   55,   48,  -11,   86,   -9,   27,  -13,   62,   33,  -61,
      42,   17,   24,  -17,  -48,  -50,  -79,   -2,  -37,  -61,  -93,  -26,   67,  -22,   30,   44,
     -53,  -38,  -16,   42,   12,   22,   36,   -8,    6,   41,   15,    0,   20,    3,    2,   62,
      40,  -53,   29,   43,    1,   -2,   -9,  -27,   19,  -13,   20,  -15,  -11,   41,   -4,  -17,
      46,   28,  -37,   11,   37,  -22,   25,  -40,  -19,  -22,   17,  -42,    3,   33,  -16,    9,
     -70,   -7,  -16,  -26,   25,  -59,  -38,  -22,   67,   -9,  -37,   89,  -10,   -1,   57,  -28,
      24,   19,  -15,   29,  -27,  -57,   22,  -50,   11,  -40,  -10,  -11,  -50,   -7,   26,  -51,
      31,  -31,   17,  -42,   82,   22,    5,  -32,  -14,   -8,  -35,  -18,  -62,  -25,   -2,   24,
     -13,   17,  -62,   32,   62,   72,    4,   69,    3,  -44,   29,   45,    1,   47,   57,   12,
      -7,    4,  -49,   30,   59,  -44,   -8,  -73,  -23,   29,    3,  -64,  -18,   -4,    6,   29,
     -22,    2,  -33,  -32,  -55,    8,   27,   -5,   -2,  -56,    6,   28,   30,  -10,  -13,    0,
       9,  -10,   47,    9,  -17,   40,    0,  -48,   37,   31,  -54,  -37,  -41,   -6,  -33,  -75,
      63,   -7,    4,  -48,   -8,   53,   11,   20,   44,  -46,  -39,   32,   -4,    0,   -2,  -25,
      -4,   25,  -67,   17,  -99,   55,   38,   13,  -37,  -14,   70,   56,  -23,  -40,  -42,   17,
      47,   24,   41,   24,  -46,  -60,  -25,  -56,  -24,  -24,   -7,   -4,   20,   36,   27,  -18,
      46,  -38,  -30,  -27,   38,  -32,  -24,  -42,  -46,   52,   18,   53,  -53,   13,   53,   41,
      57,   43,   55,   36,   30,  -28,   -3,  -60,   19,  -30,   57,  -23,  -28,    8,    8,  -16,
     -23,    8,   -5,   31,   62,  -65,  -30,   27,   19,  -12,   68,    8,   69,  -23,  -16,   31,
      41,  -44,  -15,  -14,   10,  -27,  -47,  -57,   -3,   20,  -60,   28,   76,   17,   40,  -21,
     -72,  -72,   23,   -6,   48,  -39,  -34,   44,   16,  -61,   36,   -5,  -30,   26,   38,   58,
      76,  -52,  -51,    8,  -35,   25,   -2,  -47,  -32,   14,   32,  -35,  -70,   52,   -2,  -44,
     -26,   42,   53,   34,  -56,   44,  -35,  -36,  -23,    8,   10,   -7,    4,  -37,  -14,  -22,
       7,  -22,    2,   30,   10,   45,  -34,  -33,   63,  -43,  -44,   25,    9,   44,   29,   -6,
      40,   14,  -48,   23,   22,  -11,   -7,   45,  -29,   -3,   10,   27,   60,   14,  -16,   53,
      19,    1,  -21,  -29,    4,  -31,  -78,   43,   32,  -26,  -12,  -47,   19,   41,   21,   71,
     -22,   -8,  -24,   71,   15,   70,   26,  -46,  -45,   35,  -43,  -23,  -29,   54,   37,  -73,
     -34,  -56,   44,  -39,  -13,  -41,   37,  -83,   71,   41,    8,  -17,    6,  -79,   21,   11,
     -70,  -40,   65,   21,   30,   -1,  -43,   24,   57,  -28,   11,   57,   -3,    7,  -21,   16,
      44,   -6,   10,   -7,  -42,  -17,  -15,  -69,   49,    9,  -51,   57,    1,   -6,  -68,  -16,
     -60,    2,   -1,  -53,  -33,   20,  -14,   19,  -41,   -1,   29,   29,  -19,   -6,  -48,   12,
      43,    2,  -18,   -9,  -37,   22,   51,    4,  -13,  -42,   25,    0,    2,  -12,   51,  -14,
      26,   27,   10,   54,  -14,   -6,  -17,  -14,  -23,   -2,    9,  -23,  -63,  -21,  -24,   -7,
     -23,   -8,  -45,  -22,   -4,  -18,   32,  -57,  -43,   13,    0,   -7,   66,  -26,   19,    1,
     -29,   -6,  -25,  -15,   -1,   18,    8,   20,   30,   28,   62,    1,  -12,  -60,  -19,   32,
      11,  -68,   39,   -8,   15,   42,  -68,   41,   37,  -40,  -38,   28,  -26,   -6,   -7,  -17,
      28,   23,  -29,  -32,  -12,  -66,   40,   49,  -50,   27,   -8,  -71,   48,  -18,   11,  -32,
      44,    0,   29,   75,   10,  -36,  -11,   21,   29,   -7,   28,    9,   42,   19,  -12,  -44,
     -27,  -20,    1,   -4,  -63,   31,  -15,  -46,   -5,   19,   13,   66,   26,   29,    8,  -45,
     -26,  -24,    8,   36,   -1,    6,   13,   53,  -24,  -12,  -33,  -44,  -44,  -17,   58,  -30,
      50,   34,  -11,    5,  -38,    1,  -19,   47,   19,    8,  -31,   28,   25,  -29,  -33,   -9,
       3,   22,  -52,  -63,  -17,  -35,  -10,    6,   46,   27,   46,   18,  -40,  -43,   43,  -37,
      16,  -22,   25,   60,   44,  -15,  -57,   27,  -30,  -29,  -27,  -13,   16,  -10,   46,  -67,
      37,  -31,  -30,  -49,  -41,  -60,   13,   -1,  -18,   66,  -47,  -27,   -2,  -54,   37,   -4,
     -54,   25,   19,   37,  -39,   31,  -45,   48,   14,   22, -102,   21,  -62,   17,  -26,  -53,
     -23,  -50,  -13,   47,   31,   36,   40,   12,  -39,    7,  -38,   13,   13,   17,   25,  -40,
     -21,  -34,  -33,  -15,  -20,  -43,   51,  -15,   18,    0,   45,   59,   -7,   47,  -29,  -32,
     -12,   28,  -45,   32,   -9,  -37,    8,   34,   49,  -11,  -19,  -14,   15,  -29,  -13,   62,
     -17,  -11,   99,   24,   57,  -18,  -45,  -61,   49,  -72,    7,   68,   -7,  -19,  -64,  -15,
     -11,   26,    8,  -19,  -37,    0,   -7,  -94,   46,   67,  -44,   88,  -43,   78,  -26,  -26,
      27,  -15,   75,    3,    8,   71,  -12,  -53,   47,  -71,  -63,   -3,   41,   66,    1,  -47,
       7,   -7,   34,  -15,  -13,  -29,   -6,   18,  -29,  -22,   42,   -2,  -53,   48,   40,   -7,
     -38,    0,   30,  -36,  -43,   50,  -34,   67,   -4,   23,    5,   -1,   32,    2,   39,   40,
     -43,   64,   39,   54,  -18,   30,   13,  -10,  -17,    4,  -12,  -47,  -22,  -15,   48,  -11,
       9,   15,   42,   -1,   -7,  -31,  -39,  -58,   10,   30,    6,   -8,   15,    8,   32,   11,
      30,   -4,  -39,   28,  -63,  -15,  -16,   50,   26,  -36,   45,  -16,   65,  -19,    1,   65,
      13,   34,   32,   19,   55,   22,   -2,   27,   24,   14,  -47,   -1,  -26,  -43,   51,   16,
     -10,  -77,  -32,  -76,  -22,   36,   54,   41,  -28,   -8,   24,    0,   43,   20,   -8,   26,
      56,  -26,    6,   29,   16,  -32,  -62,  -12,   -3,  -45,   19,   21,  -25,  -33,   69,  -44,
     -23,   -4,   21,   14,   -5,   62,   13,   -5,  -58,  -34,  -44,   30,   36,  -41,  -41,   10,
      37,   -6,  -61,  -46,  -47,   30,   30,   65,    9,   22,   -9,    8,  -14,  -30,   16,    2,
       9,  -18,   13,   -6,   31,  -45,    9,    2,  -12,   34,   29,   22,  -40,   18,   -7,   31,
     -51,   15,  -26,  -27,  -43,  -52,  -15,   47,   43,   10,    6,  -35,   21,   19,   21,   45,
     -44,   30,   66,  -21,   28,  -25,  -74,   -8,   -4,   13,   22,   -1,   30,  -26,    8,   39,
      78,   21,  -22,   -7,  -55,  -17,  -60,  -10,   21,   59,  -51,   53,   51,   41,  -49,  -31,
     -21,  -46,   18,   70,    3,  -33,  -39,  -64,  -14,  -49,  -14,  -29,  -38,  -26,   30,   43,
     -23,  -12,   40,   -1,   29,    6,   44,   50,   21,  -75,  -37,   59,   49,   49,  -38,   16,
     -25,   52,   38,   -3,  -17,   40,   -1,  -27,  -42,  -46,  -80,   62,   66,  -32,   12,  -21,
      71,  -42,    4,  -26,   -1,  -15,  -25,  -17,  -12,  -39,   49,  -10,    0,  -21,   37,   -6,
     -72,   46,  -20,  -62,   29,   27,  -47,   -6,  -12,   58,  -14,  -18,  -48,   11,  -52,   38,
     -20,   13,  -10,   13,   27,   37,   19,   51,   14,   67,  -36,  -36,   68,   -5,    0,  -15,
     -19,   24,   38,   19,  -26,  -47,  -12,   25,    1,  -89,   34,    0,   28,   17,   27,  -68,
      32,    7,  -45,   31,   22,   -6,   58,   20,  -20,  -47,  -58,   -6,   57,  -57,  -16,  -49,
      31,  -41,  -48,   29,   51,  -61,  -54,  -23,    6,   44,    3,   32,   41,   33,   39,   53,
     -41,  -25,   -2,   27,  -57,  -27,  -18,   26,  -37,  -56,  -23,   17,   51,   -7,  -38,   26,
      -7,   10,   21,   11,   37,    1,   35,  -41,  -26,   73,  -68,    4,   -9,   23,   26,    7,
       9,  -31,   48,  -17,   35,    7,   68,   24,   35,   -9,   33,  -10,    5,    4,  -48,  -35,
     -17,   24,    0,    0,  -61,  -17,  -29,  -30,  -12,   -1,   29,  -35,  -10,   55,   24,  -42,
      -5,   24,   32,   38,   37,  -33,   -7,   25,  -26,  -10,  -22,   -3,  -15,  -35,  -31,   14,
     -12,   -4,  -33,    6,  -32,   38,  -11,   37,   29,   -4,  -11,   -7,   14,   43,    4,   -4,
       9,   13,  -28,    9,    2,  -38,   36,  -65,   -1,  -31,   14,  -26,   13,    6,   51,   22,
      10,   55,    9,   59,    1,  -18,    5,   -3,   18,  -23,  -79,   32,  -10,   48,  -28,   56,
     -21,    9,  -22,  -46,  -23,  -21,  -37,  -17,   17,    9,   -4,  -16,   33,  -75,  -46,  -48,
      -8,  -35,   77,  -42,   -4,   18,  -60,   34,  -58,   15,   42,    1,   47,   -4,  -42,  -46,
       2,   51,   -1,  -15,    6,    3,    1,    0,    5,   45,  -23,   36,    4,   56,  -30,  -47,
      13,   12,  -42,   31,   14,  -18,    4,   43,  -22,   25,   -1,   46,  -98,   22,   28,   46,
      51,  -51,   53,  -15,  -29,  -72,    8,   62,    7,  -28,   77,    6,   18,  -12,   18,  -42,
      26,  -11,   30,   36,   22,   56,   65,  -52,   44,  -44,  -11,   44,  -75,   12,   12,  -38,
     -47,  -26,   67,   47,  -31,   52,   38,   32,   21,  -19,   -1,  -29,   55,  -18,  -28,   26,
      34,  -38,   28,   -2,   27,  -14,   39,  -20,   61,    6,   -6,  -10,   57,  -35,  -11,  -34,
      38,   -9,  -44,    5,  -37,   -1,   26,   52,  -59,    6,  -12,   -2,    7,    4,  -59,   34,
      51,  -31,   41,   -3,   26,   14,   18,   57,   48,  -23,   56,   15,   -5,  -52,  -31,   33,
      29,    9,   -7,    3,   44,    8,  -48,   16,  -52,  -25,  -22,   28,  -61,   61,   20,   27,
      -3,   58,   -2,  -37,   49,  -37,   49,   54,  -27,   52,   38,   -3,   48,   -5,   65,  -16,
     -48,    6,  -13,   48,  -56,    1,   25,   29,  -51,  -29,  -25,    0,  -78,   14,   -6,   17,
     -17,  -54,   42,   42,  -60,   16,   -3,    4,   -5,   -9,    9,   24,   35,   54,    9,   26,
     -66,    4,  -45,   12,  -27,   89,  -38,  -18,   18,  -29,   12,  -40,  -28,  -37,  -27,   51,
     -40,   67,  -33,   -4,   38,    6,  -82,    8,   77,   75,   28,  -62,   24,   31,   22,   29,
      44,  -34,  -23,  -11,  -49,    3,   -6,   62,  -18,  -38,   30,   59,    4,   87,  -34,  -47,
     -22,   68,  -19,   13,   -5,   70,  -17,   -6,   21,  -32,  -30,   -8,   85,   16,  -53,  -46,
      54,  -36,   10,   43,  -37,  -11,  -22,  -58,  -44,   34,   63,  -44,   20,   45,  -19,  -19,
      57,  -34,   32,  -56,   14,   15,   53,  -20,   25,   -8,   25,  -49,   -5,   28,   -5,  -12,
      19,   36,   54,   -5,   50,  -12,   62,   -9,  -15,    5,   18,  -16,    2,  -59,  -16,   12,
       8,  -31,   70,  -39,    5,   16,   40,   16,   40,  -18,  -16,   27,    1,  -36,  -26,  -51,
      12,   36,   61,   -7,   49,   -4,   37,  -59,   37,   -9,   70,  -14,  -24,    4,   34,  -33,
      26,    7,    3,  -19,   27,  -29,   -6,   36,   17,  -13,  -54,   15,  -39,  -16,   49,   21,
      48,   30,   19,  -82,   -2,  -19,  -18,   29,  -39,  -23,   43,   69,  -36,  -25,  -27,  -52,
     -19,   -3,   51,   23,   38,  -50,   41,  -35,   43,    0,  -35,    1,  -49,    2,  -35,   21,
      -7,   33,   31,  -44,  -17,  -51,   43,    7,  -24,   47,   57,   34,   49,   55,   -5,   26,
     -67,    1,   65,  -15,   65,  -41,   26,   29,  -54,  -74,   53,  -42,   24,  -70,    6,    3,
     -60,  -71,   -3,  -35,   94,   54,  -35,   67,   58,   26,   25,  -50,  -14,   42,   30,   57,
       3,  -38,  -30,   -5,  -42,  -37,   27,  -31,   19,   -1,    0,   36,  -42,   -4,   -5,  -18,
      47,  -11,   20,  -14,  -27,   42,   60,  -25,   58,    0,  -91,   -6,  -43,  -67,   64,  -65,
      -1,   41,  -64,    4,    3,  -19,   32,  -23,   25,    2,   -9,  -37,  -27,  -25,   47,  -27,
     -35,   60,   36,    4,   24,  -19,   -1,   -5,    7,   82,  -35,  -20,  -14,   -7,  -20,   25,
      28,  -52,  -62,   51,  -17,  -10,   52,   31,  -32,   67,   37,  -29,   45,  -71,   13,   -6,
     -48,  -21,   10,   -8,  -64,   -7,  -31,  -16,  -14,  -35,  -48,   32,   50,   29,   42,   61,
      30,  -55,  -53,  -35,   57,   26,   -8,  -40,   63,  -36,    2,   54,   43,  -23,  -48,   28,
      -1,  -61,  -40,  -20,  -18,   -9,   80,   77,    6,    1,  -14,  -52,   33,   28,   36,   -5,
     -34,  -61,  -62,   63,   29,  -54,   27,   62,  -40,   46,   66,  -26,   -6,  -25,   -3,  -46,
      11,  -85,  -75,   42,   18,   40,    9,    0,  -46,    6,   62,  -52,   48,  -56,   24,    2,
       0,  -33,   -3,  -25,   -3,  -45,   -1,    3,  -34,   19,  -28,   -1,   21,  -44,   31,  -42,
     -18,  -60,    9,    2,   43,   -3,   35,  -34,    2,  -10,  -72,   31,   76,  -30,   11,  -14,
     -33,  -33,   43,  -17,   21,  -19,  -57,    8,   33,   13,   26,   26,  -24,  -27,  -30,   52,
      55,  -22,   41,  -23,  -46,  -26,   -3,    5,   37,  -30,   21,   26,   -2,   14,   18,  -49,
     -20,  -23,  -15,   52,    1,    3,  -17,  -41,    3,   19,    9,  -26,   -1,  -34,  -29,  -55,
      15,  -13,  -40,  -36,  -29,   31,   41,   45,   36,   -5,  -39,    5,   49,  -25,  -30,   56,
      33,   47,   25,    6,   14,  -24,   42,  -56,  -11,  -20,   46,  -30,   -5,   12,   -6,  -11,
     -64,   -4,   39,   -7,  -38,  -29,   11,    2,   98,    7,   55,  -68,   50,   56,    4,  -84,
      69,  -37,  -65,   67,   53,  -59,   36,   25,   17,  -33,  -27,  -44,   47,   45,   48,  -36,
     -53,  -18,  -19,   32,   -9,   27,   -4,   -6,   -8,   74,  -41,  -67,   -4,  -51,   53,  -53,
      15,   14,   55,   40,   -4,   -3,   13,  -72,   23,   22,   13,   -4,    1,   63,  -25,  -44,
     -24,  -26,   -5,   31,   20,    0,  -31,  -39,  -38,    3,   33,   29,   -8,   35,   51,   32,
      39,   52,  -72,  -65,  -38,  -19,  -30,    7,  -49,   23,  -55,  -20,   -3,  -30,   88,   21,
      14,    6,  -38,   89,   71,    8,   61,   74,   14,   29,   57,   30,   19,  -61,   61,   38,
     -44,   -1,   -8,  -49,   60,  -38,  -48,   33,   15,  -43,  -16,  -24,  -11,   55,    9,  -10,
      32,  -13,   -7,  -19,   47,   35,   43,  -43,  -25,  -11,    6,   15,    5,   18,   15,  -43,
     -25,    7,  -17,   50,   52,  -48,   39,  -28,  -62,  -11,  -12,  -60,  -16,   31,   18,   54,
     -26,   14,    9,    2,  -41,  -53,   27,   -2,  -62,  -14,  -37,   -8,    7,   -8,    0,  -46,
       7,   10,  -24,   -8,   53,  -22,   -1,   64,    4,   37,   -7,  -71,   28,  -14,   13,   42,
      -4,   31,  -21,  -14,  -12,    7,   -2,   56,   30,   37,  -22,    6,  -39,   38,   63,   49,
       2,  -54,    6,  -53,  -34,    7,  -24,  -56,    6,   30,    1,    0,  -52,  -28,  -27,   -5,
     -34,  -13,   59,    2,   15,   59,  -11,   31,   61,  -45,   66,   15,  -30,   21,  -14,  -36,
     -26,  -85,  -37,   42,   25,  -20,   29,   59,   25,   18,   34,   -2,  -57,  -35,  -39,   48,
      -6,  -18,  -47,  -59,   19,   18,   16,  -46,    0,   55,   13,   45,  -84,  -14,   51,   13,
      47,   39,  -63,  -23,  -32,    4,    6,  -21,   26,   11,   -8,   23,   -3,  -71,   12,  -17,
      -9,   15,   13,   32,   35,  -58,   14,   23,  -35,   17,   -1,   10,   -4,  -23,   26,  -48,
      53,   11,  -38,  -21,  -22,   13,   18,    9,   19,   -7,  -35,   -6,   18,  -60,    8,  -20,
     -14,   45,  -51,  -54,   16,  -23,  -53,   41,  -10,    6,   -8,   -1,   47,  -20,  -20,   31,
      18,  -40,   38,  -29,   27,   34,  -43,  -33,  -16,  -41,  -26,   19,   67,   14,   -2,   67,
      29,   49,  -45,   39,  -30,  -10,   23,    2,  -24,  -15,  -61,  -54,   -3,   33,  -62,  -53,
      28,   26,   -8,   36,  -41,   -2,  -31,   29,  -14,   22,  -22,   28,  -13,    6,    0,   21,
       0,   31,   30,   26,   26,   39,    0,   30,  -20,    3,  -26,   45,   22,  -49,   31,  -28,
     -20,  -38,    5,  -43,  -29,   -1,  -14,   16,   63,    1,  -20,   39,  -58,  -50,   25,   13,
      25,   -1,  -61,   -9,   -7,  -42,   -9,   27,   18,   -9,   28,   22,  -10,   55,   35,  -22,
      33,  -13,  -44,   21,  -27,  -41,   27,  -78,   -9,   34,   -1,  -17,   32,   -7,  -68,  -20,
     -38,   14,  -34,  -41,   25,  -52,   -9,   21,   22,  -41,   40,   30,   17,  -34,   23,  -34,
     -17,  -24,   24,  -22,   15,   14,  -39,   48,  -39,   -9,   17,  -42,   46,  -32,  -47,  -54,
     -38,  -41,  -28,    1,  -57,  -68,  -83,   30,   12,   60,  -25,   17,   29,  -35,  -24,  -30,
     -12,   -4,   61,    5,   29,   52,   13,  -38,   15,  -41,  -26,   17,   51,    5,   21,   43,
      12,  -33,  -23,   12,   54,  -53,  -50,   22,  -91,    9,   89,    9,   32,    0,  -75,  -28,
       1,  -35,   43,   33,   84,   41,  -72,  -25,  -59,   55,  -16,  -52,   20,  -23,  -28,   26,
     -29,  -11,  -54,   22,   50,   24,   43,   68,  -52,   -7,   64,   25,   39,   53,  -26,   13,
     -29,   36,   27,   20,  -49,   81,   37,   51,   -1,  -59,   29,   -3,   15,  -27,  -54,  -72,
      57,  -36,   12,    9,   22,   28,   14,    7,   25,   34,   57,  -45,   20,   11,  -30,  -19,
     -24,  -40,   20,  -35,  -26,   61,  -40,   34,   18,  -26,  -18,    2,  -29,   70,   84,   32,
     -25,  -36,  -30,  -11,  -29,  -42,   23,   -3,   11,  -19,   32,   40,  -27,  -17,   48,    3,
       1,   -2,   19,  -24,  -40,   -3,  -11,   -7,  -15,    2,   22,  -48,  -56,   19,   29,   72,
       3,   -6,  -70,    4,  -34,   34,   49,   19,   38,  -16,  -23,  -28,  -11,  -62,   42,  -14,
       7,   28,  -34,   16,   -8,  -15,   14,   48,    6,   50,   21,   31,    9,  -35,   14,   34,
       4,  -18,   -9,   22,    7,   40,  -49,  -37,   -2,   15,   -8,    9,   56,  -66,  -49,  -35,
     -24,   40,  -34,    1,   -9,   64,  -40,    3,   17,   23,  -58,  -13,  -18,   -8,  -36,    7,
      20,  -51,  -29,  -37,   44,  -41,  -21,  -46,   50,    8,   30,    0,   40,  -17,   19,  -34,
};
static const float mamba_l0_fwd_in_proj_w_scale = 3.21517186e-03f;

/* scale=5.06964512e-03 */
static const int8_t mamba_l0_fwd_conv1d_w[320] = {
     -13,  -59,  -90,   76,  -51,  -98,   -5,  -62, -115,  -67,   54,   58,  -65,   98,  105,  -27,
      -6,  -92,   48,   50,  101,  -82,  -29,  -59,  -59, -106,   20,  -80,  -85,   17,  -28,  -40,
      32,  -53,  -79,   75,  -90,   81,   81, -105,   86,  -66,  -62,  -54,   35,  -75,   71,   26,
      52,   51,   77,   71,   18,    5,   16,   66,   25, -116, -103,   16,  -30,    3,  -48,   17,
    -104,   18,  -25,  -87,  102,   65,   -4,    7,   45,   57,   88,  -90,    4,  109,  -12,  -26,
      54,  -28,   96,    8,   38,  -95,  114,   60,  115, -102,  123,   31,  -79,  -69,   93,  -79,
     -94,  104,  -54,  -21,   59,  -53,   57,   53,  -60,  -64,   91,   98,   21,   -5,  -46,  -39,
     -14,   43,  -74,   -2,    8,   -4,   74,  -68, -100,    7,   85,  -96,  -61,   15,   23,  -37,
     -61, -100,   65,  -76,   20,   91,   23,  -87,  -53,   89,   77,   35,  -37,    0,  -87,   59,
      74,   79,  100,   26,  -45,   81,   48,   -3,  124,  -32,  101,  -26,   15,   61,  103,  -73,
    -105,   65,  -92,  -47,  -87,   69,  -55, -109,  -64,    9,  -58,   44,  -16,  -61,  111,  -99,
    -102,   66,   24,  110,  -21,  -54, -104,  -52,   51,    6,   49,   61,  -82,  -17,  -57,   -7,
     119,   79,   71,  -62,   77,  -33,  -21,   30, -110,   -3,  -79,   79,   41,   33,  -59,  103,
     124,   70,    0, -102, -119, -124, -127,  -91,  -41,   94,  -82,   35,  100,   83,  -66,   46,
     -46,   22,  -25,   99,   78,   80,  -62, -104,   74,  -81,  -76, -117,   13,   44,   28,  -33,
      16,   -6,   18,  -90,   -7,  -41,  -79,   53,  -14,   94,   43,  -71,  -81,   82,  -77,  105,
      64,  -19,  -64,   -2,    2,   96,   92,  -14,  -26,  100,   28,   44,   19,    9,   43,   24,
     -72,   61,  -65,  -57,   29,   90,   41,  -60,   28,   23,   67,   70,   12,   98,  -53,  -10,
     -20,   81,   -5,   83,  110,   23,  -52, -101,  -44,   28,   89,   32,   83,   -3,  -90,   51,
     -25,   86,  -99,  -67,   33,  -58,   92,  -46,  -52,   67,   53,  111,  100,  -38,   11,  -82,
};
static const float mamba_l0_fwd_conv1d_w_scale = 5.06964512e-03f;

/* scale=4.45477478e-03 */
static const int8_t mamba_l0_fwd_conv1d_b[80] = {
     -73, -104,  -96,   80,  -79,  -71,  -60,   62,  -59,   60,  110, -112,   37,   65,  102, -109,
     -54,  127,  -29,  -60,   -3,   33,   52,   73,  105,   45,   76,  -80,   48,   73,  -70,   68,
      58, -122,  103,    8,   60,  -14,   15,  -27,  114,  -64,  -86, -121,  -61,   37,   48,   82,
      97,  -24,  -28,   56,   73,  105, -110,   91,  116,   75, -101,  -89, -116,   69,  -39,   76,
     -34,  -67,  115,  -62,  -60,   34,   25,  109,   29,   55,  121,  -29,   70,  -42,  -54,   94,
};
static const float mamba_l0_fwd_conv1d_b_scale = 4.45477478e-03f;

/* scale=2.78173736e-03 */
static const int8_t mamba_l0_fwd_x_proj_w[2640] = {
      40,   60,   55,   -4,   51,   47,   80,   -9,    9,  -90,  -67,    4,  -54,  -24,  -66,   61,
      65,   25,    1,    6,   -5,  -45,  -68,  -38,  -58,  -75,  -21,   58,  -51,   -1,   48,    7,
     -22,   53,  -61,  -80,  -75,  -97,  -27,   10,  -14,   93,  -16,   55,  103,  -22,    4,  -67,
     -74,   79,  102,   -9,  -79,  -44,    3,   -2,  -59,  -61,   17,   48,   -9,  -75,  -70,  -16,
     -22,   -1,  -38,   -7,    4,  -60,   -5,  -72,  -19,  -66,   -5,  -16,  -68,   82,  -48,  -48,
     -51,  -15,  -10,   60,  -26,  -87,  -54,   41,  -15,   76,   41,   -2,   35,   57,   26,  -64,
     -43,  -30,  -78,  -46,   -2,   83,   96,   73,    3,   47,   70,  -35,   41,   70, -109,   32,
      64,   -6,   47,   77,   45,   85,   80,   49,  -35,  -48,  -12,  -61, -108,   55,   65,   58,
      39,    5, -127,   54,   60,   80,    1,  -21,   -6,    9,  -12,  -31,   -9,    9,   -1,   27,
      -5,  -34,   48,  -34,  -37,  108,   50,   47,   12,    7,   24,  -25,   33,  -23,   -1,   74,
     -41,  -32,  -44,  -19,  -71,  -25, -104,   20,  -41,   18,   25,  -26,   42,   13,  -18,  -32,
     -11,   15,  -15,    0,  -15,   52,   55,   72,   20,   58,   65,  -51,   70,   24,  -30,   35,
     -15,  -37,    8,   96,   19,   -1,   80,   35,   32,  -88,  -43,  -86,  -68,   57,   41,    3,
      84,  -17,  -36,   -8,   38,   39,  -35,   22,  -13,   37,  -10,  -50,  -35,   34,   29,   -6,
     -19,  -28,   54,  -13,  -65,   87,   51,   36,  -17,    8,   21,  -34,   68,  -77,    5,   48,
       0,   72,   36,  -12,   73,   69,   85,   14,   45,  -42,  -64,   52,  -35,  -27,   -6,   -7,
      54,   20,    6,    8,  -30,  -42,  -72,  -27,  -69,   -5,  -65,    9,  -33,   -5,   55,  -36,
     -48,    1,  -38,  -81,  -76,  -11,  -46,   -6,   10,   74,   22,   23,   57,  -24,  -45,  -24,
     -65,   -6,   26,   -3,  -17,  -70,   34,  -44,   -8,  -39,   81,    4,   42,   -3,  -26,  -44,
      25,   13,  -55,  -18,    1,  -89,  -17,  -31,  -30,  -34,  -28,   21,  -78,    9,  -66,   -2,
      34,   29,   13,  -33,   35,   60,   72,   16,   58,  -14,   -7,   -8,  -12,  -36,  -39,   38,
      28,    8,    9,   27,   14,   -2,  -39,  -58,   -4,  -64,  -62,   40,  -44,  -10,   31,  -22,
      28,   33,    9,  -75,   -6,  -69,  -85,   23,  -19,   19,   27,    2,   75,   -2,   17,  -46,
     -75,   24,   87,    7,  -38,  -22,   58,   38,    2,   -4,   70,   20,   31,  -48,   -9,  -33,
      12,   59,   21,  -13,   55,  -28,  -16,   -9,    7,  -46,  -16,   12,  -52,   33,  -51,  -51,
       0,    5,  -63,   -5,  -11,  -67, -118,   29,    2,    6,   24,   23,   36,   -2,    0,   27,
     -51,  -26,  -24,   17,  -13,   45,   76,   31,   14,    0,   37,  -36,  -12,   51,  -94,   46,
       5,  -21,   29,   67,   38,  -11,   21,   20,   20,  -80,   29,  -69,  -32,   34,  -26,   22,
      43,    4,  -59,   27,   15,   50,  -25,  -27,   20,   21,  -18,  -34,  -18,    5,  -16,   31,
     -10,  -17,   17,   14,  -35,   79,    3,   45,   21,   31,   -6,  -30,   61,  -46,   26,   44,
     -12,    3,  -24,   24,  -53,  -47, -111,   25,  -27,   62,   48,  -23,   10,   -3,    0,   25,
      -6,  -30,  -58,  -22,   34,   22,   55,   53,   10,   62,   41,  -48,   56,   22,  -89,   49,
      -5,   -7,  -16,   95,   44,   29,   43,   -2,  -36,  -54,  -24,  -69,  -20,   42,   40,   15,
      45,   23,  -88,   49,   40,   41,    1,  -28,    6,   17,  -39,  -39,  -55,   50,   14,   16,
     -42,  -41,    4,  -43,  -29,   27,    1,   45,   23,   47,  -33,   11,    4,  -34,   40,   43,
     -42,   14,  -36,   33,  -16,    1,  -27,   31,  -31,    4,   18,  -13,   31,  -29,   25,   -1,
     -23,  -14,  -27,  -63,    8,   53,   28,    1,   27,   52,   40,  -42,  -18,   23,   -8,   22,
       9,  -31,   22,   85,   76,   13,   41,   18,    8,  -78,  -11,   -1,  -15,   -8,   41,  -23,
       6,   32,  -62,   13,   -1,    4,  -57,  -32,    2,   44,  -89,  -27,    2,  -13,   -6,   20,
     -78,  -76,   22,   38,  -21,   -1,   28,   -4,  -49,   29,   -4,  -42,  -22,  -25,   25,  -16,
     -19,  -19,  -68,   -9,    0,   12,  -43,   22,   -3,   45,   48,  -47,  -10,   -9,   39,  -47,
     -45,   30,  -25,    1,  -26,   45,   56,   -6,   12,   10,   -5,   21,   54,   -9,  -42,  -24,
      18,  -19,   46,   81,    5,    7,    9,    9,   34,  -78,  -37,  -43,  -44,   31,  -15,  -15,
      42,   -3,  -58,    4,   47,   59,  -28,   40,   25,  -11,  -45,   14,  -29,    3,    6,   46,
     -28,   -2,  -21,  -27,  -38,   54,  -14,   42,   -7,    4,   15,  -42,   27,    7,   55,   40,
     -34,  -59,  -35,   53,  -59,  -27,  -85,   40,  -41,   75,   28,  -39,    7,   -9,   23,  -23,
     -91,  -16,   -1,  -85,   16,   67,   46,   57,   28,   27,   12,  -62,   55,   69,  -72,   44,
      52,   -1,   52,   19,   37,   36,    6,  -29,   39,  -43,   -2,  -78,   -8,   57,   49,   -9,
      49,    2,  -13,   -3,   20,   -5,    4,   21,   27,    1,  -48,  -65,   -7,    3,   29,    8,
      20,  -36,   25,  -41,  -44,  -14,   46,   55,    0,   40,    2,  -31,   61,  -32,   13,   29,
      12,   32,    7,   32,  -23,  -17,   91,  -52,   36,   -7,  -31,    9,   28,    2,  -39,   -6,
      20,  -12,   27,   55,   22,  -21,  -24,  -48,   19,   -8,   -3,   -9,  -53,  -27,   69,    8,
      40,   -5,  -37,  -49,  -64,    3,  -79,   -1,   19,   78,   38,   70,   77,  -24,   -2,   15,
     -64,   -6,   36,  -46,  -34,    9,    7,   32,  -20,    9,   24,   43,   -7,   19,   24,   29,
      -7,   13,  -41,   18,   42,  -54,   10,   12,  -12,  -46,    5,   -2,   17,   42,    3,  -37,
      52,   30,   38,  -34,  -17,   -5,   37,  -45,   50,   18,  -42,  -32,  -23,  -17,  -24,   39,
      50,   15,    9,   46,   12,  -19,  -38,   17,    6,  -25,    2,   30,  -30,  -33,   49,  -11,
      14,   -4,  -12,  -71,  -45,    2,  -42,  -51,  -23,   58,   40,   61,  -12,  -10,    1,   11,
     -43,  -24,   59,  -49,  -43,  -36,   10,    5,    3,  -28,   83,   53,   11,   -4,   14,  -32,
       5,   48,    8,   35,   -4,  -28,  -18,    0,   13,  -18,  -28,   54,   -5,   41,  -16,  -16,
     -20,    8,  -44,  -10,    0,   31,  -67,   50,  -36,    4,   13,   -6,   32,    0,   -6,  -32,
     -69,    4,  -36,  -49,   20,   47,    8,   -9,   52,   15,   21,   15,   61,   -3,   19,   18,
      11,  -27,   49,   50,   46,    5,   55,   31,   43,  -23,    2,  -38,   40,   14,  -18,  -12,
       6,  -38,   23,   46,   49,    6,  -53,   46,   40,   51,  -68,  -27,  -46,   50,  -47,   -6,
    -101,  -62,   32,   12,  -26,  -21,   44,  -14,   18,   11,    1,  -40,   43,  -22,   35,    3,
     -41,  -44,  -97,   18,  -53,   20,  -86,   38,  -20,   49,    7,  -15,   -7,   30,   -8,  -37,
     -11,   -3,  -38,  -23,  -22,   12,   26,   25,   42,  -16,  -10,    5,   13,   12,  -71,   20,
     -26,  -33,  -20,   25,   20,   52,   20,   58,  -22,  -12,   23,  -36,   16,   34,    1,   51,
     -11,  -32,  -30,   62,   48,   63,  -57,  -19,    6,   38,  -67,  -26,  -11,   32,    1,   -6,
     -65,  -75,   12,  -44,   -6,   -8,    0,   30,  -30,   33,  -24,  -60,   44,  -42,   54,  -13,
     -19,  -24,   29,  -42,   35,  -19,   28,    3,   14,   -2,  -28,   41,  -21,  -42,  -12,   29,
       8,   11,  -49,   32,   -9,   10,  -47,  -29,  -46,  -58,   -5,   39,  -42,   37,   35,    0,
      27,  -15,    3,  -40,  -29,   -6,  -12,  -43,   48,   48,   16,  -17,  -23,  -34,   22,    8,
     -47,   -1,   24,    7,  -31,    6,   73,  -33,   22,   30,   52,   -8,   -4,   16,   -7,   23,
     -22,   17,  -28,   10,   51,    1,   24,  -20,   20,    2,  -48,  -37,  -18,  -15,  -20,  -41,
      39,   24,   69,  -56,   18,    6,  -24,   30,   39,  -41,   12,  -17,  -31,    0,  -70,   39,
      10,  -45,  -42,   38,   -1,   -9,  -57,    2,  -37,  -34,  -15,   26,  -87,  -57,  -33,   16,
       3,   18,   -7,  -35,    3,  -42,  -43,   -7,   16,  -60,   21,  -17,  -22,  -37,   -2,   -3,
     -24,   10,  -72,    0,  -71,   13,   29,  -20,  -10,  -45,    2,   -6,   12,  -45,  -31,  -21,
      12,    0,  -31,   47,   29,  -44,   36,  -22,  -40,  -22,   -7,   19,  -40,   39,  -62,   -4,
      47,   14,   32,  -59,   59,   69,   43,  -72,   86,  -52,   -9,   80,   31,  -77,  -80,   27,
      86,  -53,   21,   73,  -37,  -57,    8,  -48,  -18,  -22,  -58,   50,  -72,  -62,   40,    3,
     -22,   82,  -22,  -78,   -7,   -3,  -93,   32,  -31,   23,   45,   46,   58,  -47,  -17,  -43,
     -64,  -65,   19,  -22,  -78,  -37,   59,  -22,  -75,  -72,   76,   50,   66,  -84,   33,  -29,
      88,   14,  -48,   29,   17,  -80,   18,  -39,   12,  -16,  -47,   -5,  -27,   39,    6,  -10,
      -5,  -75,   -7,   53,  -83,  -35,  -57,   24,  -94,   33,   48,  -77,   -2,   35,   57,  -75,
    -104,   56,   10,  -51,    0,   66,   33,   30,   26,    8,   62,  -80,   79,   69,  -51,   -2,
      27,  -50,  -10,   44,   72,  -16,   91,  -38,   26,  -20,  -73,  -71,  -14,   45,   58,   29,
      50,   15,   17,   54,   44,   80,  -32,    9,   85,    7,  -91,  -49,  -71,   79,    1,   47,
     -82,  -18,   63,   -4,    8,   65,   -2,   73,  -26,   86,   18,  -35,   17,  -38,   34,   22,
     -14,   -3,  -29,   17,  -28,  -24,  -97,    0,  -61,   13,   63,  -66,   13,   69,   39,  -29,
     -44,   10,  -27,  -45,   43,   41,   26,    4,   16,   46,   56,  -18,   26,    2,   -6,    4,
       9,  -46,   49,   12,   23,  -35,   68,   32,   40,  -59,  -67,   -3,   -1,  -24,   18,  -18,
       4,   64,  -57,   17,   78,   34,  -54,   40,   49,   21,  -97,  -57,   -4,   66,  -59,   -8,
     -28,  -54,   60,    9,  -31,   75,  -21,   33,  -13,   35,    3,  -20,  -12,  -13,   46,   -3,
      43,   17,   58,   35,   11,   61,   86,   -4,   67,  -19,  -23,   81,   21,  -31,  -18,    7,
      39,  -23,   36,   26,  -38,  -43,   14,  -68,   31,   -3,  -50,   75,  -19,   -1,   64,   19,
     -32,   11,   -4,  -69,  -32,   10,  -31,  -14,  -22,   38,   44,   41,   79,   -1,   -3,  -13,
     -17,  -30,   79,  -24,  -48,  -36,   25,  -34,  -57,  -50,   57,   37,   42,  -57,   69,  -30,
      51,   41,  -54,   23,   13,  -33,  -20,  -18,   34,  -77,  -50,   46,  -16,   77,  -21,    7,
     -11,   66,   51,  -29,   74,   30,   37,  -33,   37,   -7,  -25,   15,   31,  -50,  -21,    2,
      38,  -14,   47,   54,    9,  -23,  -30,  -39,  -16,   -2,  -45,   70,  -76,  -13,   18,  -16,
     -37,   15,  -33,  -79,  -69,   37,  -33,   -4,  -19,   48,  -12,   15,   50,   14,    7,  -49,
       9,  -72,   64,    7,   -7,  -81,   39,  -12,  -53,  -42,   52,   60,    1,  -16,    8,  -45,
      87,   16,  -23,   23,   28,  -66,  -48,  -17,  -20,  -10,  -71,   62,   -4,   67,   19,  -17,
      27,  -13,  -67,  -29,  -76,  -22,  -54,  -13,  -28,  -35,    7,  -56,    0,  -10,   19,   13,
     -19,   50,   -3,  -51,    4,   87,  -15,   34,   31,  -17,   61,  -52,   42,   60,  -26,   28,
      37,  -22,   51,   33,  -17,   20,   58,    8,  -12,  -50,  -43,   -4,  -19,  -39,   32,  -31,
      16,   46,  -27,  -10,   31,   39,  -70,   11,   -1,    2,  -23,   -8,  -59,   -6,   10,   46,
     -30,  -40,   14,   -5,  -46,   16,   43,   26,  -65,   65,   68,  -45,   38,    2,  -25,   16,
     -50,  -13,  -75,  -21,  -32,   -2,  -44,   38,  -65,  -36,   48,  -68,  -16,   -5,   49,  -30,
     -70,    8,  -13,  -86,  -10,   16,    7,   67,   -4,   44,   62,  -60,   27,   -3,  -50,   52,
      33,  -67,  -27,   71,   42,   17,   23,   34,   54,  -33,  -48,  -35,  -56,  -36,   23,   17,
      33,   39,   -6,   28,   10,   51,  -81,   52,   -2,   41,  -37,  -22,  -53,   69,  -69,   41,
     -70,    4,   31,  -48,  -18,   13,   46,   36,   -7,   60,   47,  -83,  -21,  -74,   19,    1,
     -40,    9,   16,   17,  -47,  -62,  -85,   -5,  -82,   12,  -13,    2,   41,   21,   -7,  -26,
     -33,   48,  -58,   22,   -5,   44,   31,   33,   30,   35,   -7,  -14,   39,   43,  -58,   35,
      33,  -32,   30,   43,  -16,   -8,   15,  -24,   29,  -85,  -60,  -69,  -56,    2,    8,  -19,
      79,   34,  -78,   32,   55,    7,  -76,   -9,   16,   15,  -41,  -55,  -35,   56,  -51,  -13,
      -5,  -45,   -9,  -13,   26,   57,   16,   23,   17,   36,   69,   30,   48,  -22,  -31,   22,
      21,  -31,  -33,  -21,  -34,   -1,  -35,   14,  -41,   24,   40,  -72,   19,   -7,   41,  -46,
     -62,   46,  -16,   -3,   31,    2,   30,   21,  -31,  -27,   12,  -45,   41,   11,    8,  -24,
      10,  -17,  -32,   48,   27,  -43,   54,   39,   39,  -91,   20,   -7,  -44,   28,   -9,  -12,
      -5,   60,  -85,    2,   19,   49,  -31,   35,   -3,  -13,  -38,    9,  -56,   46,  -69,   36,
     -11,  -21,   49,  -48,   -8,    5,   13,   43,   -8,   11,   50,  -18,   36,  -48,   -6,  -22,
      26,   14,    0,    2,  -19,  -25,  -57,  -32,  -58,   -4,   38,  -41,  -17,   -9,   13,    6,
     -21,   32,    4,  -44,   18,   35,   -3,   15,  -54,  -20,   -1,  -39,   20,   -7,   -6,   19,
     -42,  -45,    2,    1,   50,  -33,   61,   43,  -21,  -74,  -12,  -31,  -38,    3,  -36,  -26,
      37,   40,  -10,   -4,   57,   75,  -80,   -9,   30,   43,  -75,  -18,  -18,   22,  -50,    1,
     -90,  -58,   14,  -33,  -19,   57,  -30,   -2,  -19,  -15,   56,  -32,  -22,   -6,  -24,  -18,
     -11,   21,   10,   -3,   12,   12,   14,  -31,   26,  -40,   -7,   85,  -22,   12,   -7,   32,
      85,   -1,    9,   63,  -33,  -21,  -19,  -53,   -4,  -25,  -68,   14,  -60,   -7,   22,  -31,
     -30,    0,   15,   -6,  -20,  -10,  -53,  -31,    6,   36,   49,    0,   10,  -52,  -20,   -1,
     -14,  -50,   17,  -46,  -55,   -5,   95,   -8,    6,   10,   84,   24,   13,   -6,  -10,   -8,
     122,   40,  -11,   38,   -8,   -2,  -32,  -54,  -36,  -45,  -39,   59,  -29,   11,    7,  -36,
      22,    1,  -39,  -26,   46,   23,   15,  -25,   -3,  -25,  -20,    5,  -37,  -41,   -4,   26,
      20,   23,    5,   24,  -44,  -59,   28,  -41,    2,   -8,  -28,   65,  -68,   -9,   27,  -25,
     -10,   -3,   27,  -61,   21,   55,  -38,  -14,    3,   77,   49,   -2,   64,   22,  -23,  -37,
     -21,  -14,   27,  -17,  -33,  -26,   12,  -52,  -41,  -55,   69,   65,    9,   -7,   28,   17,
      59,   11,  -60,  -13,   56,  -22,  -41,  -38,  -21,  -17,   13,   27,  -27,   38,   32,   31,
      -3,  -35,    0,    3,  -23,  -73,  -88,   40,  -25,  -15,   18,   -9,  -31,   26,   13,   -5,
       8,   17,   34,  -49,    5,   22,   -1,   47,   17,   -6,  -18,  -23,    0,   -1,    5,   41,
      38,  -33,   19,  -11,   18,  -92,   22,   20,   -5,  -78,  -38,  -43,  -80,  -38,   12,  -26,
      75,   67,  -75,   -1,   58,    5,  -24,   16,   23,   57,  -51,    2,   17,   46,   -5,   23,
      -7,   11,   16,  -18,  -33,   58,   -4,   17,  -28,   56,   20,  -26,   -6,   15,  -16,  -47,
       9,  -23,  -11,   25,   -6,  -60,  -12,   42,  -70,  -12,   19,  -40,    7,   49,   28,  -44,
      -9,    6,  -18,  -64,   17,   26,   13,   54,    2,   -6,   46,  -14,   45,  -13,   -8,   -4,
      48,  -35,   40,   54,    6,  -65,   25,   34,    8,  -80,  -33,  -30,  -97,  -13,   -1,  -17,
      62,   58,  -58,  -18,    8,   38,  -53,   26,   53,   35,  -37,    2,   -4,   12,  -51,   44,
      -4,  -58,   16,  -59,  -28,   73,    1,   40,   -6,   28,   50,  -17,   -3,  -79,    4,  -28,
     -37,   -9,   54,  -17,    9,   53,   51,   -9,   27,   45,   19,   43,  -29,  -23,   20,  -12,
      39,  -28,   58,    8,    7,   15,   24,   -8,  -19,    6,   16,   52,    4,  -38,   -7,  -28,
      28,   11,  -30,  -36,  -26,  -11,  -74,  -18,   -3,    4,  -16,   71,   80,  -32,   35,  -22,
     -10,  -35,   89,  -20,  -16,   12,   26,   22,  -49,   31,    3,   38,  -19,  -30,   45,  -29,
      93,   34,   14,   49,  -19,  -56,   41,   16,   -7,  -20,   16,   62,  -12,   14,  -31,  -16,
     -38,   28,  -27,   24,   40,    8,   88,    4,   11,    9,   -3,    8,  -28,  -55,  -23,  -30,
      33,  -29,   24,  -19,  -31,  -39,   12,   16,   21,   -2,  -29,   14,  -10,   -3,   68,   27,
       7,   11,   -7,  -30,   14,   25,  -55,  -46,    3,   51,   -3,   51,   87,   29,   31,   17,
       9,  -38,  104,    5,  -13,  -47,   -2,    5,  -24,   19,   68,    5,    5,  -28,   57,   45,
      44,   27,    7,  -11,   41,  -44,   14,   29,   25,    3,  -36,  -21,   50,  -11,  -16,  -20,
       3,   -9,   49,   47,   -1,  -25,  -22,  -37,   31,   12,   -7,   27,   -3,   -1,   29,   34,
      10,  -55,    3,   -4,  -25,   68,   49,   31,   19,   17,  -40,   10,  -16,  -29,  -33,   38,
     -38,  -26,   22,   39,   43,    7,  -12,   28,  -59,  -32,   67,  -11,  -51,  -21,    9,   29,
       9,  -39,  -38,  -27,    2,  -32,   31,   18,  -20,   28,   12,   26,    5,  -17,   73,   32,
      42,   25,  -43,   42,   -2,   34,    7,   26,   -4,   -6,  -19,   32,   51,  -30,  -53,   28,
};
static const float mamba_l0_fwd_x_proj_w_scale = 2.78173736e-03f;

/* scale=2.24656984e-03 */
static const int8_t mamba_l0_fwd_out_proj_w[3200] = {
     -60,  -34,   65,   62,  -11,  -52,  -47,  -46,   -3,   25,   29,  -66,  -40,  -27,  -55,    4,
       3,   38,   -8,   28,  -19,   -3,  -36,  -32,    1,  -12,  -24,  -33,   12,    0,   19,   37,
      33,  -56,   63,  -18,   47,  -10,   70,  -45,   58,    3,  -28,  -46,   18,   65,   11,   38,
       5,  -39,   42,   35,   26,  -30,  -15,  -37,  -28,  -55,   22,    1,  -46,    7,   26,    3,
     -24,    5,  -29,  -36,   47,   -3,   50,   -2,   -7,  -17,   22,   29,   76,  -55,   53,   52,
      51,  -24,  -39,  -19,  -20,   23,  -20,   77,   -1,  -28,  -66,   67,   26,   18,   54,  -10,
     -22,   36,  -43,  -69,   45,   41,   33,   41,   33,    2,   32,   12,  -69,   12,   -3,   -9,
     -21,  -44,   36,  -32,  -40,  -31,   30,  -22,   38,  -21,  -26,    1,    5,   40,   16,   35,
     -31,  121,  -74,  -47,   -6,   40,  -21,   43,  -23,    2,   18,    2,   22,   20,  -18,  -51,
     -33,  -17,   15,   13,    2,  -28,   14,  -15,   14,    5,   -8,  -25,  -31,  -29,   32,  -19,
     -16,  -13,   -6,   35,   73,    4,   18,  -25,   29,  -10,   18,  -79,    2,   15,  -59,   -9,
     -11,  -17,  -10,  -19,  -14,  -63,  -71,   60,   45,  -12,   34,   43,   32,   11,   12,   43,
      39,   60,  -37,  -39,  -24,  -48,   -7,    7,    4,   12,    7,   10,  -35,  -17,  -18,  -56,
      56,  -42,   74,   29,   35,    7,   36,  -17,   34,  -68,   24,   13,  -12,  -39,   26,   39,
      20,   22,    3,  -24,  -32,  -32,  -10,   22,  -34,  -77,  -15,   38,    3,   53,  -90,  -14,
     -28,  -34,   31,   -3,  -33,   27,    6,   37,   32,  -53,   44,  -59,   11,  -29,   43,   12,
      74,    4,  -29,   -2,    1,   16,   -8,   -2,  -14,   21,   23,   19,   87,    0,   27,  -22,
     -25,   13,   10,    2,  -33,   64,  -38,   20,  -68,  -12,   55,    3,  -12,  -11,    5,  -49,
     -31,   -7,  -37,  -23,   14,   13,  -48,   -7,   45,    7,   -5,    6,   43,   -3,  -44,   62,
      43,   24,   41,   17,   -5,  -14,   29,  -19,   43,   17,   32,  -36,    1,   -1,   -2,  -32,
      44,   51, -114,    8,    4,    7,  -11,  126, -118,   40,    7,   82,   40,   47,   43,  -42,
     -55,   -9,  -65,  -24,  -19,    6,    5,   25,    5,   20,   51,   14,  -47,   21,  -46,   12,
     -10,   23,   25,   38,   -8,   36,  -50,  -93,   14,  -45,   39,  -63,   -1,   72,   41,   59,
       1,  109,  -39,  -85,  -63,   36,  -43,   20,  -29,  -38, -124,   36,  -19,   14, -105,  -47,
     -78,   39,   42,  -14,  -22,   -3,   61,   39,   -1,   16,   48,  -67,   12,  -64,   56,  -11,
     -31,   31,  -17,   72,  -60,  -16,  -14,  -15,  101,   26,   27,  -50,   -9,   -2,  -38,   28,
      81,   24,   19,  -23,    1,  -69,   10,   54,   49,    0,   13,   20,   97,   -1,  -15,  -13,
       0,  -14,   51,   27,   -9,   24,  -25,   77,   19,   25,  -67,   40,  -56,  -29,  -51,   19,
     103,  -35,  -28,  -32,   35,  -36,  106,  -93,   72,   15,   25,  -45,    9,    5,   10,   -8,
      29,   34,   -8,   28,   46,  -10,   34,   41,  -46,   13,   41,   28,   37,   39,   -3,    8,
     -33,  -48,    7,  -80,  -24,  -38,  -44,   27,   10,   -1,  -42,   14,  -12,  -74,   62,  -23,
     -49,  -19,  -52,  -66,  -50,   45,   18,  -24,   23,   18,   58,  -44,  -66,   58,   27,   65,
     -17,  -22,   72,   61,   70,  -20,   51,  -51,   66,    9,   18,  -74,   -2,   83,   23,   36,
     -53,    0,  -17,  -67,  -56,  -42,  -31,   -6,  -42,   -2, -101,   26,   20,   50,  -55,  -50,
     -28,  -34,  -33,    2,   88,    6,   42,   42,  -19,  -10,   74,  -78,  -27,  -27,   48,   19,
     -38,  -30,   68,  -31,    6,   57,    4,  -45,   64,    4,   18,  -72,   -2,   -4,  -75,   45,
      76,  -36,  -48,   16,    3,  -50,  -23,    4,  -14,  -36,  -51,  -19,   28,    0,   31,   -2,
      33,   28,   16,  -31,  -34,  -56,  -12,   30,   22,    3,   16,   18,   33,   -3,  -51,  -37,
       8,  -31,    4,  -16,   -8,  -40,    9,  -41,   31,  -48,   50,   60,   90,  -49,   68,   51,
      60,   44,    9,   48,   19,   25,    6,  -30,   -5,  -11,   12,   27,  -32,   30,   -6,  -15,
     -21,    2,  -21,   75,  -45,   45,   48,    7,   48,   -4,   63, -120,   31,  -83,   22,   53,
      69,  -17,   45,   48,   12,    7,  -60,  -80,  -36,  -12,  -28,   84,   78,   67,  -14,  -36,
       3,    6,   23,   77,    9,   -9,   16,   -4,   36,   58,    1,  -17,    7,  -25,  -30,  -83,
     111,   12,   42,  -75,    6,  -21,   30,  -66,  -28,  -58,    2,  -49,  -16,   -8,    5,   23,
      11,  -49,  -20,   11,  -73,    8,   33,  -15,  -53,   39,   69,   26,  -39,  -31,  -47,  -37,
      64,   -5,  -71,    1,   15,  -37,  -88,   51,   -6,   -8,   26,   70,   28,  -57,   10,   18,
     -81,   50,  -38,  -71,  -33,   56,   31,   24,   55,   61,    5,   26,  -68,  -17,  -52,  -22,
      18,   24,   -5,   13,   24,  -16,   -1,  -85,   16,  -42,  -39,    9,   22,   29,   46,   59,
     -81,   67,  -20,  -51,  -90,   96,  -81,   38,  -65,   17,  -10,   11,   18,   19,  -20,  -21,
     -30,  -57,   37,    6,   58,  -62,   53,   29,   17,   52,   26,  -86,   43,   -9,   22,   19,
     -47,   66,  -44,  -17,   24,  -47,  -44,  -15,   46,    1,  -30,  -39,   25,   57,   40,  -71,
       6,  -26,   -3,  -20,   67,   -9,   12,   37,   96,    6,  -25,  -67,   59,  -50,   21,    6,
     -21,   17,   37,   -6,  -15,    7,   53,   26,   15,   12,   26,  -29,  -16,   55,   44,   23,
      50,  -36,  -26,  -45,   26,   34,  -28,  -24,   62,   31,    9,   25,  -12,    5,   89,    0,
      -1,  -19,  -23,   -8,    2,   44,   16,   12,   32,   31,   10,    9,   -5,  -59,   55,   36,
      22,  -77,   61,   -7,   25,   12,    4,   -7,   51,  -24,   88,  -37,   32,  -75,  -58,   13,
      22,   29,   15,  -19,   38,   44,   22,  -24,   69,   44,    5,   28,   30,   43,  102,   72,
      55,  -80,   56,   -5,   25,   71,   57,   51,  -53,  -14,  -16,  -69,  -27,   87,   57,   24,
      86,   11,  -22,   17,  110,  -73,  -51,  -12,   40,  -44,   31,  -52,   -1,   40,   42,  -24,
     -53,  -33,   -8,  -84,   25,   52,    4,   32,   59,   63,   44,   -8,   33, -112,   16,  -30,
      -9,  -37,    1,  -13,   19,   70,   53,  -26,   54,  -22,  -32,  -26,  -23,  -11,   10,  -37,
     -11,   11,   14,    2,  -30,  -30,  -60,   -4,  -18,  -30,  -60,   35,   59,  -31,  -24,  -20,
     -47,   -3,    6,  -25,  -74,  -32,   12,   55,  -42,  -18,   -8,  -25,    5,   28,  -52,  -65,
      29,  -80,   53,   36,   45,   20,   61,   26,  -34,   -1,   72,   -8,   26,  -51,   71,   49,
      31,   14,   18,    0,  -52,   19,   23,  -41,   -1,  -56,  -37,   62,    8,    8,   27,   -6,
      39,   45,  -29,   38,  -44,  -57,  -28,  -47,   13,   48,   57,   -4,  -19,  -20,  -75,    2,
       7,  -12,   -8,   -6,    6,    9,   64,   -9,   -8,   32,   39,  -44,   39,    2,  -67,   69,
      56,  -44,   -6,  -16,   28,   37,   19,   -3,  -29,   40,   10,  -30,  -29,   34,   19,   50,
       7,  -50,   14,   37,  -10,   33,   20,   54,  -11,    9,   16,    2,   -3,  -14,   49,  -11,
     -11,  -10,   26,  -72,   20,   62,   -5,    9,   -5,   68,   37,   -1,   81,  -16,   61,   39,
     -42,    4,    5,  -10,    4,   32,   46,  -43,   81,   33,  -32,  -11,    4,   -7,  -57,  -11,
      45,  -38,  -33,   17,   -2,  -85,  -45,   21,  -91,  -59,  -44,  -65,  -52,  -25,  -19,    8,
     -25,   43,    3,   -1,  -37, -105,  -61,  -14,    7,    6,  -50,   48,   11,  -73,  -83,   21,
      11,  -93,   -1,   -5,  -52,  -68,   69,  -15,  -72,  -64,   34,   54,   28,  -52,   45,   -3,
       2,    0,  -45,  -13,    3,   18,   14,    6,  -35,  -68,  -89,   19,  -29,   25,  -22,  -45,
      45,  -65,   -2,   -9,   33,  -10,    5,  -28,   14,  -63,    2,   27,  -44,   66,   60,   -4,
       5,  -14,  100,   51,  -35,   38,  -14,  -36,    8,   10,  -25,   27,   15,   36,   59,  -16,
      -7,  -35,  -67,  -31,   46,    2,    0,   69,  -53,  -39,  -18,   37,   45,  -14,   39,   50,
      41,   34,  -40,   15,   42,   18,   -4,  -16,   10,   33,   -5,  -47,  -29,   28,  -16,  -48,
      77,  -32,   -6,  -23,  -37,  -47,  -28,   -3,  -16,   28,  -48,  -12,  -18,   -9,   -7,    1,
      68,  -28,  -36,   -9,    4,  -14,  -44,   46,  -50,  -25,  -10,    5,  -23,  -54,   36,   32,
      20,  -44,  -18,  -24,    6,    8,   71,  -61,  -55,   22,   29,   15,  -63,  -35,  -51,  -27,
       9,  -65,    1,   10,   -3,  -33,    6,  -55,   36,   19,  -33,  -35,  -49,    4,    6,  -22,
     -59,   19,  -39,  -58,  -52,   45,  -52,   53,  -74,   30,  -16,   28,   40,  -22,  -30,  -33,
      -5,  -18,   59,  -42,  -28,   -2,  -16,   15,  -12,  -21,    7,  -22,  -14,  -11,  -22,   27,
      12,  -25,   41,   42,   23,  -18,   43,  -49,  -34,  -61,   27,   29,  -24,  -20,   12,    7,
      21,  -13,   66,   19,  -21,   -3,  -33,  -26,   24,   29,  -21,  -11,   40,  -18,   25,  -17,
      20,  -18,  -78,   33,   13,   14,   29,  -13,  -42,    2,  -16,  -11,   30,   11,   55,   12,
      -9,   48,  -60,   59,   39,  -13,   -6,   47,    0,   72,   21,    3,  -42,   45,  -34,  -25,
      31,   40,    8,  -60,  -52,   59,   41,    3,   29,   22,   22,    1,  -11,  -52,   -4,   -6,
       7,  -12,  -33,   22,  -20,   21,  -54,  -45,   15,   18,   26,   21,   -7,  -80,   43,  -26,
       4,  -17,  -48,   -5,   34,   21,   -7,  -18,   32,   63,   33,    8,  -29,  -62, -104,  -11,
     -14,  -50,  -55,   26,   -7,   35,    0,  -72,   26,  -42,  -17,  -52,  -42,    8,   -7,  -26,
      -9,   75,  -29,   18,  -25,   63,  -36,   71,  -40,   50,  -52,  -17,  -13,   33,    9,  -59,
     -14,  -28,   14,    2,  -37,   23,   47,   41,   29,   18,    6,  -27,  -31,   16,   26,   14,
      -6,  -78,   32,  -26,   45,   74,   23,   16,  -25,    2,  -17,   40,    0,  -70,    8,   27,
      30,  -47,   80,   21,  -54,  -29,   19,  -11,  -89,  -24,   -2,   44,   -2,   -4,   29,  -59,
     -63,   -1,  -35,  -73,  -45,  -12,   17,   67,  -44,  -26,  -47,    1,  -34,  -65,  -23,  -18,
     -10,   21,   42,   41,   57,  -58,   90,   12,    7,  -25,   13,   12,   12,  -14,   -1,   12,
     -20,    5,    1,   34,   15,   57,    6,  -30,  -25,  -57,  -65,   19,  -91,   25,   15,  -38,
      31,  -15,   37,  -15,  -17,    5,   23,  -29,   30,  -19,   35,   21,   30,  -31,  -14,  -65,
     -34,   19,  120,   -7,   17,   35,   39,   40,   45,  -10,  -26,  -60,   68,   -6,  114,   37,
       3,  -58,  -19,   46,   99,    5,   45,   67,   -9,   41,   22,  -48,   60,   14,   66,    3,
      70,   18,    4,   17,   32,    2,  -52,   36,  -36,  -31,  -17,   -5,  -39,   39,  -13,  -13,
     -69,   45,   32,  -20,  -68,  -45,   61,   52,   55,   56,    1,   34,  -26,  -17,   -3,  -39,
     -23,  -23,    8,  -15,   33,   -7,   24,  -65,   30,   -9,   35,  -36,   30,   63,  -62,   37,
      82,  -44,  -53,    6,   12,   -8,    0,   34,  -39,  -21,  -32,   12,   15,  -36,   -8,  -29,
     -31,  -24,  -12,  -17,  -18,  -45,  -36,   46,  -31,  -23,  -51,   38,  -30,  -65,    4,   10,
      -6,  -56,    2,    3,   43,   -1,   83,  -20,   23,   45,   32,   -3,   27,  -25,   65,   -3,
      76,  -29,    3,   -8,  -43,  -12,  -66,  -18,  -20,  -66,  -52,   39,   35,   25,   25,   29,
     -11,   47,  -31,   28,   49,   24,   20,    7,   54,   58,  -37,  -15,   27,   68,   11,   50,
       1,   25,  -26,   30,  -49,  -66,  -15,  -11,  -28,  -64,  -16,   45,   19,   27,  -11,   -5,
     -31,   46,  -15,  -26,   -2,  -42,  -16,   15,  -16,   65,   15,   34,   46,  -35,    1,  -45,
      33,  -43,   72,   -8,  -15,  -36,   41,   34,    5,  -61,   52,   68,   15,  -36,   55,   44,
      42,   26,  -49,   51,  -41,  -20,   -1,  -28,  -33,  -73,   -3,  -14,  -10,   19,  -49,  -43,
       0,   18,   47,    2,    2,  -29,  -35,  -30,  -40,  -13,   -8,  -22,   35,    9,   -1,   16,
      36,   99,  -11,  -25,   -9,  -23,   84,   22,   20,   13,  -31,  -13,   -4,   64,   88,   30,
     -12,  -22,   59,   18,    9,   51,   52,   21,   16,  -40,  -29,   12,  -22,   11,   62,   85,
     -44,   18,    3,   -1,   75,  -18,   -3,   -9,   20,  -71,  -29,   -8,  -17,   63,  -67,   40,
      -6,   36,    4,   18,   36,   24,   41,   52,  -49,  -24,   -7,  -22,   58,  -82,    2,  -42,
      47,    1,  -62,  -53,   35,   21,  -25,   83,   -4,  -19,   -3,   40,   31,  -26,   60,   10,
     -57,  -39,  -65,  -21,  -49,   35,   53,   28,   24,    4,   52,   20,  -92,   -1,  -11,  -16,
     -48,  -10,  -10,   -4,  -14,    6,   -5,  -61,   37,  -41,  -54,   21,  -18,   -2,  -37,   16,
     -60,  104,  -68,  -59,  -18,   76,  -56,    9, -103,   -2,  -17,  -31,  -10,   16,  -39,  -38,
     -14,  -62,   25,  -28,   17,  -75,   13,   16,   72,  -59,   -8,  -82,   -7,   19,   -9,   23,
      54,  -27, -112,  -24,  -39,  -44,  -58,   39,   -6,   21,  -31,   73,   -1,  -34,   53,   -6,
      18,   21,   19,  -10,  -31,   11,   33,   14,   42,  -14,   12,   17,  -54,  -18,  -19,   -3,
      49,   -8,  -12,   17,   58,   64,  -23,    8,  -18,    6,   23,  -36,  -34,  -14,  -39,   53,
     -26,    7,  -31,    3,  -25,   50,  -51,   38,  -22,   60,  -36,  -20,  -24,    8,  -70,  -81,
       1,   -4,   35,   -8,   51,   -1,   73,   31,   70,   60,  -13,  -45,  -22,  -11,   -1,   45,
     -85,  -28,   -9,   24,   68,   22,   -8,    5,   -9,   40,  -42,    1,  -21,   49,  -63,   11,
      58,  -34,  -40,   11,   -5,  -92,   -2,   29,  -15,  -43,  -29,   17,   54,   22,  -16,  -56,
     -46,   85,  -54,   16,   43,  -35,  -18,   19,   38,   24,  -17,    0,  -37,  -22,  -51,  -13,
      17,  -17,   98,   -6,    7,  -49,  102,  -47,  -36,   35,  -24,   55,    8,  -46,   13,   58,
       2,    0,  -25,   60,   45,    5,  -29,    0,  -10,  -81,   38,   59,   -9,    6,  -39,   36,
      70,  -70,  -52,   24,  -22,  -73,   10,   -9,   11,  -62,   37,   57,  -39,   21,   -2,   34,
       4,   26,  -62,  -27,   17,   -3,  -18,  -45,   38,  -24,   24,   54,   -2,  -54,  -53,   19,
      -5,  -56,  -22,    1,  -26,  -30,  -39,    3,    0,  -32,   20,   32,  -17,   12,   29,   29,
       3,   93,  -93,   28,  -17,   75,  -33,   29,  -15,   38,  -17,   -2,   18,  -30,  -41,  -28,
      17,  -61,   72,  -20,  -13,  -26,   39,   -4,   12,   52,  -30,  -28,  -10,   15,  -14,   27,
      34,   39,   22,   68,   28,   22,    6,  -13,  113,   35,   18,   12,   54,   -5,  -27,  -27,
      90,  -64,  -49,   48,   46,    3,   12,   23,  -66,  -15,  -19,   32,   54,  -25,  -80,   29,
     -42,  -16,  -41,  -21,  -76,  -48,  -14,   34,  -27,    8,    7,   35,  -33,  -26, -117,  -42,
      33,  -40,   88,   -8,    8,   -5,   84,    2,  -28,  -20,   84,  -22,  -46,  -30,  109,   58,
      36,  -36,  -53,  -22,   39,  -15,  -54,   11,   -3,  -20,  -53,   24,   37,  -23,  -39,  -16,
      15,   31,  -26,  -40,  -42,  -32,  -48,  -25,  -38,  -12,   54,  -17,    1,   41,   11,  -23,
      16,   30,  -16,   18,   36,   75,    4,    9,   89,   76,  -38,   46,   52,   47,   33,   37,
      20,  -26,   -4,   20,  -27,  -40,   46,  -36,   57,   16,    5,  -13,  -89,  -55,  -33,   -1,
     -21,  -20,  -16,    6,   33,   26,   30,   40,   24,   40,   52,  -12,   11,   33,   42,   13,
      84,  -15,   -1,   22,   -6,   35,  -17,   -2,    5,  -12,   53,  -33,  -40,   28,   17,    5,
      18,   16,    1,    1,   33,  -46,   11,   51,   11,    3,  -69,   84,   21,   18,   24,  -21,
     -92,   63,    8,  -10,   30,  -60,    3,  -27,   16,  -50,   21,  -57,  -44,  -29,  -10,   33,
     -70,   62,  -10,   25,   41,  -21,   46,  -48,  -24,   45,  -29,  -79,   33,   54,   40,    1,
     -27,   10,  -39,  -44,  -51,  -12,  -63,   66,  -13,   32,  -47,   25,    7,  -42,   -3,  -64,
     -73,   35,  -54,   27,  -37,    8,    0,   80,    3,  -32,  -17,  -23,   35,    9,    2,   34,
     -57,   39,   45,  -45,  -40,   37,   40,  -42,    1,  -25,   17,  -45,   -3,   55,  -69,   21,
     -74,   57,   32,   39,   -3,  -38,   -6,   26,   10,   14,  -16,   22,   62,   30,   70,   32,
       5,   -5,  -68,   62,   21,   -2,   64,    6,    3,   -9,   30,   29,   -8,   -6,   33,   27,
      12,   -4,   15,   17,   -9,  -38,   20,  -25,   22,  -47,    0,  -22,    6,   -5,   28,   10,
      42,   45,  -54,  -36,   -6,   19,    4,   24,  -73,  -36,   34,   36,   10,  -27,  -14,  -20,
     -47,  -41,   51,  -19,  -88,  -15,   38,  -57,   22,  -53,  -16, -100,   13,   81,  -23,   33,
       7,   51,   55,   21,   15,  -68,   18,  -44,   66,  -43,  -26,  -20,   28,   38,   93,   20,
      22,  -36,  -55,  -34,   -6,   50,  -23,   24,   -9,  -22,   72,   45,   34,   10,   13,   49,
      15,   35,  -53,   56,   16,  -13,    2,   -7,   52,  -65,  -53,   38,   51,   17,  -45,   -4,
      34,   19,    7,   67,  -70,   16,   10,   12,  -50,   25,   -4,  -39,  -61,   16,    6,  -47,
     -62,  -51,  -19,  -22,   26, -102,  -85,  -24,   13,   46,   81,  -88,   -5,  -56,  -34,  -16,
     -21,   29,  -42,  -52,    0,    9,   -4,    6,   66,  112,   34,   31,   62,  -12,   54,   40,
      12,  -14,   53,   19,   71,   10,   83,   41,   74,    3,   31,  -15,  -65,  104,   48,   28,
      18,  -48,   52,  -48,   52,   50,    2,  -28,   23,  -21,   31,   -8,  -40,  -29,   37,   67,
     -26,  -16,   -1,  -49,   64,   -6,    4,   -3,  -79,   48,  110,   20,   62,  -78,  -12,   99,
      31,   14,  -15,  -18,    1,   23,  -23,   -5,   -8,  -51,   40,    0,  -56,   25,  -14,  -38,
     -18,   13,  -31,  -55,  -64,   95,   24,   -6,   12,   12,   38,    5,  -16,  -22,  -44,   19,
       4,  -56,   47,   -9,  -12,   15,   28,  -61,  -34,  -49,   26,  -68,  -42,  -20,   86,   -4,
     -61,  -28,  -20,   -2,  -63,    0,  -95,   35,  -41,  -16,   -5,  -74,   17,   32,   10,  -21,
     -38,  -23,    4,    7,   65,   -5,   40,  -30,   55,    1,   21,  -41,   21,   -9,   85,  -37,
       5,  -11,   22,   41,   42,   69,   -1,   90,   -5,  -20,  -17,   75,  -54,  -32,    4,   21,
       3,  -70,   45,   36,  -41,   29,  -64,  -60,  -80,  -19,   33,    1,  -66,  -61,  -44,  -30,
     -14,   33,   24,  -46,  -75,  -72,   -2,  -11,   24,    2,  -10,  -69,   68,  -40,  -37,  -56,
     -54,   21,    6,    3,  -85,    2,   -7,   22,  -51,  -58,   -1,   41,   -1,   23,    6,   39,
     -37,    6,  -20,   75,   79,  -63,  -35,  -29,   -1,  -35,  -34,  -41,  -48,  -34,   37,  -25,
      21,    6,  -29,  -58,   11,  -11,  -40,   27,  -60,  -25,  -87,   18,  -37,  -15,   13,   18,
     -61,   20,   76,  -14,  -35,  -57,   58,   68,   22,    7,    8,   40,  -87,  -20,   73,  -30,
      26,   80,   23,  -14,   40,   49,   21,  -63,   -4,   10,  -11,  -66,   21,   31,   22,   51,
       2,   47,  -16,   19,   13,   19,  -67,   -6,   27,  -61,  -67,   65,   -1,   41,  -48,  -29,
     -55,   43,  -23,  -14,   13,   30,   27,   44,   23,   24,  -21,  -36,   13,  -79,  -68,  -40,
      63,  -34,  -43,   22,   19,   21,   15,  -23,  -11,   16,   63,  -24,  -10,   -6,   50,  -28,
      38,  -16,  -36,  -26,    6,   41,   34,   -1,  -42,  -52,   63,   -4,  -21,   32,  -36,   -7,
      -5,  -45,   33,   43,   63,  -12,   34,  -25,   20,   -4,    2,    2,  -10,  -39,   43,  -11,
      10,   92,  -32,  -47,    7,   20,  -70,   -4,   -5,  -21,  -12,  -53,   -1,  -16,  -23,  -70,
      -7,  -40,   20,    0,  -29,   42,    2,  -60,  -10,   40,   29,    4,  -36,   27,   19,  -13,
       0,  -11,  -69,   -6,   17,  -80,  -41,  -16,  -19,  -21,  -23,   28,  -54,  -39,   34,  -35,
     -61,   14,    7,  -17,   24,  -13,  -13,  -27,   60,  -34,   31,  -32,  -27,  -27,   12,   35,
      38,   -9,   40,   23,   29,   37,   30,   15,   24,  -32,    6,    7,   22,   19,   10,   22,
     -24,   15,  -85,  -25,  -37,    8,  -87,  -31,   18,  -27,  -72,  -32,   -5,   45,  -61,  -36,
     -28,  -16,   17,   23,   34,  -37,   23,   21,  -39,  -21,   12,  -65,   16,  -72,   24,   15,
     -59,   55,  101,   62,   31,   34,   26,  -75,   21,   37,   16,  -22,   29,   11,   18,   31,
      46,  -56,   53,   55,  -27,  -59,  -65,  -62,    2,  -54,    1,   46,  126,  -26,   42,   71,
     -15,   -5,   31,  -15,  -25,  -13,   22,  108,  -50,   65,   33,   23,   55,   46,   27,   -7,
     105, -127,   65,   70,   84,  -86,   29,  -22,   15,  -26,   79,    2,    8,  -40,   62,   67,
      65,   38,  -66,  -34,   54,   32,  -14,  -10,    9,  -56,   -4,   61,    7,  -27,  -34,  -14,
};
static const float mamba_l0_fwd_out_proj_w_scale = 2.24656984e-03f;

static const int16_t mamba_l0_bwd_a_log_q15[1280] = {
    -2927, 20117, 32767, 32767, 32767, 32767, 32767, 32767,
    32767, 32767, 32767, 32767, 32767, 32767, 32767, 32767,
    -7126, 15925, 29478, 32767, 32767, 32767, 32767, 32767,
    32767, 32767, 32767, 32767, 32767, 32767, 32767, 32767,
    -10539, 11982, 25855, 32767, 32767, 32767, 32767, 32767,
    32767, 32767, 32767, 32767, 32767, 32767, 32767, 32767,
    1996, 24759, 32767, 32767, 32767, 32767, 32767, 32767,
    32767, 32767, 32767, 32767, 32767, 32767, 32767, 32767,
    313, 22430, 32767, 32767, 32767, 32767, 32767, 32767,
    32767, 32767, 32767, 32767, 32767, 32767, 32767, 32767,
    -1851, 21473, 32767, 32767, 32767, 32767, 32767, 32767,
    32767, 32767, 32767, 32767, 32767, 32767, 32767, 32767,
    -4421, 19853, 32767, 32767, 32767, 32767, 32767, 32767,
    32767, 32767, 32767, 32767, 32767, 32767, 32767, 32767,
    -9831, 15805, 29503, 32767, 32767, 32767, 32767, 32767,
    32767, 32767, 32767, 32767, 32767, 32767, 32767, 32767,
    -435, 21929, 32767, 32767, 32767, 32767, 32767, 32767,
    32767, 32767, 32767, 32767, 32767, 32767, 32767, 32767,
    -3561, 20793, 32767, 32767, 32767, 32767, 32767, 32767,
    32767, 32767, 32767, 32767, 32767, 32767, 32767, 32767,
    348, 23874, 32767, 32767, 32767, 32767, 32767, 32767,
    32767, 32767, 32767, 32767, 32767, 32767, 32767, 32767,
    -3453, 20316, 32767, 32767, 32767, 32767, 32767, 32767,
    32767, 32767, 32767, 32767, 32767, 32767, 32767, 32767,
    -2763, 21960, 32767, 32767, 32767, 32767, 32767, 32767,
    32767, 32767, 32767, 32767, 32767, 32767, 32767, 32767,
    -1837, 20798, 32471, 32767, 32767, 32767, 32767, 32767,
    32767, 32767, 32767, 32767, 32767, 32767, 32767, 32767,
    -1662, 21025, 32767, 32767, 32767, 32767, 32767, 32767,
    32767, 32767, 32767, 32767, 32767, 32767, 32767, 32767,
    -1344, 21862, 32767, 32767, 32767, 32767, 32767, 32767,
    32767, 32767, 32767, 32767, 32767, 32767, 32767, 32767,
    -2008, 22103, 32767, 32767, 32767, 32767, 32767, 32767,
    32767, 32767, 32767, 32767, 32767, 32767, 32767, 32767,
    -2566, 21082, 32767, 32767, 32767, 32767, 32767, 32767,
    32767, 32767, 32767, 32767, 32767, 32767, 32767, 32767,
    -221, 20983, 32767, 32767, 32767, 32767, 32767, 32767,
    32767, 32767, 32767, 32767, 32767, 32767, 32767, 32767,
    -8155, 16478, 29690, 32767, 32767, 32767, 32767, 32767,
    32767, 32767, 32767, 32767, 32767, 32767, 32767, 32767,
    1609, 24105, 32767, 32767, 32767, 32767, 32767, 32767,
    32767, 32767, 32767, 32767, 32767, 32767, 32767, 32767,
    -6753, 16311, 32767, 32767, 32767, 32767, 32767, 32767,
    32767, 32767, 32767, 32767, 32767, 32767, 32767, 32767,
    -3932, 20141, 32767, 32767, 32767, 32767, 32767, 32767,
    32767, 32767, 32767, 32767, 32767, 32767, 32767, 32767,
    -1051, 21433, 32767, 32767, 32767, 32767, 32767, 32767,
    32767, 32767, 32767, 32767, 32767, 32767, 32767, 32767,
    -3727, 20008, 32698, 32767, 32767, 32767, 32767, 32767,
    32767, 32767, 32767, 32767, 32767, 32767, 32767, 32767,
    -1271, 22331, 32767, 32767, 32767, 32767, 32767, 32767,
    32767, 32767, 32767, 32767, 32767, 32767, 32767, 32767,
    -904, 22691, 32767, 32767, 32767, 32767, 32767, 32767,
